tree
version=v3
num_class=1
num_tree_per_iteration=1
label_index=0
max_feature_idx=153
objective=regression
feature_names=year week_of_year sales_lag_2 sales_lag_3 sales_lag_4 sales_lag_5 sales_lag_6 sales_lag_7 sales_lag_8 sales_lag_9 sales_lag_10 sales_lag_11 sales_lag_12 sales_lag_13 sales_lag_14 sales_lag_15 sales_lag_16 sales_lag_17 sales_lag_18 sales_lag_19 sales_lag_20 sales_lag_21 sales_lag_22 sales_lag_23 sales_lag_24 sales_lag_25 sales_lag_26 sales_lag_27 sales_lag_28 sales_lag_29 sales_lag_30 sales_lag_31 sales_lag_32 sales_lag_33 sales_lag_34 sales_lag_35 sales_lag_36 sales_lag_37 sales_lag_38 sales_lag_39 sales_lag_40 sales_lag_41 sales_lag_42 sales_lag_43 sales_lag_44 sales_lag_45 sales_lag_46 sales_lag_47 sales_lag_48 sales_lag_49 sales_lag_50 sales_lag_51 sales_lag_52 sales_lag_53 item_price store_chiba store_ginza store_kobe store_morioka store_nagoya store_osaka store_sendai store_shinjuku store_ueno store_yokohama item_apple_juice item_beer item_coffee item_fruit_juice item_milk item_mineral_water item_orange_juice item_soy_milk item_sparkling_water item_sports_drink week_of_year_1 week_of_year_2 week_of_year_3 week_of_year_4 week_of_year_5 week_of_year_6 week_of_year_7 week_of_year_8 week_of_year_9 week_of_year_10 week_of_year_11 week_of_year_12 week_of_year_13 week_of_year_14 week_of_year_15 week_of_year_16 week_of_year_17 week_of_year_18 week_of_year_19 week_of_year_20 week_of_year_21 week_of_year_22 week_of_year_23 week_of_year_24 week_of_year_25 week_of_year_26 week_of_year_27 week_of_year_28 week_of_year_29 week_of_year_30 week_of_year_31 week_of_year_32 week_of_year_33 week_of_year_34 week_of_year_35 week_of_year_36 week_of_year_37 week_of_year_38 week_of_year_39 week_of_year_40 week_of_year_41 week_of_year_42 week_of_year_43 week_of_year_44 week_of_year_45 week_of_year_46 week_of_year_47 week_of_year_48 week_of_year_49 week_of_year_50 week_of_year_51 week_of_year_52 week_of_year_53 month_1 month_2 month_3 month_4 month_5 month_6 month_7 month_8 month_9 month_10 month_11 month_12 year_2017 year_2018 year_2019 year_2020 year_2021 year_2022 year_2023 year_2024 year_2025 year_2026 year_2027 year_2028 year_2029 year_2030
feature_infos=[2017:2021] [1:53] [0:1180] [0:1180] [0:1180] [0:1180] [0:1180] [0:1180] [0:1180] [0:1180] [0:1180] [0:1180] [0:1180] [0:1180] [0:1180] [0:1180] [0:1180] [0:1180] [0:1180] [0:1180] [0:1180] [0:1180] [0:1180] [0:1180] [0:1180] [0:1180] [0:1180] [0:1180] [0:1180] [0:1142] [0:1180] [0:1180] [0:1180] [0:1180] [0:1180] [0:1180] [0:1180] [0:1180] [0:1180] [0:1180] [0:1180] [0:1180] [0:1180] [0:1180] [0:1180] [0:1180] [0:1180] [0:1180] [0:1180] [0:1180] [0:1180] [0:1180] [0:1180] [0:1180] [0:1] [0:1] [0:1] [0:1] [0:1] [0:1] [0:1] [0:1] [0:1] [0:1] [0:1] [0:1] [0:1] [0:1] [0:1] [0:1] [0:1] [0:1] [0:1] [0:1] [0:1] [0:1] [0:1] [0:1] [0:1] [0:1] [0:1] [0:1] [0:1] [0:1] [0:1] [0:1] [0:1] [0:1] [0:1] [0:1] [0:1] [0:1] [0:1] [0:1] [0:1] [0:1] [0:1] [0:1] [0:1] [0:1] [0:1] [0:1] [0:1] [0:1] [0:1] [0:1] [0:1] [0:1] [0:1] [0:1] [0:1] [0:1] [0:1] [0:1] [0:1] [0:1] [0:1] [0:1] [0:1] [0:1] [0:1] [0:1] [0:1] [0:1] [0:1] [0:1] [0:1] [0:1] [0:1] [0:1] [0:1] [0:1] [0:1] [0:1] [0:1] [0:1] [0:1] [0:1] [0:1] [0:1] [0:1] [0:1] [0:1] [0:1] [0:1] none none none none none none none none none
tree_sizes=409 410 408 409 411 412 413 411 412 413 415 413 411 415 414 415 413 414 413 415 415 414 415 412 417 414 410 414 416 417 413 417 416 417 418 409 417 409 413 412 412 418 417 416 417 420 413 411 411 414 414 415 424 415 413 412 417 416 416 422 422 413 413 412 417 416 416 413 414 412 417 418 417 416 423 418 414 414 409 421 415 417 418 415 416 416 418 421 417 415 407 415 416 417 418 418 419 416 410 412 411 418 411 409 410 409 406 413 412 411 407 411 416 404 411 411 406 413 416 411 410 416 411 408 411 416 414 413 414 417 409 406 411 406 409 413 413 410 414 407 418 420 404 410 414 414 419 410 410 413 412 420 405 411 414 412 409 413 420 420 420 413 413 409 409 414 420 413 414 414 410 414 407 416 410 415 407 412 409 415 413 416 419 415 409 420 406 417 414 413 413 412 415 414 415 410 409 418 407 415 403 413 414 412 407 414 409 406 410 420 413 416 408 408 414 414 406 408 417 406 414 418 405 419 408 417 412 413 404 415 407 409 414 415 408 412 417 408 409 406 410 412 407 417 415 414 407 412 410 409 415 405 406 412 415 411 415 415 416 411 417 404 415 416 403 418 398 407 414 416 408 407 416 412 405 408 407 419 405 408 410 415 412 396 415 418 406 411 422 418 408 419 409 408 407 419 419 408 410 421 407 409 407 397 415 417 407 408 408 409 418 416 421 413 423 409 408 411 408 407 406 414 412 406 409 417 414 410 420 415 399 407 416 409 419 408 408 409 412 422 411 405 408 412 406 410 411 410 417 408 409 404 407 412 420 417 417 409 409 422 404 416 409 408 407 420 412 413 415 418 411 409 420 419 409 418 418 412 409 408 410 422 397 414 409 409 416 412 416 408 414 418 407 418 418 407 409 419 409 422 412 412 411 412 422 409 418 409 398 416 411 419 418 414 416 409 422 409 409 414 416 409 411 417 410 411 415 413 409 415 413 409 413 409 409 416 416 421 411 408 408 415 405 411 424 424 415 409 418 409 405 417 410 416 408 411 410 406 411 417 401 418 410 415 408 413 408 408 417 410 417 408 408 421 424 411 408 412 408 410 407 412 410 408 410 410 416 414 405 418 420 423 417 418 415 413 408 410 399 414 409 410 412 410 415 405 411 406 407 410 410 414 411 420 424 406 416 408 423 409 411 411 411 409 409 411 407 424 406 409 410 420 412 409 414 411 417 417 409 414 423 408 419 405 410 416 409 409 409 417 410 416 418 410 409 411 410 418 409 418 401 418 403 414 412 424 410 407 406 419 408 407 411 413 417 411 409 412 415 418 409 421 418 409 409 410 411 409 412 415 416 411 409 417 416 411 418 409 409 407 406 407 416 411 408 414 408 407 413 418 411 408 402 406 410 419 408 401 417 417 412 414 411 410 422 411 409 410 419 409 411 418 417 413 422 410 410 424 408 410 401 413 410 417 410 409 409 413 417 414 411 410 410 410 413 411 420 409 415 410 408 410 411 407 402 408 410 406 419 421 409 415 414 416 422 420 413 410 405 406 418 410 408 413 410 409 415 408 425 408 408 408 413 410 411 407 414 407 407 407 410 414 408 415 404 410 417 418 417 408 416 416 409 414 412 417 409 403 410 409 409 410 409 412 408 416 418 411 411 418 410 409 423 408 408 419 410 405 409 410 402 410 416 407 409 406 413 409 419 414 407 408 423 413 410 420 414 412 411 412 409 415 408 411 412 419 414 406 410 416 416 410 408 412 412 400 410 409 418 414 418 412 424 422 418 410 410 423 409 407 409 412 408 416 412 410 409 412 418 412 409 408 418 407 399 408 413 409 413 409 410 411 404 419 409 410 417 408 408 406 421 412 409 421 418 411 410 404 413 409 410 411 407 407 421 409 416 407 411 424 412

Tree=0
num_leaves=3
num_cat=0
split_feature=2 2
split_gain=7.22522e+08 1.08629e+08
threshold=406.50000000000006 644.50000000000011
decision_type=2 2
left_child=-1 -2
right_child=1 -3
leaf_value=348.06516506619857 362.556179652487 374.95024304913426
leaf_weight=15390 5759 2551
leaf_count=15390 5759 2551
internal_value=354.48 366.361
internal_weight=0 8310
internal_count=23700 8310
is_linear=0
shrinkage=1


Tree=1
num_leaves=3
num_cat=0
split_feature=2 2
split_gain=6.55526e+08 1.17659e+08
threshold=375.50000000000006 617.50000000000011
decision_type=2 2
left_child=-1 -2
right_child=1 -3
leaf_value=-6.6543380916636883 6.4634458084278394 18.485302380254794
leaf_weight=14448 6229 3023
leaf_count=14448 6229 3023
internal_value=0 10.3915
internal_weight=0 9252
internal_count=23700 9252
is_linear=0
shrinkage=0.05


Tree=2
num_leaves=3
num_cat=0
split_feature=2 2
split_gain=5.92184e+08 1.1256e+08
threshold=366.50000000000006 605.50000000000011
decision_type=2 2
left_child=-1 -2
right_child=1 -3
leaf_value=-6.499866602427848 5.7205173340752893 17.175869189404253
leaf_weight=14138 6315 3247
leaf_count=14138 6315 3247
internal_value=0 9.61045
internal_weight=0 9562
internal_count=23700 9562
is_linear=0
shrinkage=0.05


Tree=3
num_leaves=3
num_cat=0
split_feature=4 4
split_gain=5.32012e+08 8.85818e+07
threshold=375.50000000000006 617.50000000000011
decision_type=2 2
left_child=-1 -2
right_child=1 -3
leaf_value=-5.9327432791916594 6.0452459725475371 16.56010869087919
leaf_weight=14565 6169 2966
leaf_count=14565 6169 2966
internal_value=0 9.45927
internal_weight=0 9135
internal_count=23700 9135
is_linear=0
shrinkage=0.05


Tree=4
num_leaves=3
num_cat=0
split_feature=2 2
split_gain=4.8989e+08 1.02518e+08
threshold=349.50000000000006 582.50000000000011
decision_type=2 2
left_child=-1 -2
right_child=1 -3
leaf_value=-6.2093738005161239 4.5044355760067303 14.951183967997308
leaf_weight=13573 6426 3701
leaf_count=13573 6426 3701
internal_value=0 8.32229
internal_weight=0 10127
internal_count=23700 10127
is_linear=0
shrinkage=0.05


Tree=5
num_leaves=3
num_cat=0
split_feature=2 2
split_gain=4.45871e+08 9.66586e+07
threshold=442.50000000000006 244.50000000000003
decision_type=2 2
left_child=1 -1
right_child=-2 -3
leaf_value=-7.7140654476380766 10.306779948251867 0.10550573117606661
leaf_weight=9808 7273 6619
leaf_count=9808 7273 6619
internal_value=0 -4.56329
internal_weight=0 16427
internal_count=23700 16427
is_linear=0
shrinkage=0.05


Tree=6
num_leaves=3
num_cat=0
split_feature=7 52
split_gain=3.78854e+08 9.33177e+07
threshold=330.50000000000006 564.50000000000011
decision_type=2 2
left_child=-1 -2
right_child=1 -3
leaf_value=-5.6107586078111709 4.1008636125027094 14.515552917612661
leaf_weight=13257 7413 3030
leaf_count=13257 7413 3030
internal_value=0 7.12265
internal_weight=0 10443
internal_count=23700 10443
is_linear=0
shrinkage=0.05


Tree=7
num_leaves=3
num_cat=0
split_feature=3 3
split_gain=3.69036e+08 8.74837e+07
threshold=330.50000000000006 582.50000000000011
decision_type=2 2
left_child=-1 -2
right_child=1 -3
leaf_value=-5.6633342769316188 3.612739175904089 13.138354973133557
leaf_weight=12994 7041 3665
leaf_count=12994 7041 3665
internal_value=0 6.87366
internal_weight=0 10706
internal_count=23700 10706
is_linear=0
shrinkage=0.05


Tree=8
num_leaves=3
num_cat=0
split_feature=4 4
split_gain=3.31612e+08 7.1373e+07
threshold=427.50000000000006 232.50000000000003
decision_type=2 2
left_child=1 -1
right_child=-2 -3
leaf_value=-6.8658854469856925 8.6049623624816043 -0.10709119506705289
leaf_weight=9426 7604 6670
leaf_count=9426 7604 6670
internal_value=0 -4.06512
internal_weight=0 16096
internal_count=23700 16096
is_linear=0
shrinkage=0.05


Tree=9
num_leaves=3
num_cat=0
split_feature=3 3
split_gain=3.04827e+08 6.55693e+07
threshold=429.50000000000006 224.50000000000003
decision_type=2 2
left_child=1 -1
right_child=-2 -3
leaf_value=-6.7518525096000523 8.2589244056120901 -0.33304918219005464
leaf_weight=8934 7593 7173
leaf_count=8934 7593 7173
internal_value=0 -3.89334
internal_weight=0 16107
internal_count=23700 16107
is_linear=0
shrinkage=0.05


Tree=10
num_leaves=3
num_cat=0
split_feature=2 2
split_gain=2.82155e+08 7.01562e+07
threshold=462.50000000000006 224.50000000000003
decision_type=2 2
left_child=1 -1
right_child=-2 -3
leaf_value=-6.5053088677566819 8.7010011331220589 -0.078362431566140284
leaf_weight=8847 6688 8165
leaf_count=8847 6688 8165
internal_value=0 -3.42066
internal_weight=0 17012
internal_count=23700 17012
is_linear=0
shrinkage=0.05


Tree=11
num_leaves=3
num_cat=0
split_feature=3 3
split_gain=2.52202e+08 7.62293e+07
threshold=313.50000000000006 684.50000000000011
decision_type=2 2
left_child=-1 -2
right_child=1 -3
leaf_value=-4.9071451992764654 3.5374249781641751 14.404986997223535
leaf_weight=12440 9308 1952
leaf_count=12440 9308 1952
internal_value=0 5.42139
internal_weight=0 11260
internal_count=23700 11260
is_linear=0
shrinkage=0.05


Tree=12
num_leaves=3
num_cat=0
split_feature=2 2
split_gain=2.3534e+08 6.43496e+07
threshold=483.50000000000006 236.50000000000003
decision_type=2 2
left_child=1 -1
right_child=-2 -3
leaf_value=-5.7460260897888249 8.4557488814398862 0.3182988059799296
leaf_weight=9440 6108 8152
leaf_count=9440 6108 8152
internal_value=0 -2.93586
internal_weight=0 17592
internal_count=23700 17592
is_linear=0
shrinkage=0.05


Tree=13
num_leaves=3
num_cat=0
split_feature=2 2
split_gain=2.12739e+08 6.00179e+07
threshold=489.50000000000006 262.50000000000006
decision_type=2 2
left_child=1 -1
right_child=-2 -3
leaf_value=-5.1330224884234674 8.1810948902127922 0.79408659376357571
leaf_weight=10592 5951 7157
leaf_count=10592 5951 7157
internal_value=0 -2.74301
internal_weight=0 17749
internal_count=23700 17749
is_linear=0
shrinkage=0.05


Tree=14
num_leaves=3
num_cat=0
split_feature=3 3
split_gain=1.90536e+08 5.48563e+07
threshold=489.50000000000006 214.50000000000003
decision_type=2 2
left_child=1 -1
right_child=-2 -3
leaf_value=-5.5140144301237211 7.7764476609496018 0.047237416382373602
leaf_weight=8418 5912 9370
leaf_count=8418 5912 9370
internal_value=0 -2.58457
internal_weight=0 17788
internal_count=23700 17788
is_linear=0
shrinkage=0.05


Tree=15
num_leaves=3
num_cat=0
split_feature=3 3
split_gain=1.72442e+08 4.48903e+07
threshold=465.50000000000006 249.50000000000003
decision_type=2 2
left_child=1 -1
right_child=-2 -3
leaf_value=-4.7790127967628946 6.8889016716357974 0.42249320799916101
leaf_weight=10089 6567 7044
leaf_count=10089 6567 7044
internal_value=0 -2.64048
internal_weight=0 17133
internal_count=23700 17133
is_linear=0
shrinkage=0.05


Tree=16
num_leaves=3
num_cat=0
split_feature=4 4
split_gain=1.56499e+08 5.54572e+07
threshold=316.50000000000006 703.50000000000011
decision_type=2 2
left_child=-1 -2
right_child=1 -3
leaf_value=-3.8106321440651785 2.8174562651577659 12.584812996172628
leaf_weight=12609 9371 1720
leaf_count=12609 9371 1720
internal_value=0 4.33218
internal_weight=0 11091
internal_count=23700 11091
is_linear=0
shrinkage=0.05


Tree=17
num_leaves=3
num_cat=0
split_feature=2 2
split_gain=1.48746e+08 4.64632e+07
threshold=511.50000000000006 204.50000000000003
decision_type=2 2
left_child=1 -1
right_child=-2 -3
leaf_value=-5.0800158627206535 7.3183375054147977 0.014381915587746603
leaf_weight=7766 5370 10564
leaf_count=7766 5370 10564
internal_value=0 -2.144
internal_weight=0 18330
internal_count=23700 18330
is_linear=0
shrinkage=0.05


Tree=18
num_leaves=3
num_cat=0
split_feature=4 4
split_gain=1.30782e+08 3.85106e+07
threshold=489.50000000000006 216.50000000000003
decision_type=2 2
left_child=1 -1
right_child=-2 -3
leaf_value=-4.5348792640079312 6.4725869327329422 0.11534368324622285
leaf_weight=8614 5871 9215
leaf_count=8614 5871 9215
internal_value=0 -2.13139
internal_weight=0 17829
internal_count=23700 17829
is_linear=0
shrinkage=0.05


Tree=19
num_leaves=3
num_cat=0
split_feature=52 6
split_gain=1.21034e+08 3.85738e+07
threshold=483.50000000000006 249.50000000000003
decision_type=2 2
left_child=1 -1
right_child=-2 -3
leaf_value=-3.840010120696661 7.2109817254275717 0.67840699571372365
leaf_weight=10313 4672 8715
leaf_count=10313 4672 8715
internal_value=0 -1.77053
internal_weight=0 19028
internal_count=23700 19028
is_linear=0
shrinkage=0.05


Tree=20
num_leaves=3
num_cat=0
split_feature=3 3
split_gain=1.10165e+08 3.4899e+07
threshold=511.50000000000006 202.50000000000003
decision_type=2 2
left_child=1 -1
right_child=-2 -3
leaf_value=-4.3933525751604767 6.3286210169424777 0.021113804501215552
leaf_weight=7729 5330 10641
leaf_count=7729 5330 10641
internal_value=0 -1.83623
internal_weight=0 18370
internal_count=23700 18370
is_linear=0
shrinkage=0.05


Tree=21
num_leaves=3
num_cat=0
split_feature=2 2
split_gain=1.03814e+08 3.50081e+07
threshold=535.50000000000011 273.50000000000006
decision_type=2 2
left_child=1 -1
right_child=-2 -3
leaf_value=-3.491560166229998 6.5742349627202845 0.86927751734058989
leaf_weight=10992 4791 7917
leaf_count=10992 4791 7917
internal_value=0 -1.66572
internal_weight=0 18909
internal_count=23700 18909
is_linear=0
shrinkage=0.05


Tree=22
num_leaves=3
num_cat=0
split_feature=2 2
split_gain=9.4075e+07 3.38728e+07
threshold=551.50000000000011 194.50000000000003
decision_type=2 2
left_child=1 -1
right_child=-2 -3
leaf_value=-4.2462404961175526 6.5975904213949539 0.095985068256996695
leaf_weight=7112 4400 12188
leaf_count=7112 4400 12188
internal_value=0 -1.50411
internal_weight=0 19300
internal_count=23700 19300
is_linear=0
shrinkage=0.05


Tree=23
num_leaves=3
num_cat=0
split_feature=2 2
split_gain=8.61483e+07 4.41649e+07
threshold=313.50000000000006 735.50000000000011
decision_type=2 2
left_child=-1 -2
right_child=1 -3
leaf_value=-2.883559040580939 1.9800621959287363 11.475196486536571
leaf_weight=12376 9927 1397
leaf_count=12376 9927 1397
internal_value=0 3.15144
internal_weight=0 11324
internal_count=23700 11324
is_linear=0
shrinkage=0.05


Tree=24
num_leaves=3
num_cat=0
split_feature=52 2
split_gain=7.95323e+07 2.88204e+07
threshold=498.50000000000006 186.50000000000003
decision_type=2 2
left_child=1 -1
right_child=-2 -3
leaf_value=-4.0462109314565238 6.1218381817648329 0.020076962137786449
leaf_weight=6622 4335 12743
leaf_count=6622 4335 12743
internal_value=0 -1.37042
internal_weight=0 19365
internal_count=23700 19365
is_linear=0
shrinkage=0.05


Tree=25
num_leaves=3
num_cat=0
split_feature=2 2
split_gain=7.24688e+07 2.7433e+07
threshold=565.50000000000011 275.50000000000006
decision_type=2 2
left_child=1 -1
right_child=-2 -3
leaf_value=-2.9028275922306443 6.0693368235721428 0.86685321398077542
leaf_weight=11071 4073 8556
leaf_count=11071 4073 8556
internal_value=0 -1.25951
internal_weight=0 19627
internal_count=23700 19627
is_linear=0
shrinkage=0.05


Tree=26
num_leaves=3
num_cat=0
split_feature=46 3
split_gain=6.45707e+07 2.28598e+07
threshold=462.50000000000006 794.50000000000011
decision_type=2 2
left_child=-1 -2
right_child=1 -3
leaf_value=-1.4102198714554763 3.4221209426219161 12.409240636471061
leaf_weight=18344 4517 839
leaf_count=18344 4517 839
internal_value=0 4.82992
internal_weight=0 5356
internal_count=23700 5356
is_linear=0
shrinkage=0.05


Tree=27
num_leaves=3
num_cat=0
split_feature=2 2
split_gain=6.17229e+07 3.43638e+07
threshold=301.50000000000006 760.50000000000011
decision_type=2 2
left_child=-1 -2
right_child=1 -3
leaf_value=-2.5301943711523887 1.6753516659427299 10.71600326745553
leaf_weight=11950 10583 1167
leaf_count=11950 10583 1167
internal_value=0 2.57326
internal_weight=0 11750
internal_count=23700 11750
is_linear=0
shrinkage=0.05


Tree=28
num_leaves=3
num_cat=0
split_feature=52 5
split_gain=5.69357e+07 2.17998e+07
threshold=532.50000000000011 194.50000000000003
decision_type=2 2
left_child=1 -1
right_child=-2 -3
leaf_value=-3.2131368659527419 5.7400784721768296 0.20839088629451796
leaf_weight=7351 3654 12695
leaf_count=7351 3654 12695
internal_value=0 -1.04631
internal_weight=0 20046
internal_count=23700 20046
is_linear=0
shrinkage=0.05


Tree=29
num_leaves=3
num_cat=0
split_feature=2 2
split_gain=5.28104e+07 2.62681e+07
threshold=663.50000000000011 281.50000000000006
decision_type=2 2
left_child=1 -1
right_child=-2 -3
leaf_value=-2.4301081416071906 7.2501687048897088 1.0758142656253766
leaf_weight=11272 2271 10157
leaf_count=11272 2271 10157
internal_value=0 -0.768358
internal_weight=0 21429
internal_count=23700 21429
is_linear=0
shrinkage=0.05


Tree=30
num_leaves=3
num_cat=0
split_feature=2 2
split_gain=4.79466e+07 2.49319e+07
threshold=683.50000000000011 174.50000000000003
decision_type=2 2
left_child=1 -1
right_child=-2 -3
leaf_value=-3.45909315571113 7.436270039528984 0.35280301281805293
leaf_weight=5884 1986 15830
leaf_count=5884 1986 15830
internal_value=0 -0.680134
internal_weight=0 21714
internal_count=23700 21714
is_linear=0
shrinkage=0.05


Tree=31
num_leaves=3
num_cat=0
split_feature=48 2
split_gain=4.46978e+07 1.7473e+07
threshold=503.50000000000006 170.50000000000003
decision_type=2 2
left_child=1 -1
right_child=-2 -3
leaf_value=-3.3864349055207068 4.5803214285927867 -0.071675886757046434
leaf_weight=5591 4349 13760
leaf_count=5591 4349 13760
internal_value=0 -1.02939
internal_weight=0 19351
internal_count=23700 19351
is_linear=0
shrinkage=0.05


Tree=32
num_leaves=3
num_cat=0
split_feature=2 2
split_gain=4.10058e+07 2.2286e+07
threshold=700.50000000000011 289.50000000000006
decision_type=2 2
left_child=1 -1
right_child=-2 -3
leaf_value=-2.1019627199562025 7.2785399785916063 1.0922740515950329
leaf_weight=11569 1789 10342
leaf_count=11569 1789 10342
internal_value=0 -0.594282
internal_weight=0 21911
internal_count=23700 21911
is_linear=0
shrinkage=0.05


Tree=33
num_leaves=3
num_cat=0
split_feature=51 8
split_gain=3.86129e+07 1.59377e+07
threshold=625.50000000000011 232.50000000000003
decision_type=2 2
left_child=1 -1
right_child=-2 -3
leaf_value=-2.1326973641677727 6.4026048307085324 0.59885039331507017
leaf_weight=9747 2142 11811
leaf_count=9747 2142 11811
internal_value=0 -0.636162
internal_weight=0 21558
internal_count=23700 21558
is_linear=0
shrinkage=0.05


Tree=34
num_leaves=3
num_cat=0
split_feature=51 3
split_gain=3.4886e+07 1.86714e+07
threshold=658.50000000000011 273.50000000000006
decision_type=2 2
left_child=1 -1
right_child=-2 -3
leaf_value=-1.9845292681751685 6.8554323525985685 0.93016982603570542
leaf_weight=11062 1721 10917
leaf_count=11062 1721 10917
internal_value=0 -0.536794
internal_weight=0 21979
internal_count=23700 21979
is_linear=0
shrinkage=0.05


Tree=35
num_leaves=3
num_cat=0
split_feature=2 2
split_gain=3.21144e+07 1.34732e+07
threshold=554.50000000000011 839.50000000000011
decision_type=2 2
left_child=-1 -2
right_child=1 -3
leaf_value=-0.86910453289920797 2.8028346575449192 11.016946131115159
leaf_weight=19379 3745 576
leaf_count=19379 3745 576
internal_value=0 3.8978
internal_weight=0 4321
internal_count=23700 4321
is_linear=0
shrinkage=0.05


Tree=36
num_leaves=3
num_cat=0
split_feature=52 6
split_gain=3.02038e+07 1.45671e+07
threshold=672.50000000000011 202.50000000000003
decision_type=2 2
left_child=1 -1
right_child=-2 -3
leaf_value=-2.1773427723406349 6.7499088871720252 0.49205944846496674
leaf_weight=8000 1549 14151
leaf_count=8000 1549 14151
internal_value=0 -0.472015
internal_weight=0 22151
internal_count=23700 22151
is_linear=0
shrinkage=0.05


Tree=37
num_leaves=3
num_cat=0
split_feature=49 3
split_gain=2.77293e+07 1.20472e+07
threshold=448.50000000000006 836.50000000000011
decision_type=2 2
left_child=-1 -2
right_child=1 -3
leaf_value=-0.95030484843119201 2.2975158050928317 9.9800154141137298
leaf_weight=18109 5023 568
leaf_count=18109 5023 568
internal_value=0 3.078
internal_weight=0 5591
internal_count=23700 5591
is_linear=0
shrinkage=0.05


Tree=38
num_leaves=3
num_cat=0
split_feature=2 2
split_gain=2.56214e+07 1.59444e+07
threshold=324.50000000000006 795.50000000000011
decision_type=2 2
left_child=-1 -2
right_child=1 -3
leaf_value=-1.5263707261428057 1.2116518555326115 8.2696521807680607
leaf_weight=12728 10103 869
leaf_count=12728 10103 869
internal_value=0 1.77066
internal_weight=0 10972
internal_count=23700 10972
is_linear=0
shrinkage=0.05


Tree=39
num_leaves=3
num_cat=0
split_feature=48 52
split_gain=2.35221e+07 1.13401e+07
threshold=433.50000000000006 790.50000000000011
decision_type=2 2
left_child=-1 -2
right_child=1 -3
leaf_value=-0.91578347530178128 2.0021674299505041 9.4047838810440538
leaf_weight=17713 5415 572
leaf_count=17713 5415 572
internal_value=0 2.70942
internal_weight=0 5987
internal_count=23700 5987
is_linear=0
shrinkage=0.05


Tree=40
num_leaves=3
num_cat=0
split_feature=2 2
split_gain=2.18014e+07 1.37363e+07
threshold=295.50000000000006 795.50000000000011
decision_type=2 2
left_child=-1 -2
right_child=1 -3
leaf_value=-1.5250837705900699 1.031844780378288 7.5606913991491087
leaf_weight=11783 11048 869
leaf_count=11783 11048 869
internal_value=0 1.50794
internal_weight=0 11917
internal_count=23700 11917
is_linear=0
shrinkage=0.05


Tree=41
num_leaves=3
num_cat=0
split_feature=2 2
split_gain=2.00525e+07 1.00403e+07
threshold=514.50000000000011 158.50000000000003
decision_type=2 2
left_child=1 -1
right_child=-2 -3
leaf_value=-2.7591075598880197 2.7098852903807784 -0.091083600042282387
leaf_weight=4755 5300 13645
leaf_count=4755 5300 13645
internal_value=0 -0.780565
internal_weight=0 18400
internal_count=23700 18400
is_linear=0
shrinkage=0.05


Tree=42
num_leaves=3
num_cat=0
split_feature=49 3
split_gain=1.90917e+07 1.20636e+07
threshold=681.50000000000011 168.50000000000003
decision_type=2 2
left_child=1 -1
right_child=-2 -3
leaf_value=-2.3885353348339482 5.4614000507466391 0.30382338413173898
leaf_weight=5546 1499 16655
leaf_count=5546 1499 16655
internal_value=0 -0.368751
internal_weight=0 22201
internal_count=23700 22201
is_linear=0
shrinkage=0.05


Tree=43
num_leaves=3
num_cat=0
split_feature=2 2
split_gain=1.74133e+07 1.11512e+07
threshold=712.50000000000011 166.50000000000003
decision_type=2 2
left_child=1 -1
right_child=-2 -3
leaf_value=-2.3711603418535394 4.9544896558775484 0.26128044051495986
leaf_weight=5294 1650 16756
leaf_count=5294 1650 16756
internal_value=0 -0.370744
internal_weight=0 22050
internal_count=23700 22050
is_linear=0
shrinkage=0.05


Tree=44
num_leaves=3
num_cat=0
split_feature=52 3
split_gain=1.62968e+07 1.02731e+07
threshold=703.50000000000011 174.50000000000003
decision_type=2 2
left_child=1 -1
right_child=-2 -3
leaf_value=-2.0827949353490012 5.5896120425470439 0.33646889733226398
leaf_weight=5980 1236 16484
leaf_count=5980 1236 16484
internal_value=0 -0.307548
internal_weight=0 22464
internal_count=23700 22464
is_linear=0
shrinkage=0.05


Tree=45
num_leaves=3
num_cat=0
split_feature=48 2
split_gain=1.50838e+07 7.81452e+06
threshold=538.50000000000011 154.50000000000003
decision_type=2 2
left_child=1 -1
right_child=-2 -3
leaf_value=-2.3789190635061832 2.9497076509674955 -0.0093489383870131136
leaf_weight=4482 3664 15554
leaf_count=4482 3664 15554
internal_value=0 -0.539415
internal_weight=0 20036
internal_count=23700 20036
is_linear=0
shrinkage=0.05


Tree=46
num_leaves=3
num_cat=0
split_feature=49 4
split_gain=1.39685e+07 8.43811e+06
threshold=697.50000000000011 174.50000000000003
decision_type=2 2
left_child=1 -1
right_child=-2 -3
leaf_value=-1.888587793345474 4.950721811264521 0.295477195028992
leaf_weight=6071 1344 16285
leaf_count=6071 1344 16285
internal_value=0 -0.297628
internal_weight=0 22356
internal_count=23700 22356
is_linear=0
shrinkage=0.05


Tree=47
num_leaves=3
num_cat=0
split_feature=3 53
split_gain=1.28042e+07 6.42988e+06
threshold=554.50000000000011 823.50000000000011
decision_type=2 2
left_child=-1 -2
right_child=1 -3
leaf_value=-0.54574896622721292 1.8658661489198327 8.6391503023946452
leaf_weight=19418 3897 385
leaf_count=19418 3897 385
internal_value=0 2.47486
internal_weight=0 4282
internal_count=23700 4282
is_linear=0
shrinkage=0.05


Tree=48
num_leaves=3
num_cat=0
split_feature=48 4
split_gain=1.20614e+07 5.86814e+06
threshold=430.50000000000006 830.50000000000011
decision_type=2 2
left_child=-1 -2
right_child=1 -3
leaf_value=-0.66046343757274961 1.4160265087673651 6.6769175587333045
leaf_weight=17649 5464 587
leaf_count=17649 5464 587
internal_value=0 1.92638
internal_weight=0 6051
internal_count=23700 6051
is_linear=0
shrinkage=0.05


Tree=49
num_leaves=3
num_cat=0
split_feature=3 1
split_gain=1.13826e+07 8.66693e+06
threshold=282.50000000000006 48.500000000000007
decision_type=2 2
left_child=-1 -2
right_child=1 -3
leaf_value=-1.1394479762936152 1.4215592768128493 -3.7306197469513673
leaf_weight=11387 11434 879
leaf_count=11387 11434 879
internal_value=0 1.05376
internal_weight=0 12313
internal_count=23700 12313
is_linear=0
shrinkage=0.05


Tree=50
num_leaves=3
num_cat=0
split_feature=2 2
split_gain=1.09508e+07 7.49608e+06
threshold=788.50000000000011 148.50000000000003
decision_type=2 2
left_child=1 -1
right_child=-2 -3
leaf_value=-2.1762501588786272 5.3240925136841195 0.20305929906848236
leaf_weight=4020 928 18752
leaf_count=4020 928 18752
internal_value=0 -0.216966
internal_weight=0 22772
internal_count=23700 22772
is_linear=0
shrinkage=0.05


Tree=51
num_leaves=3
num_cat=0
split_feature=52 3
split_gain=9.98156e+06 6.75219e+06
threshold=745.50000000000011 158.50000000000003
decision_type=2 2
left_child=1 -1
right_child=-2 -3
leaf_value=-1.8527440833003066 5.3365108851268452 0.24885644530331705
leaf_weight=4852 845 18003
leaf_count=4852 845 18003
internal_value=0 -0.197303
internal_weight=0 22855
internal_count=23700 22855
is_linear=0
shrinkage=0.05


Tree=52
num_leaves=3
num_cat=0
split_feature=44 139
split_gain=9.30861e+06 5.55931e+06
threshold=630.50000000000011 1.0000000180025095e-35
decision_type=2 2
left_child=1 -1
right_child=-2 -3
leaf_value=-0.097523319956874965 3.0993018399779979 -3.2642924453225053
leaf_weight=20013 2198 1489
leaf_count=20013 2198 1489
internal_value=0 -0.31682
internal_weight=0 21502
internal_count=23700 21502
is_linear=0
shrinkage=0.05


Tree=53
num_leaves=3
num_cat=0
split_feature=2 1
split_gain=9.05399e+06 6.60197e+06
threshold=324.50000000000006 48.500000000000007
decision_type=2 2
left_child=-1 -2
right_child=1 -3
leaf_value=-0.90735776044637539 1.3780893011207962 -3.5686502138044371
leaf_weight=12728 10250 722
leaf_count=12728 10250 722
internal_value=0 1.05257
internal_weight=0 10972
internal_count=23700 10972
is_linear=0
shrinkage=0.05


Tree=54
num_leaves=3
num_cat=0
split_feature=2 2
split_gain=8.64873e+06 6.10285e+06
threshold=829.50000000000011 144.50000000000003
decision_type=2 2
left_child=1 -1
right_child=-2 -3
leaf_value=-2.0068262724215318 5.7846859654580465 0.1999253034695137
leaf_weight=3739 629 19332
leaf_count=3739 629 19332
internal_value=0 -0.157712
internal_weight=0 23071
internal_count=23700 23071
is_linear=0
shrinkage=0.05


Tree=55
num_leaves=3
num_cat=0
split_feature=2 52
split_gain=7.90978e+06 5.38474e+06
threshold=416.50000000000006 823.50000000000011
decision_type=2 2
left_child=-1 -2
right_child=1 -3
leaf_value=-0.65474734960269931 0.97801473511831782 6.9220894782620483
leaf_weight=15656 7643 401
leaf_count=15656 7643 401
internal_value=0 1.27433
internal_weight=0 8044
internal_count=23700 8044
is_linear=0
shrinkage=0.05


Tree=56
num_leaves=3
num_cat=0
split_feature=48 1
split_gain=7.31695e+06 5.55146e+06
threshold=709.50000000000011 48.500000000000007
decision_type=2 2
left_child=1 -1
right_child=-2 -3
leaf_value=0.017515744889105841 3.7184711256334282 -2.954496196254869
leaf_weight=20747 1253 1700
leaf_count=20747 1253 1700
internal_value=0 -0.207566
internal_weight=0 22447
internal_count=23700 22447
is_linear=0
shrinkage=0.05


Tree=57
num_leaves=3
num_cat=0
split_feature=2 2
split_gain=7.02653e+06 5.26673e+06
threshold=295.50000000000006 877.50000000000011
decision_type=2 2
left_child=-1 -2
right_child=1 -3
leaf_value=-0.86580846482250173 0.65741056211176752 6.4176527606237261
leaf_weight=11783 11506 411
leaf_count=11783 11506 411
internal_value=0 0.856073
internal_weight=0 11917
internal_count=23700 11917
is_linear=0
shrinkage=0.05


Tree=58
num_leaves=3
num_cat=0
split_feature=4 2
split_gain=6.54201e+06 3.8821e+06
threshold=554.50000000000011 136.50000000000003
decision_type=2 2
left_child=1 -1
right_child=-2 -3
leaf_value=-1.9801054232085673 1.7789047838748204 -0.07464238126591495
leaf_weight=3199 4243 16258
leaf_count=3199 4243 16258
internal_value=0 -0.387927
internal_weight=0 19457
internal_count=23700 19457
is_linear=0
shrinkage=0.05


Tree=59
num_leaves=3
num_cat=0
split_feature=52 139
split_gain=6.09939e+06 4.66382e+06
threshold=790.50000000000011 1.0000000180025095e-35
decision_type=2 2
left_child=1 -1
right_child=-2 -3
leaf_value=0.060841795494725154 5.1004670811699819 -2.8222355778714023
leaf_weight=21628 572 1500
leaf_count=21628 572 1500
internal_value=0 -0.126144
internal_weight=0 23128
internal_count=23700 23128
is_linear=0
shrinkage=0.05


Tree=60
num_leaves=3
num_cat=0
split_feature=4 139
split_gain=5.84734e+06 4.83307e+06
threshold=289.50000000000006 1.0000000180025095e-35
decision_type=2 2
left_child=-1 -2
right_child=1 -3
leaf_value=-0.79504064706217226 1.0442949887771487 -2.9761389279038126
leaf_weight=11705 11194 801
leaf_count=11705 11194 801
internal_value=0 0.775819
internal_weight=0 11995
internal_count=23700 11995
is_linear=0
shrinkage=0.05


Tree=61
num_leaves=3
num_cat=0
split_feature=2 2
split_gain=5.5747e+06 4.38872e+06
threshold=849.50000000000011 144.50000000000003
decision_type=2 2
left_child=1 -1
right_child=-2 -3
leaf_value=-1.6838551568049231 5.1098622419368267 0.18666527165177402
leaf_weight=3739 522 19439
leaf_count=3739 522 19439
internal_value=0 -0.115081
internal_weight=0 23178
internal_count=23700 23178
is_linear=0
shrinkage=0.05


Tree=62
num_leaves=3
num_cat=0
split_feature=4 1
split_gain=5.20339e+06 3.01082e+06
threshold=557.50000000000011 30.500000000000004
decision_type=2 2
left_child=-1 -2
right_child=1 -3
leaf_value=-0.34273716716180291 2.9069353088256129 0.22143027233354223
leaf_weight=19522 2147 2031
leaf_count=19522 2147 2031
internal_value=0 1.60146
internal_weight=0 4178
internal_count=23700 4178
is_linear=0
shrinkage=0.05


Tree=63
num_leaves=3
num_cat=0
split_feature=2 1
split_gain=4.8998e+06 4.50037e+06
threshold=906.50000000000011 48.500000000000007
decision_type=2 2
left_child=1 -1
right_child=-2 -3
leaf_value=0.11178987128974634 6.2964615931502372 -2.56258794240882
leaf_weight=21699 305 1696
leaf_count=21699 305 1696
internal_value=0 -0.0820868
internal_weight=0 23395
internal_count=23700 23395
is_linear=0
shrinkage=0.05


Tree=64
num_leaves=3
num_cat=0
split_feature=3 1
split_gain=4.71297e+06 4.70702e+06
threshold=282.50000000000006 48.500000000000007
decision_type=2 2
left_child=-1 -2
right_child=1 -3
leaf_value=-0.73319695763762827 0.94911124975364669 -2.8478092339572174
leaf_weight=11387 11434 879
leaf_count=11387 11434 879
internal_value=0 0.678057
internal_weight=0 12313
internal_count=23700 12313
is_linear=0
shrinkage=0.05


Tree=65
num_leaves=3
num_cat=0
split_feature=3 3
split_gain=4.49974e+06 3.0539e+06
threshold=630.50000000000011 142.50000000000003
decision_type=2 2
left_child=1 -1
right_child=-2 -3
leaf_value=-1.5505243246160512 1.8996288217481787 0.030386455016386978
leaf_weight=3713 2755 17232
leaf_count=3713 2755 17232
internal_value=0 -0.249868
internal_weight=0 20945
internal_count=23700 20945
is_linear=0
shrinkage=0.05


Tree=66
num_leaves=3
num_cat=0
split_feature=49 1
split_gain=4.14029e+06 3.65315e+06
threshold=771.50000000000011 48.500000000000007
decision_type=2 2
left_child=1 -1
right_child=-2 -3
leaf_value=0.061965838817761666 3.7605497000051638 -2.3466135163326913
leaf_weight=21290 710 1700
leaf_count=21290 710 1700
internal_value=0 -0.116137
internal_weight=0 22990
internal_count=23700 22990
is_linear=0
shrinkage=0.05


Tree=67
num_leaves=3
num_cat=0
split_feature=2 2
split_gain=4.05848e+06 3.52803e+06
threshold=922.50000000000011 136.50000000000003
decision_type=2 2
left_child=1 -1
right_child=-2 -3
leaf_value=-1.611003552299187 6.298841528930212 0.17581950969780463
leaf_weight=3199 253 20248
leaf_count=3199 253 20248
internal_value=0 -0.0679663
internal_weight=0 23447
internal_count=23700 23447
is_linear=0
shrinkage=0.05


Tree=68
num_leaves=3
num_cat=0
split_feature=1 2
split_gain=3.81001e+06 4.48279e+06
threshold=30.500000000000004 168.50000000000003
decision_type=2 2
left_child=1 -1
right_child=-2 -3
leaf_value=-1.019410675197862 -0.81751262963294791 0.992748808401692
leaf_weight=3686 8900 11114
leaf_count=3686 8900 11114
internal_value=0 0.491612
internal_weight=0 14800
internal_count=23700 14800
is_linear=0
shrinkage=0.05


Tree=69
num_leaves=3
num_cat=0
split_feature=3 51
split_gain=3.70226e+06 2.5875e+06
threshold=375.50000000000006 877.50000000000011
decision_type=2 2
left_child=-1 -2
right_child=1 -3
leaf_value=-0.49742810577230617 0.65101516212239419 6.0333539930233275
leaf_weight=14508 8963 229
leaf_count=14508 8963 229
internal_value=0 0.785105
internal_weight=0 9192
internal_count=23700 9192
is_linear=0
shrinkage=0.05


Tree=70
num_leaves=3
num_cat=0
split_feature=3 3
split_gain=3.46395e+06 2.25381e+06
threshold=618.50000000000011 138.50000000000003
decision_type=2 2
left_child=1 -1
right_child=-2 -3
leaf_value=-1.399086415633584 1.5966869309168086 0.0034289332731475969
leaf_weight=3433 2971 17296
leaf_count=3433 2971 17296
internal_value=0 -0.228846
internal_weight=0 20729
internal_count=23700 20729
is_linear=0
shrinkage=0.05


Tree=71
num_leaves=3
num_cat=0
split_feature=1 3
split_gain=3.49497e+06 3.82553e+06
threshold=30.500000000000004 182.50000000000003
decision_type=2 2
left_child=1 -1
right_child=-2 -3
leaf_value=-0.75451663527202706 -0.78298462371775901 0.99820486772267647
leaf_weight=4453 8900 10347
leaf_count=4453 8900 10347
internal_value=0 0.470849
internal_weight=0 14800
internal_count=23700 14800
is_linear=0
shrinkage=0.05


Tree=72
num_leaves=3
num_cat=0
split_feature=45 5
split_gain=3.09851e+06 1.8755e+06
threshold=681.50000000000011 152.50000000000003
decision_type=2 2
left_child=1 -1
right_child=-2 -3
leaf_value=-1.0503398841234615 2.1582149030282638 0.084089174889134949
leaf_weight=4598 1554 17548
leaf_count=4598 1554 17548
internal_value=0 -0.151443
internal_weight=0 22146
internal_count=23700 22146
is_linear=0
shrinkage=0.05


Tree=73
num_leaves=3
num_cat=0
split_feature=1 4
split_gain=3.33625e+06 3.53739e+06
threshold=48.500000000000007 471.50000000000006
decision_type=2 2
left_child=1 -1
right_child=-2 -3
leaf_value=-0.21681226702518638 -2.1340849915238862 1.2179757548174588
leaf_weight=16147 1700 5853
leaf_count=16147 1700 5853
internal_value=0 0.164907
internal_weight=0 22000
internal_count=23700 22000
is_linear=0
shrinkage=0.05


Tree=74
num_leaves=3
num_cat=0
split_feature=52 139
split_gain=3.04146e+06 2.43152e+06
threshold=823.50000000000011 1.0000000180025095e-35
decision_type=2 2
left_child=1 -1
right_child=-2 -3
leaf_value=0.059679764655707318 4.3175097709582033 -2.0215204163759948
leaf_weight=21799 401 1500
leaf_count=21799 401 1500
internal_value=0 -0.0743088
internal_weight=0 23299
internal_count=23700 23299
is_linear=0
shrinkage=0.05


Tree=75
num_leaves=3
num_cat=0
split_feature=1 4
split_gain=2.95671e+06 3.34533e+06
threshold=30.500000000000004 180.50000000000003
decision_type=2 2
left_child=1 -1
right_child=-2 -3
leaf_value=-0.68949484551268669 -0.72017200453755759 0.93646470302971485
leaf_weight=4582 8900 10218
leaf_count=4582 8900 10218
internal_value=0 0.433076
internal_weight=0 14800
internal_count=23700 14800
is_linear=0
shrinkage=0.05


Tree=76
num_leaves=3
num_cat=0
split_feature=2 1
split_gain=2.9147e+06 2.49113e+06
threshold=922.50000000000011 48.500000000000007
decision_type=2 2
left_child=1 -1
right_child=-2 -3
leaf_value=0.08645107240089292 5.3379720740638703 -1.9014978248001162
leaf_weight=21748 253 1699
leaf_count=21748 253 1699
internal_value=0 -0.0575983
internal_weight=0 23447
internal_count=23700 23447
is_linear=0
shrinkage=0.05


Tree=77
num_leaves=3
num_cat=0
split_feature=2 4
split_gain=2.63052e+06 2.18845e+06
threshold=922.50000000000011 152.50000000000003
decision_type=2 2
left_child=1 -1
right_child=-2 -3
leaf_value=-1.0422483486321086 5.071073493279016 0.18156853487768604
leaf_weight=4527 253 18920
leaf_count=4527 253 18920
internal_value=0 -0.0547184
internal_weight=0 23447
internal_count=23700 23447
is_linear=0
shrinkage=0.05


Tree=78
num_leaves=3
num_cat=0
split_feature=4 2
split_gain=2.46638e+06 1.62973e+06
threshold=529.50000000000011 941.50000000000011
decision_type=2 2
left_child=-1 -2
right_child=1 -3
leaf_value=-0.25912885289011467 0.81341312060905568 5.4008129827309368
leaf_weight=18838 4660 202
leaf_count=18838 4660 202
internal_value=0 1.004
internal_weight=0 4862
internal_count=23700 4862
is_linear=0
shrinkage=0.05


Tree=79
num_leaves=3
num_cat=0
split_feature=4 139
split_gain=2.2872e+06 1.83884e+06
threshold=803.50000000000011 1.0000000180025095e-35
decision_type=2 2
left_child=1 -1
right_child=-2 -3
leaf_value=0.027373356023148967 2.6840382686609399 -1.7994386146763723
leaf_weight=21460 768 1472
leaf_count=21460 768 1472
internal_value=0 -0.0898893
internal_weight=0 22932
internal_count=23700 22932
is_linear=0
shrinkage=0.05


Tree=80
num_leaves=3
num_cat=0
split_feature=1 4
split_gain=2.55429e+06 2.81236e+06
threshold=30.500000000000004 270.50000000000006
decision_type=2 2
left_child=1 -1
right_child=-2 -3
leaf_value=-0.29280015631852646 -0.66937074869803648 1.0857453138328781
leaf_weight=7335 8900 7465
leaf_count=7335 8900 7465
internal_value=0 0.402527
internal_weight=0 14800
internal_count=23700 14800
is_linear=0
shrinkage=0.05


Tree=81
num_leaves=3
num_cat=0
split_feature=4 4
split_gain=2.10932e+06 1.58176e+06
threshold=681.50000000000011 136.50000000000003
decision_type=2 2
left_child=1 -1
right_child=-2 -3
leaf_value=-1.1332821542895164 1.5657531187065328 0.041509982298320147
leaf_weight=3396 1972 18332
leaf_count=3396 1972 18332
internal_value=0 -0.142105
internal_weight=0 21728
internal_count=23700 21728
is_linear=0
shrinkage=0.05


Tree=82
num_leaves=3
num_cat=0
split_feature=1 4
split_gain=2.34804e+06 2.43216e+06
threshold=30.500000000000004 158.50000000000003
decision_type=2 2
left_child=1 -1
right_child=-2 -3
leaf_value=-0.72806697904206441 -0.64177713132989489 0.75472893452078516
leaf_weight=3681 8900 11119
leaf_count=3681 8900 11119
internal_value=0 0.385934
internal_weight=0 14800
internal_count=23700 14800
is_linear=0
shrinkage=0.05


Tree=83
num_leaves=3
num_cat=0
split_feature=53 4
split_gain=1.9456e+06 1.58316e+06
threshold=868.50000000000011 138.50000000000003
decision_type=2 2
left_child=1 -1
right_child=-2 -3
leaf_value=-1.0202761708278072 4.6377811951828853 0.12848250001346193
leaf_weight=3530 224 19946
leaf_count=3530 224 19946
internal_value=0 -0.0442521
internal_weight=0 23476
internal_count=23700 23476
is_linear=0
shrinkage=0.05


Tree=84
num_leaves=3
num_cat=0
split_feature=1 5
split_gain=2.13472e+06 1.92855e+06
threshold=30.500000000000004 270.50000000000006
decision_type=2 2
left_child=1 -1
right_child=-2 -3
leaf_value=-0.20054406301255268 -0.61193078422146652 0.94098843788145836
leaf_weight=7429 8900 7371
leaf_count=7429 8900 7371
internal_value=0 0.367985
internal_weight=0 14800
internal_count=23700 14800
is_linear=0
shrinkage=0.05


Tree=85
num_leaves=3
num_cat=0
split_feature=1 4
split_gain=1.96722e+06 2.19482e+06
threshold=48.500000000000007 471.50000000000006
decision_type=2 2
left_child=1 -1
right_child=-2 -3
leaf_value=-0.17404841159527379 -1.6387356505330435 0.95612681706958846
leaf_weight=16147 1700 5853
leaf_count=16147 1700 5853
internal_value=0 0.12663
internal_weight=0 22000
internal_count=23700 22000
is_linear=0
shrinkage=0.05


Tree=86
num_leaves=3
num_cat=0
split_feature=1 3
split_gain=1.87921e+06 1.86584e+06
threshold=30.500000000000004 144.50000000000003
decision_type=2 2
left_child=1 -1
right_child=-2 -3
leaf_value=-0.80058354883196314 -0.57414187860876265 0.62032128846480783
leaf_weight=2865 8900 11935
leaf_count=2865 8900 11935
internal_value=0 0.345261
internal_weight=0 14800
internal_count=23700 14800
is_linear=0
shrinkage=0.05


Tree=87
num_leaves=3
num_cat=0
split_feature=2 139
split_gain=1.7512e+06 1.36614e+06
threshold=941.50000000000011 1.0000000180025095e-35
decision_type=2 2
left_child=1 -1
right_child=-2 -3
leaf_value=0.059703702220907845 4.6355690046520168 -1.4998313303306079
leaf_weight=21998 202 1500
leaf_count=21998 202 1500
internal_value=0 -0.0398496
internal_weight=0 23498
internal_count=23700 23498
is_linear=0
shrinkage=0.05


Tree=88
num_leaves=3
num_cat=0
split_feature=4 2
split_gain=1.66367e+06 1.20108e+06
threshold=740.50000000000011 126.50000000000001
decision_type=2 2
left_child=1 -1
right_child=-2 -3
leaf_value=-1.1230709302640196 1.7353998812451832 0.030074465300006348
leaf_weight=2548 1305 19847
leaf_count=2548 1305 19847
internal_value=0 -0.101125
internal_weight=0 22395
internal_count=23700 22395
is_linear=0
shrinkage=0.05


Tree=89
num_leaves=3
num_cat=0
split_feature=1 3
split_gain=1.66435e+06 1.68294e+06
threshold=30.500000000000004 630.50000000000011
decision_type=2 2
left_child=1 -1
right_child=-2 -3
leaf_value=0.1477987714577082 -0.54032361178884414 1.9298914774821823
leaf_weight=13329 8900 1471
leaf_count=13329 8900 1471
internal_value=0 0.324924
internal_weight=0 14800
internal_count=23700 14800
is_linear=0
shrinkage=0.05


Tree=90
num_leaves=3
num_cat=0
split_feature=4 53
split_gain=1.46771e+06 956356
threshold=567.50000000000011 932.00000000000011
decision_type=2 2
left_child=-1 -2
right_child=1 -3
leaf_value=-0.17615421581804103 0.7474599806790807 5.4757650175961583
leaf_weight=19743 3847 110
leaf_count=19743 3847 110
internal_value=0 0.878901
internal_weight=0 3957
internal_count=23700 3957
is_linear=0
shrinkage=0.05


Tree=91
num_leaves=3
num_cat=0
split_feature=4 4
split_gain=1.3666e+06 1.15553e+06
threshold=932.00000000000011 144.50000000000003
decision_type=2 2
left_child=1 -1
right_child=-2 -3
leaf_value=-0.81765251455936527 4.0448303253466378 0.12160263328647902
leaf_weight=3933 207 19560
leaf_count=3933 207 19560
internal_value=0 -0.0356395
internal_weight=0 23493
internal_count=23700 23493
is_linear=0
shrinkage=0.05


Tree=92
num_leaves=3
num_cat=0
split_feature=1 4
split_gain=1.53125e+06 1.55844e+06
threshold=30.500000000000004 265.50000000000006
decision_type=2 2
left_child=1 -1
right_child=-2 -3
leaf_value=-0.21376861921815329 -0.51826804545312455 0.81267821788798456
leaf_weight=7224 8900 7576
leaf_count=7224 8900 7576
internal_value=0 0.311661
internal_weight=0 14800
internal_count=23700 14800
is_linear=0
shrinkage=0.05


Tree=93
num_leaves=3
num_cat=0
split_feature=1 4
split_gain=1.45124e+06 1.55237e+06
threshold=48.500000000000007 471.50000000000006
decision_type=2 2
left_child=1 -1
right_child=-2 -3
leaf_value=-0.14410879129573662 -1.4075126406417831 0.80637214831709469
leaf_weight=16147 1700 5853
leaf_count=16147 1700 5853
internal_value=0 0.108762
internal_weight=0 22000
internal_count=23700 22000
is_linear=0
shrinkage=0.05


Tree=94
num_leaves=3
num_cat=0
split_feature=1 2
split_gain=1.34716e+06 1.35158e+06
threshold=30.500000000000004 134.50000000000003
decision_type=2 2
left_child=1 -1
right_child=-2 -3
leaf_value=-0.84359615313538017 -0.48611738920073916 0.49331580158311161
leaf_weight=2225 8900 12575
leaf_count=2225 8900 12575
internal_value=0 0.292327
internal_weight=0 14800
internal_count=23700 14800
is_linear=0
shrinkage=0.05


Tree=95
num_leaves=3
num_cat=0
split_feature=1 34
split_gain=1.26256e+06 1.34453e+06
threshold=48.500000000000007 416.50000000000006
decision_type=2 2
left_child=1 -1
right_child=-2 -3
leaf_value=-0.14580381592609076 -1.3128311377833872 0.71939371765421001
leaf_weight=15713 1700 6287
leaf_count=15713 1700 6287
internal_value=0 0.101446
internal_weight=0 22000
internal_count=23700 22000
is_linear=0
shrinkage=0.05


Tree=96
num_leaves=3
num_cat=0
split_feature=3 123
split_gain=1.21751e+06 1.10601e+06
threshold=921.50000000000011 1.0000000180025095e-35
decision_type=2 2
left_child=1 -1
right_child=-2 -3
leaf_value=0.0082787320998271383 3.4920680240143529 -2.65343898833361
leaf_weight=23056 247 397
leaf_count=23056 247 397
internal_value=0 -0.0367774
internal_weight=0 23453
internal_count=23700 23453
is_linear=0
shrinkage=0.05


Tree=97
num_leaves=3
num_cat=0
split_feature=1 4
split_gain=1.13733e+06 1.35284e+06
threshold=30.500000000000004 672.50000000000011
decision_type=2 2
left_child=1 -1
right_child=-2 -3
leaf_value=0.13710785241966489 -0.44665818095053783 2.0065234348736167
leaf_weight=13759 8900 1041
leaf_count=13759 8900 1041
internal_value=0 0.268599
internal_weight=0 14800
internal_count=23700 14800
is_linear=0
shrinkage=0.05


Tree=98
num_leaves=3
num_cat=0
split_feature=2 1
split_gain=1.08882e+06 987874
threshold=941.50000000000011 48.500000000000007
decision_type=2 2
left_child=1 -1
right_child=-2 -3
leaf_value=0.059085297715021495 3.6552194745676356 -1.1926749530181744
leaf_weight=21799 202 1699
leaf_count=21799 202 1699
internal_value=0 -0.031422
internal_weight=0 23498
internal_count=23700 23498
is_linear=0
shrinkage=0.05


Tree=99
num_leaves=3
num_cat=0
split_feature=4 1
split_gain=1.0215e+06 856223
threshold=753.50000000000011 30.500000000000004
decision_type=2 2
left_child=1 -1
right_child=-2 -3
leaf_value=0.16033782609557115 1.4276721048999985 -0.47873444382255026
leaf_weight=14204 1190 8306
leaf_count=14204 1190 8306
internal_value=0 -0.0754744
internal_weight=0 22510
internal_count=23700 22510
is_linear=0
shrinkage=0.05


Tree=100
num_leaves=3
num_cat=0
split_feature=4 3
split_gain=991487 1.2819e+06
threshold=134.50000000000003 1.0000000180025095e-35
decision_type=2 2
left_child=1 -1
right_child=-2 -3
leaf_value=2.3069026142358782 0.12942945675170911 -1.1224951856224366
leaf_weight=300 20428 2972
leaf_count=300 20428 2972
internal_value=0 -0.808064
internal_weight=0 3272
internal_count=23700 3272
is_linear=0
shrinkage=0.05


Tree=101
num_leaves=3
num_cat=0
split_feature=123 4
split_gain=957553 1.06963e+06
threshold=1.0000000180025095e-35 548.50000000000011
decision_type=2 2
left_child=1 -1
right_child=-2 -3
leaf_value=-0.11982044612070433 -2.4256342075224966 0.75244249260130402
leaf_weight=18987 400 4313
leaf_count=18987 400 4313
internal_value=0 0.0416418
internal_weight=0 23300
internal_count=23700 23300
is_linear=0
shrinkage=0.05


Tree=102
num_leaves=3
num_cat=0
split_feature=2 2
split_gain=939346 1.35849e+06
threshold=122.50000000000001 1.0000000180025095e-35
decision_type=2 2
left_child=1 -1
right_child=-2 -3
leaf_value=2.9761468249559404 0.10309723018807215 -1.336795055802702
leaf_weight=200 21404 2096
leaf_count=200 21404 2096
internal_value=0 -0.961103
internal_weight=0 2296
internal_count=23700 2296
is_linear=0
shrinkage=0.05


Tree=103
num_leaves=3
num_cat=0
split_feature=52 4
split_gain=938193 763646
threshold=886.50000000000011 130.50000000000003
decision_type=2 2
left_child=1 -1
right_child=-2 -3
leaf_value=-0.77168150785426992 3.4449648847347314 0.080599669540809035
leaf_weight=3015 196 20489
leaf_count=3015 196 20489
internal_value=0 -0.0287276
internal_weight=0 23504
internal_count=23700 23504
is_linear=0
shrinkage=0.05


Tree=104
num_leaves=3
num_cat=0
split_feature=123 2
split_gain=866686 858734
threshold=1.0000000180025095e-35 941.50000000000011
decision_type=2 2
left_child=1 -1
right_child=-2 -3
leaf_value=0.011301323730972541 -2.3076745741320774 3.2936347435955984
leaf_weight=23099 400 201
leaf_count=23099 400 201
internal_value=0 0.0396167
internal_weight=0 23300
internal_count=23700 23300
is_linear=0
shrinkage=0.05


Tree=105
num_leaves=3
num_cat=0
split_feature=1 3
split_gain=902307 981153
threshold=30.500000000000004 136.50000000000003
decision_type=2 2
left_child=1 -1
right_child=-2 -3
leaf_value=-0.66289468983749156 -0.39784045105347587 0.42295610989880628
leaf_weight=2504 8900 12296
leaf_count=2504 8900 12296
internal_value=0 0.239242
internal_weight=0 14800
internal_count=23700 14800
is_linear=0
shrinkage=0.05


Tree=106
num_leaves=3
num_cat=0
split_feature=3 1
split_gain=815294 786792
threshold=961.50000000000011 30.500000000000004
decision_type=2 2
left_child=1 -1
right_child=-2 -3
leaf_value=0.20077339926030968 3.7120811391849906 -0.39609112422203518
leaf_weight=14716 147 8837
leaf_count=14716 147 8837
internal_value=0 -0.023168
internal_weight=0 23553
internal_count=23700 23553
is_linear=0
shrinkage=0.05


Tree=107
num_leaves=3
num_cat=0
split_feature=2 2
split_gain=752279 1.27698e+06
threshold=118.50000000000001 1.0000000180025095e-35
decision_type=2 2
left_child=1 -1
right_child=-2 -3
leaf_value=2.8884644643068316 0.087260194430501356 -1.3145037999618054
leaf_weight=200 21625 1875
leaf_count=200 21625 1875
internal_value=0 -0.909398
internal_weight=0 2075
internal_count=23700 2075
is_linear=0
shrinkage=0.05


Tree=108
num_leaves=3
num_cat=0
split_feature=123 3
split_gain=755575 847646
threshold=1.0000000180025095e-35 375.50000000000006
decision_type=2 2
left_child=1 -1
right_child=-2 -3
leaf_value=-0.20256341413146137 -2.1546794097882231 0.4166510627173301
leaf_weight=14286 400 9014
leaf_count=14286 400 9014
internal_value=0 0.0369902
internal_weight=0 23300
internal_count=23700 23300
is_linear=0
shrinkage=0.05


Tree=109
num_leaves=3
num_cat=0
split_feature=4 124
split_gain=752807 733182
threshold=980.50000000000011 1.0000000180025095e-35
decision_type=2 2
left_child=1 -1
right_child=-2 -3
leaf_value=0.018250172921271676 4.3290610318481928 -2.1407753366567195
leaf_weight=23200 100 400
leaf_count=23200 100 400
internal_value=0 -0.0183435
internal_weight=0 23600
internal_count=23700 23600
is_linear=0
shrinkage=0.05


Tree=110
num_leaves=3
num_cat=0
split_feature=1 4
split_gain=734298 731567
threshold=52.500000000000007 575.50000000000011
decision_type=2 2
left_child=1 -1
right_child=-2 -3
leaf_value=-0.10341760287357488 -4.2755102148056032 0.65576885016774966
leaf_weight=19822 100 3778
leaf_count=19822 100 3778
internal_value=0 0.0181166
internal_weight=0 23600
internal_count=23700 23600
is_linear=0
shrinkage=0.05


Tree=111
num_leaves=3
num_cat=0
split_feature=52 124
split_gain=690291 658165
threshold=886.50000000000011 1.0000000180025095e-35
decision_type=2 2
left_child=1 -1
right_child=-2 -3
leaf_value=0.010172303203481657 2.954981921081032 -2.0354932736381888
leaf_weight=23104 196 400
leaf_count=23104 196 400
internal_value=0 -0.0246416
internal_weight=0 23504
internal_count=23700 23504
is_linear=0
shrinkage=0.05


Tree=112
num_leaves=3
num_cat=0
split_feature=54 4
split_gain=681571 602946
threshold=1.0000000180025095e-35 118.50000000000001
decision_type=2 2
left_child=-1 -2
right_child=1 -3
leaf_value=0.80440086307719294 -0.86620844238231443 0.001592752716714602
leaf_weight=2370 2236 19094
leaf_count=2370 2236 19094
internal_value=0 -0.0893779
internal_weight=0 21330
internal_count=23700 21330
is_linear=0
shrinkage=0.05


Tree=113
num_leaves=3
num_cat=0
split_feature=1 4
split_gain=716640 832029
threshold=30.500000000000004 681.50000000000011
decision_type=2 2
left_child=1 -1
right_child=-2 -3
leaf_value=0.1134891093235047 -0.35455386499432962 1.6225796720847214
leaf_weight=13822 8900 978
leaf_count=13822 8900 978
internal_value=0 0.213211
internal_weight=0 14800
internal_count=23700 14800
is_linear=0
shrinkage=0.05


Tree=114
num_leaves=3
num_cat=0
split_feature=123 1
split_gain=673889 668465
threshold=1.0000000180025095e-35 52.500000000000007
decision_type=2 2
left_child=1 -1
right_child=-2 -3
leaf_value=0.052516263947445789 -2.0348756942544131 -4.0442702982425685
leaf_weight=23200 400 100
leaf_count=23200 400 100
internal_value=0 0.0349335
internal_weight=0 23300
internal_count=23700 23300
is_linear=0
shrinkage=0.05


Tree=115
num_leaves=3
num_cat=0
split_feature=4 30
split_gain=626461 556748
threshold=954.50000000000011 1.0000000180025095e-35
decision_type=2 2
left_child=1 -1
right_child=-2 -3
leaf_value=0.61555400027766205 3.1890773978206068 -0.1136219819324526
leaf_weight=3000 153 20547
leaf_count=3000 153 20547
internal_value=0 -0.0207215
internal_weight=0 23547
internal_count=23700 23547
is_linear=0
shrinkage=0.05


Tree=116
num_leaves=3
num_cat=0
split_feature=1 4
split_gain=614230 791649
threshold=30.500000000000004 257.50000000000006
decision_type=2 2
left_child=1 -1
right_child=-2 -3
leaf_value=-0.18695434723998092 -0.32824435893807752 0.54531896639960953
leaf_weight=7032 8900 7768
leaf_count=7032 8900 7768
internal_value=0 0.19739
internal_weight=0 14800
internal_count=23700 14800
is_linear=0
shrinkage=0.05


Tree=117
num_leaves=3
num_cat=0
split_feature=123 3
split_gain=594619 638738
threshold=1.0000000180025095e-35 124.50000000000001
decision_type=2 2
left_child=1 -1
right_child=-2 -3
leaf_value=-0.72162784483683962 -1.9114514328986407 0.12365535174570455
leaf_weight=2504 400 20796
leaf_count=2504 400 20796
internal_value=0 0.0328146
internal_weight=0 23300
internal_count=23700 23300
is_linear=0
shrinkage=0.05


Tree=118
num_leaves=3
num_cat=0
split_feature=2 2
split_gain=632189 1.08758e+06
threshold=1.0000000180025095e-35 114.50000000000001
decision_type=2 2
left_child=-1 -2
right_child=1 -3
leaf_value=2.7992276911735536 -1.2660821948407299 0.069313535184578501
leaf_weight=200 1639 21861
leaf_count=200 1639 21861
internal_value=0 -0.0238232
internal_weight=0 23500
internal_count=23700 23500
is_linear=0
shrinkage=0.05


Tree=119
num_leaves=3
num_cat=0
split_feature=124 1
split_gain=589070 595205
threshold=1.0000000180025095e-35 52.500000000000007
decision_type=2 2
left_child=1 -1
right_child=-2 -3
leaf_value=0.049252457839462922 -1.9025105708111079 -3.8165278405547145
leaf_weight=23200 400 100
leaf_count=23200 400 100
internal_value=0 0.0326611
internal_weight=0 23300
internal_count=23700 23300
is_linear=0
shrinkage=0.05


Tree=120
num_leaves=3
num_cat=0
split_feature=2 2
split_gain=569494 987908
threshold=1.0000000180025095e-35 109.50000000000001
decision_type=2 2
left_child=-1 -2
right_child=1 -3
leaf_value=2.656803688362241 -1.3170454007947434 0.058580077076764103
leaf_weight=200 1387 22113
leaf_count=200 1387 22113
internal_value=0 -0.0226111
internal_weight=0 23500
internal_count=23700 23500
is_linear=0
shrinkage=0.05


Tree=121
num_leaves=3
num_cat=0
split_feature=54 2
split_gain=562815 454923
threshold=1.0000000180025095e-35 116.50000000000001
decision_type=2 2
left_child=-1 -2
right_child=1 -3
leaf_value=0.73097078277081062 -0.81519418025970125 -0.008573997115254528
leaf_weight=2370 1921 19409
leaf_count=2370 1921 19409
internal_value=0 -0.081219
internal_weight=0 21330
internal_count=23700 21330
is_linear=0
shrinkage=0.05


Tree=122
num_leaves=3
num_cat=0
split_feature=3 123
split_gain=549957 529666
threshold=961.50000000000011 1.0000000180025095e-35
decision_type=2 2
left_child=1 -1
right_child=-2 -3
leaf_value=0.012137410221511984 3.0487701821083926 -1.8229667705614121
leaf_weight=23153 147 400
leaf_count=23153 147 400
internal_value=0 -0.0190281
internal_weight=0 23553
internal_count=23700 23553
is_linear=0
shrinkage=0.05


Tree=123
num_leaves=3
num_cat=0
split_feature=1 4
split_gain=535899 686302
threshold=30.500000000000004 654.50000000000011
decision_type=2 2
left_child=1 -1
right_child=-2 -3
leaf_value=0.085035351407793142 -0.30660070964982844 1.3513773900404586
leaf_weight=13639 8900 1161
leaf_count=13639 8900 1161
internal_value=0 0.184375
internal_weight=0 14800
internal_count=23700 14800
is_linear=0
shrinkage=0.05


Tree=124
num_leaves=3
num_cat=0
split_feature=127 5
split_gain=522259 528230
threshold=1.0000000180025095e-35 857.50000000000011
decision_type=2 2
left_child=1 -1
right_child=-2 -3
leaf_value=-0.017552119298010684 -3.6057429692745213 1.7196773492668509
leaf_weight=23154 100 446
leaf_count=23154 100 446
internal_value=0 0.0152786
internal_weight=0 23600
internal_count=23700 23600
is_linear=0
shrinkage=0.05


Tree=125
num_leaves=3
num_cat=0
split_feature=54 1
split_gain=485301 393831
threshold=1.0000000180025095e-35 30.500000000000004
decision_type=2 2
left_child=-1 -2
right_child=1 -3
leaf_value=0.67877028199983569 0.091188338370874547 -0.35247368969284254
leaf_weight=2370 13320 8010
leaf_count=2370 13320 8010
internal_value=0 -0.0754189
internal_weight=0 21330
internal_count=23700 21330
is_linear=0
shrinkage=0.05


Tree=126
num_leaves=3
num_cat=0
split_feature=84 3
split_gain=477176 488307
threshold=1.0000000180025095e-35 1.0000000180025095e-35
decision_type=2 2
left_child=1 -1
right_child=-2 -3
leaf_value=1.9712106508016587 1.5282485861457884 -0.059191593046101471
leaf_weight=300 500 22900
leaf_count=300 500 22900
internal_value=0 -0.0329364
internal_weight=0 23200
internal_count=23700 23200
is_linear=0
shrinkage=0.05


Tree=127
num_leaves=3
num_cat=0
split_feature=124 4
split_gain=514278 559237
threshold=1.0000000180025095e-35 471.50000000000006
decision_type=2 2
left_child=1 -1
right_child=-2 -3
leaf_value=-0.11748369207011783 -1.7776360654924066 0.43594664741683253
leaf_weight=17069 400 6231
leaf_count=17069 400 6231
internal_value=0 0.0305174
internal_weight=0 23300
internal_count=23700 23300
is_linear=0
shrinkage=0.05


Tree=128
num_leaves=3
num_cat=0
split_feature=4 127
split_gain=483164 462926
threshold=980.50000000000011 1.0000000180025095e-35
decision_type=2 2
left_child=1 -1
right_child=-2 -3
leaf_value=-0.00024998812954971924 3.4681593488976361 -3.4094121668338775
leaf_weight=23500 100 100
leaf_count=23500 100 100
internal_value=0 -0.0146956
internal_weight=0 23600
internal_count=23700 23600
is_linear=0
shrinkage=0.05


Tree=129
num_leaves=3
num_cat=0
split_feature=123 124
split_gain=472253 480485
threshold=1.0000000180025095e-35 1.0000000180025095e-35
decision_type=2 2
left_child=1 -1
right_child=-2 -3
leaf_value=0.059252388278320314 -1.7034575169552117 -1.6887417669892313
leaf_weight=22900 400 400
leaf_count=22900 400 400
internal_value=0 0.0292439
internal_weight=0 23300
internal_count=23700 23300
is_linear=0
shrinkage=0.05


Tree=130
num_leaves=3
num_cat=0
split_feature=2 2
split_gain=484238 823623
threshold=1.0000000180025095e-35 109.50000000000001
decision_type=2 2
left_child=-1 -2
right_child=1 -3
leaf_value=2.4498774915337567 -1.2027637774772035 0.053283492494342513
leaf_weight=200 1387 22113
leaf_count=200 1387 22113
internal_value=0 -0.02085
internal_weight=0 23500
internal_count=23700 23500
is_linear=0
shrinkage=0.05


Tree=131
num_leaves=3
num_cat=0
split_feature=2 2
split_gain=440084 442243
threshold=989.50000000000011 1.0000000180025095e-35
decision_type=2 2
left_child=1 -1
right_child=-2 -3
leaf_value=2.3273837008476259 3.3609431690776468 -0.03381994739764406
leaf_weight=200 97 23403
leaf_count=200 97 23403
internal_value=0 -0.0138123
internal_weight=0 23603
internal_count=23700 23603
is_linear=0
shrinkage=0.05


Tree=132
num_leaves=3
num_cat=0
split_feature=84 52
split_gain=434476 418586
threshold=1.0000000180025095e-35 886.50000000000011
decision_type=2 2
left_child=1 -1
right_child=-2 -3
leaf_value=-0.051032212017136425 1.4582688756290825 2.2694418686689164
leaf_weight=23004 500 196
leaf_count=23004 500 196
internal_value=0 -0.0314282
internal_weight=0 23200
internal_count=23700 23200
is_linear=0
shrinkage=0.05


Tree=133
num_leaves=3
num_cat=0
split_feature=3 69
split_gain=425155 963184
threshold=118.50000000000001 1.0000000180025095e-35
decision_type=2 2
left_child=1 -1
right_child=-2 -3
leaf_value=-0.79273151749477433 0.06731741072957273 8.0841647363478142
leaf_weight=2144 21525 31
leaf_count=2144 21525 31
internal_value=0 -0.66621
internal_weight=0 2175
internal_count=23700 2175
is_linear=0
shrinkage=0.05


Tree=134
num_leaves=3
num_cat=0
split_feature=1 124
split_gain=419832 424727
threshold=52.500000000000007 1.0000000180025095e-35
decision_type=2 2
left_child=1 -1
right_child=-2 -3
leaf_value=0.0415505370544079 -3.2328791314363481 -1.6017114295177164
leaf_weight=23200 100 400
leaf_count=23200 100 400
internal_value=0 0.0136986
internal_weight=0 23600
internal_count=23700 23600
is_linear=0
shrinkage=0.05


Tree=135
num_leaves=3
num_cat=0
split_feature=123 3
split_gain=426315 455459
threshold=1.0000000180025095e-35 408.50000000000006
decision_type=2 2
left_child=1 -1
right_child=-2 -3
leaf_value=-0.13278168778647056 -1.6184874307177961 0.33213794364488747
leaf_weight=15253 400 8047
leaf_count=15253 400 8047
internal_value=0 0.0277852
internal_weight=0 23300
internal_count=23700 23300
is_linear=0
shrinkage=0.05


Tree=136
num_leaves=3
num_cat=0
split_feature=128 3
split_gain=410179 783282
threshold=1.0000000180025095e-35 1.0000000180025095e-35
decision_type=2 2
left_child=-1 -2
right_child=1 -3
leaf_value=0.06653876671731733 1.7240252130031586 -1.0251531905871081
leaf_weight=21500 300 1900
leaf_count=21500 300 1900
internal_value=0 -0.650265
internal_weight=0 2200
internal_count=23700 2200
is_linear=0
shrinkage=0.05


Tree=137
num_leaves=3
num_cat=0
split_feature=88 4
split_gain=391314 402462
threshold=1.0000000180025095e-35 803.50000000000011
decision_type=2 2
left_child=1 -1
right_child=-2 -3
leaf_value=-0.068307593261887983 1.3839403806063348 1.0971832219885744
leaf_weight=22434 500 766
leaf_count=22434 500 766
internal_value=0 -0.0298263
internal_weight=0 23200
internal_count=23700 23200
is_linear=0
shrinkage=0.05


Tree=138
num_leaves=3
num_cat=0
split_feature=30 69
split_gain=395388 691140
threshold=1.0000000180025095e-35 1.0000000180025095e-35
decision_type=2 2
left_child=1 -1
right_child=-2 -3
leaf_value=0.28348218071789277 -0.077746882306816797 2.8131953040758773
leaf_weight=2700 20700 300
leaf_count=2700 20700 300
internal_value=0 0.536453
internal_weight=0 3000
internal_count=23700 3000
is_linear=0
shrinkage=0.05


Tree=139
num_leaves=3
num_cat=0
split_feature=4 3
split_gain=388155 636158
threshold=126.50000000000001 1.0000000180025095e-35
decision_type=2 2
left_child=1 -1
right_child=-2 -3
leaf_value=1.614416674176852 0.073281441382124918 -0.8250481067120905
leaf_weight=300 20952 2448
leaf_count=300 20952 2448
internal_value=0 -0.558731
internal_weight=0 2748
internal_count=23700 2748
is_linear=0
shrinkage=0.05


Tree=140
num_leaves=3
num_cat=0
split_feature=84 131
split_gain=395911 386692
threshold=1.0000000180025095e-35 1.0000000180025095e-35
decision_type=2 2
left_child=1 -1
right_child=-2 -3
leaf_value=-0.096071865233288908 1.3920461973711848 0.60067549151554711
leaf_weight=21000 500 2200
leaf_count=21000 500 2200
internal_value=0 -0.030001
internal_weight=0 23200
internal_count=23700 23200
is_linear=0
shrinkage=0.05


Tree=141
num_leaves=3
num_cat=0
split_feature=54 69
split_gain=381526 383295
threshold=1.0000000180025095e-35 1.0000000180025095e-35
decision_type=2 2
left_child=-1 -2
right_child=1 -3
leaf_value=0.60183740980238443 -0.14180777652243934 0.53262479972683741
leaf_weight=2370 18960 2370
leaf_count=2370 18960 2370
internal_value=0 -0.0668708
internal_weight=0 21330
internal_count=23700 21330
is_linear=0
shrinkage=0.05


Tree=142
num_leaves=3
num_cat=0
split_feature=1 4
split_gain=376903 505611
threshold=29.500000000000004 180.50000000000003
decision_type=2 2
left_child=1 -1
right_child=-2 -3
leaf_value=-0.2777925893039993 -0.24811338734521057 0.3606353237123987
leaf_weight=4520 9300 9880
leaf_count=4520 9300 9880
internal_value=0 0.16024
internal_weight=0 14400
internal_count=23700 14400
is_linear=0
shrinkage=0.05


Tree=143
num_leaves=3
num_cat=0
split_feature=106 1
split_gain=386460 379424
threshold=1.0000000180025095e-35 52.500000000000007
decision_type=2 2
left_child=1 -1
right_child=-2 -3
leaf_value=0.039701314130885297 -1.5409764210991561 -3.046799245476723
leaf_weight=23200 400 100
leaf_count=23200 400 100
internal_value=0 0.0264545
internal_weight=0 23300
internal_count=23700 23300
is_linear=0
shrinkage=0.05


Tree=144
num_leaves=3
num_cat=0
split_feature=123 4
split_gain=376407 408058
threshold=1.0000000180025095e-35 557.50000000000011
decision_type=2 2
left_child=1 -1
right_child=-2 -3
leaf_value=-0.070513137764908085 -1.5208011302554514 0.47924914356749798
leaf_weight=19205 400 4095
leaf_count=19205 400 4095
internal_value=0 0.0261082
internal_weight=0 23300
internal_count=23700 23300
is_linear=0
shrinkage=0.05


Tree=145
num_leaves=3
num_cat=0
split_feature=124 4
split_gain=370777 364883
threshold=1.0000000180025095e-35 529.50000000000011
decision_type=2 2
left_child=1 -1
right_child=-2 -3
leaf_value=-0.074438128379613375 -1.5093853406347335 0.41605117877332748
leaf_weight=18533 400 4767
leaf_count=18533 400 4767
internal_value=0 0.0259122
internal_weight=0 23300
internal_count=23700 23300
is_linear=0
shrinkage=0.05


Tree=146
num_leaves=3
num_cat=0
split_feature=138 29
split_gain=367668 430544
threshold=1.0000000180025095e-35 1.0000000180025095e-35
decision_type=2 2
left_child=1 -1
right_child=-2 -3
leaf_value=0.5129117413302402 0.7084528073457016 -0.14093266082415601
leaf_weight=2900 1700 19100
leaf_count=2900 1700 19100
internal_value=0 -0.0547441
internal_weight=0 22000
internal_count=23700 22000
is_linear=0
shrinkage=0.05


Tree=147
num_leaves=3
num_cat=0
split_feature=128 0
split_gain=366598 603569
threshold=1.0000000180025095e-35 2017.5000000000002
decision_type=2 2
left_child=-1 -2
right_child=1 -3
leaf_value=0.062904665164670734 0.91232916486710325 -1.0638911084006268
leaf_weight=21500 500 1700
leaf_count=21500 500 1700
internal_value=0 -0.61475
internal_weight=0 2200
internal_count=23700 2200
is_linear=0
shrinkage=0.05


Tree=148
num_leaves=3
num_cat=0
split_feature=4 84
split_gain=360376 360693
threshold=980.50000000000011 1.0000000180025095e-35
decision_type=2 2
left_child=1 -1
right_child=-2 -3
leaf_value=-0.041449842679758313 2.9952282834053041 1.3159370487218724
leaf_weight=23100 100 500
leaf_count=23100 100 500
internal_value=0 -0.0126916
internal_weight=0 23600
internal_count=23700 23600
is_linear=0
shrinkage=0.05


Tree=149
num_leaves=3
num_cat=0
split_feature=106 4
split_gain=352979 362128
threshold=1.0000000180025095e-35 118.50000000000001
decision_type=2 2
left_child=1 -1
right_child=-2 -3
leaf_value=-0.5739569778003536 -1.4727127431849949 0.090123055118078527
leaf_weight=2275 400 21025
leaf_count=2275 400 21025
internal_value=0 0.0252826
internal_weight=0 23300
internal_count=23700 23300
is_linear=0
shrinkage=0.05


Tree=150
num_leaves=3
num_cat=0
split_feature=1 138
split_gain=335301 679438
threshold=29.500000000000004 1.0000000180025095e-35
decision_type=2 2
left_child=-1 -2
right_child=1 -3
leaf_value=0.15113798978746612 -0.43614561383334743 0.66959976640612107
leaf_weight=14400 7600 1700
leaf_count=14400 7600 1700
internal_value=0 -0.23402
internal_weight=0 9300
internal_count=23700 9300
is_linear=0
shrinkage=0.05


Tree=151
num_leaves=3
num_cat=0
split_feature=123 138
split_gain=340726 393416
threshold=1.0000000180025095e-35 1.0000000180025095e-35
decision_type=2 2
left_child=1 -1
right_child=-2 -3
leaf_value=-0.030948976712298695 -1.4469270147230711 0.78147724253169149
leaf_weight=21700 400 1600
leaf_count=21700 400 1600
internal_value=0 0.0248399
internal_weight=0 23300
internal_count=23700 23300
is_linear=0
shrinkage=0.05


Tree=152
num_leaves=3
num_cat=0
split_feature=2 1
split_gain=334063 327948
threshold=1038.0000000000002 52.500000000000007
decision_type=2 2
left_child=1 -1
right_child=-2 -3
leaf_value=0.0038525394053546391 4.2568011335704643 -2.8655556060373786
leaf_weight=23554 46 100
leaf_count=23554 46 100
internal_value=0 -0.00827821
internal_weight=0 23654
internal_count=23700 23654
is_linear=0
shrinkage=0.05


Tree=153
num_leaves=3
num_cat=0
split_feature=88 53
split_gain=330460 320272
threshold=1.0000000180025095e-35 932.00000000000011
decision_type=2 2
left_child=1 -1
right_child=-2 -3
leaf_value=-0.040172912167566681 1.2717861377654598 2.6765103678398452
leaf_weight=23091 500 109
leaf_count=23091 500 109
internal_value=0 -0.0274092
internal_weight=0 23200
internal_count=23700 23200
is_linear=0
shrinkage=0.05


Tree=154
num_leaves=3
num_cat=0
split_feature=128 3
split_gain=325559 608265
threshold=1.0000000180025095e-35 1.0000000180025095e-35
decision_type=2 2
left_child=-1 -2
right_child=1 -3
leaf_value=0.059279273666334502 1.5129664447009565 -0.90968122269600438
leaf_weight=21500 300 1900
leaf_count=21500 300 1900
internal_value=0 -0.57932
internal_weight=0 2200
internal_count=23700 2200
is_linear=0
shrinkage=0.05


Tree=155
num_leaves=3
num_cat=0
split_feature=89 84
split_gain=329306 330594
threshold=1.0000000180025095e-35 1.0000000180025095e-35
decision_type=2 2
left_child=1 -1
right_child=-2 -3
leaf_value=-0.055373382154242895 1.26956456656605 1.244386963013187
leaf_weight=22700 500 500
leaf_count=22700 500 500
internal_value=0 -0.0273613
internal_weight=0 23200
internal_count=23700 23200
is_linear=0
shrinkage=0.05


Tree=156
num_leaves=3
num_cat=0
split_feature=3 3
split_gain=325435 569654
threshold=118.50000000000001 1.0000000180025095e-35
decision_type=2 2
left_child=1 -1
right_child=-2 -3
leaf_value=1.4400867307254426 0.058896032067682624 -0.90654032614017543
leaf_weight=300 21525 1875
leaf_count=300 21525 1875
internal_value=0 -0.582868
internal_weight=0 2175
internal_count=23700 2175
is_linear=0
shrinkage=0.05


Tree=157
num_leaves=3
num_cat=0
split_feature=106 3
split_gain=309207 320094
threshold=1.0000000180025095e-35 116.50000000000001
decision_type=2 2
left_child=1 -1
right_child=-2 -3
leaf_value=-0.57444685309091137 -1.378377496131463 0.081085518120216915
leaf_weight=2041 400 21259
leaf_count=2041 400 21259
internal_value=0 0.0236631
internal_weight=0 23300
internal_count=23700 23300
is_linear=0
shrinkage=0.05


Tree=158
num_leaves=3
num_cat=0
split_feature=123 138
split_gain=308317 354286
threshold=1.0000000180025095e-35 1.0000000180025095e-35
decision_type=2 2
left_child=1 -1
right_child=-2 -3
leaf_value=-0.029312770778731331 -1.3763937837630511 0.74165290532857764
leaf_weight=21700 400 1600
leaf_count=21700 400 1600
internal_value=0 0.0236291
internal_weight=0 23300
internal_count=23700 23300
is_linear=0
shrinkage=0.05


Tree=159
num_leaves=3
num_cat=0
split_feature=54 69
split_gain=302136 295864
threshold=1.0000000180025095e-35 1.0000000180025095e-35
decision_type=2 2
left_child=-1 -2
right_child=1 -3
leaf_value=0.53557263549024292 -0.12534591029158146 0.46719465022552997
leaf_weight=2370 18960 2370
leaf_count=2370 18960 2370
internal_value=0 -0.0595081
internal_weight=0 21330
internal_count=23700 21330
is_linear=0
shrinkage=0.05


Tree=160
num_leaves=3
num_cat=0
split_feature=124 128
split_gain=323042 313290
threshold=1.0000000180025095e-35 1.0000000180025095e-35
decision_type=2 2
left_child=1 -1
right_child=-2 -3
leaf_value=0.083388595291808962 -1.4088780689444393 -0.54361279195585199
leaf_weight=21100 400 2200
leaf_count=21100 400 2200
internal_value=0 0.0241867
internal_weight=0 23300
internal_count=23700 23300
is_linear=0
shrinkage=0.05


Tree=161
num_leaves=3
num_cat=0
split_feature=1 138
split_gain=312066 523818
threshold=29.500000000000004 1.0000000180025095e-35
decision_type=2 2
left_child=-1 -2
right_child=1 -3
leaf_value=0.14580727947983765 -0.40324080729984529 0.56765017191539791
leaf_weight=14400 7600 1700
leaf_count=14400 7600 1700
internal_value=0 -0.225766
internal_weight=0 9300
internal_count=23700 9300
is_linear=0
shrinkage=0.05


Tree=162
num_leaves=3
num_cat=0
split_feature=126 1
split_gain=294628 551529
threshold=1.0000000180025095e-35 48.500000000000007
decision_type=2 2
left_child=1 -1
right_child=-2 -3
leaf_value=0.036035317481448878 1.3454917898215353 -1.0238259163255303
leaf_weight=22000 400 1300
leaf_count=22000 400 1300
internal_value=0 -0.0230986
internal_weight=0 23300
internal_count=23700 23300
is_linear=0
shrinkage=0.05


Tree=163
num_leaves=3
num_cat=0
split_feature=4 88
split_gain=293707 297618
threshold=980.50000000000011 1.0000000180025095e-35
decision_type=2 2
left_child=1 -1
right_child=-2 -3
leaf_value=-0.037580685125428684 2.7040150200128554 1.195424620719999
leaf_weight=23100 100 500
leaf_count=23100 100 500
internal_value=0 -0.0114577
internal_weight=0 23600
internal_count=23700 23600
is_linear=0
shrinkage=0.05


Tree=164
num_leaves=3
num_cat=0
split_feature=2 2
split_gain=293590 511174
threshold=1.0000000180025095e-35 101.50000000000001
decision_type=2 2
left_child=-1 -2
right_child=1 -3
leaf_value=1.9075924141407015 -1.1394988993558761 0.032177856959978629
leaf_weight=200 971 22529
leaf_count=200 971 22529
internal_value=0 -0.0162348
internal_weight=0 23500
internal_count=23700 23500
is_linear=0
shrinkage=0.05


Tree=165
num_leaves=3
num_cat=0
split_feature=89 120
split_gain=292139 281092
threshold=1.0000000180025095e-35 1.0000000180025095e-35
decision_type=2 2
left_child=1 -1
right_child=-2 -3
leaf_value=-0.048823222929557236 1.195775004658103 1.2882049921937289
leaf_weight=22800 500 400
leaf_count=22800 500 400
internal_value=0 -0.025771
internal_weight=0 23200
internal_count=23700 23200
is_linear=0
shrinkage=0.05


Tree=166
num_leaves=3
num_cat=0
split_feature=142 69
split_gain=277302 337995
threshold=1.0000000180025095e-35 1.0000000180025095e-35
decision_type=2 2
left_child=1 -1
right_child=-2 -3
leaf_value=0.019436088010790414 -0.3225941363342259 0.73182629686805445
leaf_weight=16650 5200 1850
leaf_count=16650 5200 1850
internal_value=0 0.0906751
internal_weight=0 18500
internal_count=23700 18500
is_linear=0
shrinkage=0.05


Tree=167
num_leaves=3
num_cat=0
split_feature=1 54
split_gain=281785 278992
threshold=52.500000000000007 1.0000000180025095e-35
decision_type=2 2
left_child=1 -1
right_child=-2 -3
leaf_value=0.52696269783609695 -2.6485673091411592 -0.046081696852948738
leaf_weight=2360 100 21240
leaf_count=2360 100 21240
internal_value=0 0.0112227
internal_weight=0 23600
internal_count=23700 23600
is_linear=0
shrinkage=0.05


Tree=168
num_leaves=3
num_cat=0
split_feature=106 4
split_gain=272842 298142
threshold=1.0000000180025095e-35 753.50000000000011
decision_type=2 2
left_child=1 -1
right_child=-2 -3
leaf_value=-0.018170045430965537 -1.2947895591976122 0.81408272954667449
leaf_weight=22169 400 1131
leaf_count=22169 400 1131
internal_value=0 0.0222281
internal_weight=0 23300
internal_count=23700 23300
is_linear=0
shrinkage=0.05


Tree=169
num_leaves=3
num_cat=0
split_feature=84 89
split_gain=286873 275469
threshold=1.0000000180025095e-35 1.0000000180025095e-35
decision_type=2 2
left_child=1 -1
right_child=-2 -3
leaf_value=-0.05110792653938017 1.1849498870715498 1.1353499794462696
leaf_weight=22700 500 500
leaf_count=22700 500 500
internal_value=0 -0.0255377
internal_weight=0 23200
internal_count=23700 23200
is_linear=0
shrinkage=0.05


Tree=170
num_leaves=3
num_cat=0
split_feature=0 5
split_gain=273306 556551
threshold=2018.5000000000002 432.50000000000006
decision_type=2 2
left_child=1 -1
right_child=-2 -3
leaf_value=-0.036355779184248552 -0.15014527406337008 0.77784793974204647
leaf_weight=7483 13300 2917
leaf_count=7483 13300 2917
internal_value=0 0.192013
internal_weight=0 10400
internal_count=23700 10400
is_linear=0
shrinkage=0.05


Tree=171
num_leaves=3
num_cat=0
split_feature=30 69
split_gain=264211 542795
threshold=1.0000000180025095e-35 1.0000000180025095e-35
decision_type=2 2
left_child=1 -1
right_child=-2 -3
leaf_value=0.21434220522659386 -0.063554620230977049 2.4561889822234715
leaf_weight=2700 20700 300
leaf_count=2700 20700 300
internal_value=0 0.438527
internal_weight=0 3000
internal_count=23700 3000
is_linear=0
shrinkage=0.05


Tree=172
num_leaves=3
num_cat=0
split_feature=88 3
split_gain=265945 265511
threshold=1.0000000180025095e-35 986.50000000000011
decision_type=2 2
left_child=1 -1
right_child=-2 -3
leaf_value=-0.035491882802785049 1.140908237195015 2.5994826999803387
leaf_weight=23104 500 96
leaf_count=23104 500 96
internal_value=0 -0.0245885
internal_weight=0 23200
internal_count=23700 23200
is_linear=0
shrinkage=0.05


Tree=173
num_leaves=3
num_cat=0
split_feature=126 29
split_gain=271276 262540
threshold=1.0000000180025095e-35 1.0000000180025095e-35
decision_type=2 2
left_child=1 -1
right_child=-2 -3
leaf_value=0.4229850131426216 1.2910686038956047 -0.0854452932234437
leaf_weight=2900 400 20400
leaf_count=2900 400 20400
internal_value=0 -0.0221643
internal_weight=0 23300
internal_count=23700 23300
is_linear=0
shrinkage=0.05


Tree=174
num_leaves=3
num_cat=0
split_feature=84 2
split_gain=259932 260829
threshold=1.0000000180025095e-35 1.0000000180025095e-35
decision_type=2 2
left_child=1 -1
right_child=-2 -3
leaf_value=1.773539807677269 1.1279364139098673 -0.0399424422693287
leaf_weight=200 500 23000
leaf_count=200 500 23000
internal_value=0 -0.024309
internal_weight=0 23200
internal_count=23700 23200
is_linear=0
shrinkage=0.05


Tree=175
num_leaves=3
num_cat=0
split_feature=128 3
split_gain=269002 443666
threshold=1.0000000180025095e-35 1.0000000180025095e-35
decision_type=2 2
left_child=-1 -2
right_child=1 -3
leaf_value=0.053884763868854574 1.2603096798385183 -0.80874491051496256
leaf_weight=21500 300 1900
leaf_count=21500 300 1900
internal_value=0 -0.526601
internal_weight=0 2200
internal_count=23700 2200
is_linear=0
shrinkage=0.05


Tree=176
num_leaves=3
num_cat=0
split_feature=4 69
split_gain=262139 655895
threshold=118.50000000000001 1.0000000180025095e-35
decision_type=2 2
left_child=1 -1
right_child=-2 -3
leaf_value=-0.62514500549013086 0.05419980717436567 5.7566448423920606
leaf_weight=2235 21424 41
leaf_count=2235 21424 41
internal_value=0 -0.510183
internal_weight=0 2276
internal_count=23700 2276
is_linear=0
shrinkage=0.05


Tree=177
num_leaves=3
num_cat=0
split_feature=124 4
split_gain=256718 265771
threshold=1.0000000180025095e-35 158.50000000000003
decision_type=2 2
left_child=1 -1
right_child=-2 -3
leaf_value=-0.30630703147205729 -1.255949017032981 0.10853594633101532
leaf_weight=4885 400 18415
leaf_count=4885 400 18415
internal_value=0 0.0215614
internal_weight=0 23300
internal_count=23700 23300
is_linear=0
shrinkage=0.05


Tree=178
num_leaves=3
num_cat=0
split_feature=127 2
split_gain=250462 246489
threshold=1.0000000180025095e-35 1038.0000000000002
decision_type=2 2
left_child=1 -1
right_child=-2 -3
leaf_value=0.0034396063558804913 -2.4970244901180267 3.6670863820158917
leaf_weight=23554 100 46
leaf_count=23554 100 46
internal_value=0 0.0105806
internal_weight=0 23600
internal_count=23700 23600
is_linear=0
shrinkage=0.05


Tree=179
num_leaves=3
num_cat=0
split_feature=1 128
split_gain=255933 397985
threshold=30.500000000000004 1.0000000180025095e-35
decision_type=2 2
left_child=1 -1
right_child=-2 -3
leaf_value=0.23575815952024959 -0.21188241278101169 -0.49309060205021793
leaf_weight=12600 8900 2200
leaf_count=12600 8900 2200
internal_value=0 0.127416
internal_weight=0 14800
internal_count=23700 14800
is_linear=0
shrinkage=0.05


Tree=180
num_leaves=3
num_cat=0
split_feature=106 3
split_gain=243431 240527
threshold=1.0000000180025095e-35 116.50000000000001
decision_type=2 2
left_child=1 -1
right_child=-2 -3
leaf_value=-0.49747459308875364 -1.2230144634507596 0.070772445354219851
leaf_weight=2041 400 21259
leaf_count=2041 400 21259
internal_value=0 0.020996
internal_weight=0 23300
internal_count=23700 23300
is_linear=0
shrinkage=0.05


Tree=181
num_leaves=3
num_cat=0
split_feature=120 89
split_gain=250594 240976
threshold=1.0000000180025095e-35 1.0000000180025095e-35
decision_type=2 2
left_child=1 -1
right_child=-2 -3
leaf_value=-0.045114648365648047 1.2408783746957779 1.0645253003712745
leaf_weight=22800 400 500
leaf_count=22800 400 500
internal_value=0 -0.0213026
internal_weight=0 23300
internal_count=23700 23300
is_linear=0
shrinkage=0.05


Tree=182
num_leaves=3
num_cat=0
split_feature=123 138
split_gain=246717 280154
threshold=1.0000000180025095e-35 1.0000000180025095e-35
decision_type=2 2
left_child=1 -1
right_child=-2 -3
leaf_value=-0.02594107393158733 -1.2312405276205391 0.65963593522447628
leaf_weight=21700 400 1600
leaf_count=21700 400 1600
internal_value=0 0.0211372
internal_weight=0 23300
internal_count=23700 23300
is_linear=0
shrinkage=0.05


Tree=183
num_leaves=3
num_cat=0
split_feature=88 84
split_gain=234772 242564
threshold=1.0000000180025095e-35 1.0000000180025095e-35
decision_type=2 2
left_child=1 -1
right_child=-2 -3
leaf_value=-0.047097027409124428 1.0719590824281797 1.0662459164135158
leaf_weight=22700 500 500
leaf_count=22700 500 500
internal_value=0 -0.0231026
internal_weight=0 23200
internal_count=23700 23200
is_linear=0
shrinkage=0.05


Tree=184
num_leaves=3
num_cat=0
split_feature=5 0
split_gain=231992 265513
threshold=934.50000000000011 2018.5000000000002
decision_type=2 2
left_child=1 -1
right_child=-2 -3
leaf_value=0.17469903859459757 1.7355319610596951 -0.16365179806311109
leaf_weight=10391 191 13118
leaf_count=10391 191 13118
internal_value=0 -0.0141004
internal_weight=0 23509
internal_count=23700 23509
is_linear=0
shrinkage=0.05


Tree=185
num_leaves=3
num_cat=0
split_feature=126 142
split_gain=250190 239837
threshold=1.0000000180025095e-35 1.0000000180025095e-35
decision_type=2 2
left_child=1 -1
right_child=-2 -3
leaf_value=0.063632529175595101 1.2398776521146937 -0.32432609747509006
leaf_weight=18200 400 5100
leaf_count=18200 400 5100
internal_value=0 -0.0212855
internal_weight=0 23300
internal_count=23700 23300
is_linear=0
shrinkage=0.05


Tree=186
num_leaves=3
num_cat=0
split_feature=2 69
split_gain=227675 435491
threshold=1.0000000180025095e-35 1.0000000180025095e-35
decision_type=2 2
left_child=1 -1
right_child=-2 -3
leaf_value=0.90213860082957487 -0.014296666515971029 8.6793358039855963
leaf_weight=180 23500 20
leaf_count=180 23500 20
internal_value=0 1.67986
internal_weight=0 200
internal_count=23700 200
is_linear=0
shrinkage=0.05


Tree=187
num_leaves=3
num_cat=0
split_feature=126 139
split_gain=226071 339760
threshold=1.0000000180025095e-35 1.0000000180025095e-35
decision_type=2 2
left_child=1 -1
right_child=-2 -3
leaf_value=0.024257585217813044 1.17859860037826 -0.8396100619730229
leaf_weight=22100 400 1200
leaf_count=22100 400 1200
internal_value=0 -0.0202335
internal_weight=0 23300
internal_count=23700 23300
is_linear=0
shrinkage=0.05


Tree=188
num_leaves=3
num_cat=0
split_feature=106 3
split_gain=218278 227674
threshold=1.0000000180025095e-35 116.50000000000001
decision_type=2 2
left_child=1 -1
right_child=-2 -3
leaf_value=-0.48454605641470022 -1.1581063518561423 0.068309940709803549
leaf_weight=2041 400 21259
leaf_count=2041 400 21259
internal_value=0 0.0198817
internal_weight=0 23300
internal_count=23700 23300
is_linear=0
shrinkage=0.05


Tree=189
num_leaves=3
num_cat=0
split_feature=1 138
split_gain=231767 396536
threshold=28.500000000000004 1.0000000180025095e-35
decision_type=2 2
left_child=-1 -2
right_child=1 -3
leaf_value=0.13014979359899856 -0.33521365963655558 0.50565421131056032
leaf_weight=14000 8000 1700
leaf_count=14000 8000 1700
internal_value=0 -0.187845
internal_weight=0 9700
internal_count=23700 9700
is_linear=0
shrinkage=0.05


Tree=190
num_leaves=3
num_cat=0
split_feature=70 126
split_gain=218085 252230
threshold=1.0000000180025095e-35 1.0000000180025095e-35
decision_type=2 2
left_child=-1 -2
right_child=1 -3
leaf_value=-0.050557662291480454 0.38743456745644145 4.3918099033832547
leaf_weight=21330 2330 40
leaf_count=21330 2330 40
internal_value=0 0.455019
internal_weight=0 2370
internal_count=23700 2370
is_linear=0
shrinkage=0.05


Tree=191
num_leaves=3
num_cat=0
split_feature=4 0
split_gain=217158 243509
threshold=775.50000000000011 2018.5000000000002
decision_type=2 2
left_child=1 -1
right_child=-2 -3
leaf_value=0.14905536162876215 0.71960126966093318 -0.18011719746186183
leaf_weight=10224 1004 12472
leaf_count=10224 1004 12472
internal_value=0 -0.0318329
internal_weight=0 22696
internal_count=23700 22696
is_linear=0
shrinkage=0.05


Tree=192
num_leaves=3
num_cat=0
split_feature=88 84
split_gain=210112 218470
threshold=1.0000000180025095e-35 1.0000000180025095e-35
decision_type=2 2
left_child=1 -1
right_child=-2 -3
leaf_value=-0.044627173417145262 1.0140985576818231 1.0119751626040787
leaf_weight=22700 500 500
leaf_count=22700 500 500
internal_value=0 -0.0218556
internal_weight=0 23200
internal_count=23700 23200
is_linear=0
shrinkage=0.05


Tree=193
num_leaves=3
num_cat=0
split_feature=89 2
split_gain=209730 214223
threshold=1.0000000180025095e-35 1.0000000180025095e-35
decision_type=2 2
left_child=1 -1
right_child=-2 -3
leaf_value=1.6074888389110567 1.0131755497246981 -0.036003718963867386
leaf_weight=200 500 23000
leaf_count=200 500 23000
internal_value=0 -0.0218357
internal_weight=0 23200
internal_count=23700 23200
is_linear=0
shrinkage=0.05


Tree=194
num_leaves=3
num_cat=0
split_feature=128 1
split_gain=210635 426299
threshold=1.0000000180025095e-35 19.500000000000004
decision_type=2 2
left_child=1 -1
right_child=-2 -3
leaf_value=0.35820280546002881 -0.4659818664421751 -0.11195213931326141
leaf_weight=7300 2200 14200
leaf_count=7300 2200 14200
internal_value=0 0.0476819
internal_weight=0 21500
internal_count=23700 21500
is_linear=0
shrinkage=0.05


Tree=195
num_leaves=3
num_cat=0
split_feature=2 120
split_gain=209119 210911
threshold=1038.0000000000002 1.0000000180025095e-35
decision_type=2 2
left_child=1 -1
right_child=-2 -3
leaf_value=-0.026131287593151076 3.3679502738558726 1.1318281548772939
leaf_weight=23254 46 400
leaf_count=23254 46 400
internal_value=0 -0.00654966
internal_weight=0 23654
internal_count=23700 23654
is_linear=0
shrinkage=0.05


Tree=196
num_leaves=3
num_cat=0
split_feature=4 3
split_gain=207227 400504
threshold=112.50000000000001 1.0000000180025095e-35
decision_type=2 2
left_child=1 -1
right_child=-2 -3
leaf_value=1.1827943419168394 0.044046736413268756 -0.80493117763685673
leaf_weight=300 21768 1632
leaf_count=300 21768 1632
internal_value=0 -0.496278
internal_weight=0 1932
internal_count=23700 1932
is_linear=0
shrinkage=0.05


Tree=197
num_leaves=3
num_cat=0
split_feature=127 123
split_gain=206906 208025
threshold=1.0000000180025095e-35 1.0000000180025095e-35
decision_type=2 2
left_child=1 -1
right_child=-2 -3
leaf_value=0.029108765988364812 -2.2695444990880786 -1.1209223158992827
leaf_weight=23200 100 400
leaf_count=23200 100 400
internal_value=0 0.00961671
internal_weight=0 23600
internal_count=23700 23600
is_linear=0
shrinkage=0.05


Tree=198
num_leaves=3
num_cat=0
split_feature=1 1
split_gain=193425 358995
threshold=30.500000000000004 42.500000000000007
decision_type=2 2
left_child=-1 -2
right_child=1 -3
leaf_value=0.11076860833580833 -0.47768770887174467 0.15939648902550252
leaf_weight=14800 4800 4100
leaf_count=14800 4800 4100
internal_value=0 -0.184199
internal_weight=0 8900
internal_count=23700 8900
is_linear=0
shrinkage=0.05


Tree=199
num_leaves=3
num_cat=0
split_feature=128 1
split_gain=196958 375492
threshold=1.0000000180025095e-35 19.500000000000004
decision_type=2 2
left_child=1 -1
right_child=-2 -3
leaf_value=0.3375375969625678 -0.45059932352258536 -0.10371168689350257
leaf_weight=7300 2200 14200
leaf_count=7300 2200 14200
internal_value=0 0.0461078
internal_weight=0 21500
internal_count=23700 21500
is_linear=0
shrinkage=0.05


Tree=200
num_leaves=3
num_cat=0
split_feature=4 1
split_gain=205475 210927
threshold=681.50000000000011 48.500000000000007
decision_type=2 2
left_child=-1 -2
right_child=1 -3
leaf_value=-0.04435257736011821 0.62942752741718033 -1.411295174653916
leaf_weight=21728 1836 136
leaf_count=21728 1836 136
internal_value=0 0.488688
internal_weight=0 1972
internal_count=23700 1972
is_linear=0
shrinkage=0.05


Tree=201
num_leaves=3
num_cat=0
split_feature=53 119
split_gain=192245 186670
threshold=932.00000000000011 1.0000000180025095e-35
decision_type=2 2
left_child=1 -1
right_child=-2 -3
leaf_value=-0.028196603818519846 2.0854075358672577 1.0612110233772547
leaf_weight=23190 110 400
leaf_count=23190 110 400
internal_value=0 -0.00972424
internal_weight=0 23590
internal_count=23700 23590
is_linear=0
shrinkage=0.05


Tree=202
num_leaves=3
num_cat=0
split_feature=124 4
split_gain=199020 217249
threshold=1.0000000180025095e-35 681.50000000000011
decision_type=2 2
left_child=1 -1
right_child=-2 -3
leaf_value=-0.026962887744770334 -1.1058400708986447 0.52630394558896954
leaf_weight=21365 400 1935
leaf_count=21365 400 1935
internal_value=0 0.0189844
internal_weight=0 23300
internal_count=23700 23300
is_linear=0
shrinkage=0.05


Tree=203
num_leaves=3
num_cat=0
split_feature=126 1
split_gain=207907 331029
threshold=1.0000000180025095e-35 47.500000000000007
decision_type=2 2
left_child=1 -1
right_child=-2 -3
leaf_value=0.033468020157496912 1.1302589305886068 -0.691184001646169
leaf_weight=21600 400 1700
leaf_count=21600 400 1700
internal_value=0 -0.0194036
internal_weight=0 23300
internal_count=23700 23300
is_linear=0
shrinkage=0.05


Tree=204
num_leaves=3
num_cat=0
split_feature=4 69
split_gain=187074 545768
threshold=118.50000000000001 1.0000000180025095e-35
decision_type=2 2
left_child=1 -1
right_child=-2 -3
leaf_value=-0.53585720747994714 0.045786623585943084 5.2855672958420543
leaf_weight=2235 21424 41
leaf_count=2235 21424 41
internal_value=0 -0.43099
internal_weight=0 2276
internal_count=23700 2276
is_linear=0
shrinkage=0.05


Tree=205
num_leaves=3
num_cat=0
split_feature=126 1
split_gain=187471 299608
threshold=1.0000000180025095e-35 47.500000000000007
decision_type=2 2
left_child=1 -1
right_child=-2 -3
leaf_value=0.031874474864029605 1.0732742845849135 -0.65752845284101724
leaf_weight=21600 400 1700
leaf_count=21600 400 1700
internal_value=0 -0.0184253
internal_weight=0 23300
internal_count=23700 23300
is_linear=0
shrinkage=0.05


Tree=206
num_leaves=3
num_cat=0
split_feature=135 6
split_gain=187292 203084
threshold=1.0000000180025095e-35 946.50000000000011
decision_type=2 2
left_child=1 -1
right_child=-2 -3
leaf_value=0.029335883134445004 -0.50564067417668068 2.40933263051841
leaf_weight=21910 1700 90
leaf_count=21910 1700 90
internal_value=0 0.0390722
internal_weight=0 22000
internal_count=23700 22000
is_linear=0
shrinkage=0.05


Tree=207
num_leaves=3
num_cat=0
split_feature=2 69
split_gain=182998 362921
threshold=1.0000000180025095e-35 1.0000000180025095e-35
decision_type=2 2
left_child=1 -1
right_child=-2 -3
leaf_value=0.79607404479549992 -0.012817395476629821 7.8957733535766614
leaf_weight=180 23500 20
leaf_count=180 23500 20
internal_value=0 1.50604
internal_weight=0 200
internal_count=23700 200
is_linear=0
shrinkage=0.05


Tree=208
num_leaves=3
num_cat=0
split_feature=0 5
split_gain=185492 488979
threshold=2018.5000000000002 432.50000000000006
decision_type=2 2
left_child=1 -1
right_child=-2 -3
leaf_value=-0.055870876840364014 -0.12369412003733704 0.70730666940500864
leaf_weight=7483 13300 2917
leaf_count=7483 13300 2917
internal_value=0 0.158186
internal_weight=0 10400
internal_count=23700 10400
is_linear=0
shrinkage=0.05


Tree=209
num_leaves=3
num_cat=0
split_feature=84 138
split_gain=177987 185050
threshold=1.0000000180025095e-35 1.0000000180025095e-35
decision_type=2 2
left_child=1 -1
right_child=-2 -3
leaf_value=-0.059823315901843137 0.93335838412642491 0.48207182868548176
leaf_weight=21500 500 1700
leaf_count=21500 500 1700
internal_value=0 -0.0201155
internal_weight=0 23200
internal_count=23700 23200
is_linear=0
shrinkage=0.05


Tree=210
num_leaves=3
num_cat=0
split_feature=120 1
split_gain=177412 226000
threshold=1.0000000180025095e-35 30.500000000000004
decision_type=2 2
left_child=1 -1
right_child=-2 -3
leaf_value=0.10008739379659606 1.0440846871964167 -0.22340321310709182
leaf_weight=14800 400 8500
leaf_count=14800 400 8500
internal_value=0 -0.0179242
internal_weight=0 23300
internal_count=23700 23300
is_linear=0
shrinkage=0.05


Tree=211
num_leaves=3
num_cat=0
split_feature=128 7
split_gain=179490 340755
threshold=1.0000000180025095e-35 1.0000000180025095e-35
decision_type=2 2
left_child=-1 -2
right_child=1 -3
leaf_value=0.044015737678792854 0.71725769599080091 -0.76762777100111745
leaf_weight=21500 500 1700
leaf_count=21500 500 1700
internal_value=0 -0.430154
internal_weight=0 2200
internal_count=23700 2200
is_linear=0
shrinkage=0.05


Tree=212
num_leaves=3
num_cat=0
split_feature=3 67
split_gain=179377 561136
threshold=116.50000000000001 1.0000000180025095e-35
decision_type=2 2
left_child=1 -1
right_child=-2 -3
leaf_value=-0.55239099703867167 0.042248741045566321 6.1211657702922828
leaf_weight=2011 21657 32
leaf_count=2011 21657 32
internal_value=0 -0.447861
internal_weight=0 2043
internal_count=23700 2043
is_linear=0
shrinkage=0.05


Tree=213
num_leaves=3
num_cat=0
split_feature=4 0
split_gain=175447 185030
threshold=980.50000000000011 2018.5000000000002
decision_type=2 2
left_child=1 -1
right_child=-2 -3
leaf_value=0.14887140441920763 2.089898359194398 -0.13312518554364691
leaf_weight=10400 100 13200
leaf_count=10400 100 13200
internal_value=0 -0.0088555
internal_weight=0 23600
internal_count=23700 23600
is_linear=0
shrinkage=0.05


Tree=214
num_leaves=3
num_cat=0
split_feature=106 4
split_gain=174850 185879
threshold=1.0000000180025095e-35 753.50000000000011
decision_type=2 2
left_child=1 -1
right_child=-2 -3
leaf_value=-0.014103822782893788 -1.0365172683624551 0.64303675488639667
leaf_weight=22169 400 1131
leaf_count=22169 400 1131
internal_value=0 0.0177943
internal_weight=0 23300
internal_count=23700 23300
is_linear=0
shrinkage=0.05


Tree=215
num_leaves=3
num_cat=0
split_feature=126 1
split_gain=172665 269382
threshold=1.0000000180025095e-35 47.500000000000007
decision_type=2 2
left_child=1 -1
right_child=-2 -3
leaf_value=0.030012349630849918 1.0300197129603477 -0.62369098225281483
leaf_weight=21600 400 1700
leaf_count=21600 400 1700
internal_value=0 -0.0176827
internal_weight=0 23300
internal_count=23700 23300
is_linear=0
shrinkage=0.05


Tree=216
num_leaves=3
num_cat=0
split_feature=54 2
split_gain=165856 261962
threshold=1.0000000180025095e-35 188.50000000000003
decision_type=2 2
left_child=1 -1
right_child=-2 -3
leaf_value=5.5940536340077722 -0.044090036861476785 0.34364160567600011
leaf_weight=24 21330 2346
leaf_count=24 21330 2346
internal_value=0 0.39681
internal_weight=0 2370
internal_count=23700 2370
is_linear=0
shrinkage=0.05


Tree=217
num_leaves=3
num_cat=0
split_feature=4 69
split_gain=172505 467578
threshold=109.50000000000001 1.0000000180025095e-35
decision_type=2 2
left_child=1 -1
right_child=-2 -3
leaf_value=-0.59609848916121189 0.038533603539181144 4.8057501623543297
leaf_weight=1747 21912 41
leaf_count=1747 21912 41
internal_value=0 -0.472231
internal_weight=0 1788
internal_count=23700 1788
is_linear=0
shrinkage=0.05


Tree=218
num_leaves=3
num_cat=0
split_feature=88 89
split_gain=173177 179448
threshold=1.0000000180025095e-35 1.0000000180025095e-35
decision_type=2 2
left_child=1 -1
right_child=-2 -3
leaf_value=-0.040479811738048217 0.92066018400043248 0.91712325482368484
leaf_weight=22700 500 500
leaf_count=22700 500 500
internal_value=0 -0.0198418
internal_weight=0 23200
internal_count=23700 23200
is_linear=0
shrinkage=0.05


Tree=219
num_leaves=3
num_cat=0
split_feature=84 7
split_gain=160866 177045
threshold=1.0000000180025095e-35 164.50000000000003
decision_type=2 2
left_child=-1 -2
right_child=1 -3
leaf_value=-0.019123596459888585 -0.28934888458404789 1.6396408636892428
leaf_weight=23200 195 305
leaf_count=23200 195 305
internal_value=0 0.887335
internal_weight=0 500
internal_count=23700 500
is_linear=0
shrinkage=0.05


Tree=220
num_leaves=3
num_cat=0
split_feature=1 135
split_gain=164544 164851
threshold=52.500000000000007 1.0000000180025095e-35
decision_type=2 2
left_child=1 -1
right_child=-2 -3
leaf_value=0.045394150117878937 -2.0239186669089833 -0.4657294194960474
leaf_weight=21900 100 1700
leaf_count=21900 100 1700
internal_value=0 0.00857593
internal_weight=0 23600
internal_count=23700 23600
is_linear=0
shrinkage=0.05


Tree=221
num_leaves=3
num_cat=0
split_feature=142 4
split_gain=159846 233561
threshold=1.0000000180025095e-35 592.50000000000011
decision_type=2 2
left_child=1 -1
right_child=-2 -3
leaf_value=-0.0019170027951670963 -0.24492341034213538 0.51488768971546095
leaf_weight=15967 5200 2533
leaf_count=15967 5200 2533
internal_value=0 0.0688433
internal_weight=0 18500
internal_count=23700 18500
is_linear=0
shrinkage=0.05


Tree=222
num_leaves=3
num_cat=0
split_feature=80 0
split_gain=159456 386834
threshold=1.0000000180025095e-35 2020.5000000000002
decision_type=2 2
left_child=-1 -2
right_child=1 -3
leaf_value=-0.019039590456182285 0.18806516723241659 3.6649241914749151
leaf_weight=23200 400 100
leaf_count=23200 400 100
internal_value=0 0.883437
internal_weight=0 500
internal_count=23700 500
is_linear=0
shrinkage=0.05


Tree=223
num_leaves=3
num_cat=0
split_feature=120 119
split_gain=159528 164471
threshold=1.0000000180025095e-35 1.0000000180025095e-35
decision_type=2 2
left_child=1 -1
right_child=-2 -3
leaf_value=-0.034553703204854735 0.99006012006103994 0.98813938472885643
leaf_weight=22900 400 400
leaf_count=22900 400 400
internal_value=0 -0.0169967
internal_weight=0 23300
internal_count=23700 23300
is_linear=0
shrinkage=0.05


Tree=224
num_leaves=3
num_cat=0
split_feature=4 67
split_gain=154213 489023
threshold=109.50000000000001 1.0000000180025095e-35
decision_type=2 2
left_child=1 -1
right_child=-2 -3
leaf_value=-0.57316898548145023 0.036433391712898097 4.9511645305447463
leaf_weight=1747 21912 41
leaf_count=1747 21912 41
internal_value=0 -0.446492
internal_weight=0 1788
internal_count=23700 1788
is_linear=0
shrinkage=0.05


Tree=225
num_leaves=3
num_cat=0
split_feature=88 89
split_gain=156956 162579
threshold=1.0000000180025095e-35 1.0000000180025095e-35
decision_type=2 2
left_child=1 -1
right_child=-2 -3
leaf_value=-0.038533750585818843 0.87648298357129095 0.87294929946512001
leaf_weight=22700 500 500
leaf_count=22700 500 500
internal_value=0 -0.0188897
