tree
version=v3
num_class=1
num_tree_per_iteration=1
label_index=0
max_feature_idx=153
objective=regression
feature_names=year week_of_year sales_lag_2 sales_lag_3 sales_lag_4 sales_lag_5 sales_lag_6 sales_lag_7 sales_lag_8 sales_lag_9 sales_lag_10 sales_lag_11 sales_lag_12 sales_lag_13 sales_lag_14 sales_lag_15 sales_lag_16 sales_lag_17 sales_lag_18 sales_lag_19 sales_lag_20 sales_lag_21 sales_lag_22 sales_lag_23 sales_lag_24 sales_lag_25 sales_lag_26 sales_lag_27 sales_lag_28 sales_lag_29 sales_lag_30 sales_lag_31 sales_lag_32 sales_lag_33 sales_lag_34 sales_lag_35 sales_lag_36 sales_lag_37 sales_lag_38 sales_lag_39 sales_lag_40 sales_lag_41 sales_lag_42 sales_lag_43 sales_lag_44 sales_lag_45 sales_lag_46 sales_lag_47 sales_lag_48 sales_lag_49 sales_lag_50 sales_lag_51 sales_lag_52 sales_lag_53 item_price store_chiba store_ginza store_kobe store_morioka store_nagoya store_osaka store_sendai store_shinjuku store_ueno store_yokohama item_apple_juice item_beer item_coffee item_fruit_juice item_milk item_mineral_water item_orange_juice item_soy_milk item_sparkling_water item_sports_drink week_of_year_1 week_of_year_2 week_of_year_3 week_of_year_4 week_of_year_5 week_of_year_6 week_of_year_7 week_of_year_8 week_of_year_9 week_of_year_10 week_of_year_11 week_of_year_12 week_of_year_13 week_of_year_14 week_of_year_15 week_of_year_16 week_of_year_17 week_of_year_18 week_of_year_19 week_of_year_20 week_of_year_21 week_of_year_22 week_of_year_23 week_of_year_24 week_of_year_25 week_of_year_26 week_of_year_27 week_of_year_28 week_of_year_29 week_of_year_30 week_of_year_31 week_of_year_32 week_of_year_33 week_of_year_34 week_of_year_35 week_of_year_36 week_of_year_37 week_of_year_38 week_of_year_39 week_of_year_40 week_of_year_41 week_of_year_42 week_of_year_43 week_of_year_44 week_of_year_45 week_of_year_46 week_of_year_47 week_of_year_48 week_of_year_49 week_of_year_50 week_of_year_51 week_of_year_52 week_of_year_53 month_1 month_2 month_3 month_4 month_5 month_6 month_7 month_8 month_9 month_10 month_11 month_12 year_2017 year_2018 year_2019 year_2020 year_2021 year_2022 year_2023 year_2024 year_2025 year_2026 year_2027 year_2028 year_2029 year_2030
feature_infos=[2017:2019] [1:52] [0:1069] [0:1069] [0:1069] [0:1069] [0:1069] [0:1069] [0:1069] [0:1069] [0:1069] [0:1069] [0:1069] [0:1069] [0:1069] [0:1069] [0:1069] [0:1069] [0:1069] [0:1069] [0:1069] [0:1069] [0:1033] [0:1033] [0:1033] [0:1033] [0:976] [0:976] [0:976] [0:976] [0:976] [0:976] [0:976] [0:976] [0:976] [0:976] [0:976] [0:976] [0:976] [0:976] [0:976] [0:976] [0:976] [0:976] [0:976] [0:976] [0:976] [0:976] [0:976] [0:976] [0:976] [0:976] [0:976] [0:976] [0:1] [0:1] [0:1] [0:1] [0:1] [0:1] [0:1] [0:1] [0:1] [0:1] [0:1] [0:1] [0:1] [0:1] [0:1] [0:1] [0:1] [0:1] [0:1] [0:1] [0:1] [0:1] [0:1] [0:1] [0:1] [0:1] [0:1] [0:1] [0:1] [0:1] [0:1] [0:1] [0:1] [0:1] [0:1] [0:1] [0:1] [0:1] [0:1] [0:1] [0:1] [0:1] [0:1] [0:1] [0:1] [0:1] [0:1] [0:1] [0:1] [0:1] [0:1] [0:1] [0:1] [0:1] [0:1] [0:1] [0:1] [0:1] [0:1] [0:1] [0:1] [0:1] [0:1] [0:1] [0:1] [0:1] [0:1] [0:1] [0:1] [0:1] [0:1] [0:1] [0:1] none [0:1] [0:1] [0:1] [0:1] [0:1] [0:1] [0:1] [0:1] [0:1] [0:1] [0:1] [0:1] [0:1] [0:1] [0:1] none none none none none none none none none none none
tree_sizes=1012 1021 1027 1024 1021 1020 1016 1030 1025 1023 1030 1018 1019 1009 1025 1011 1014 1004 1003 1021 997 999 1009 1008 1004 1003 1015 999 1008 984 1005 994 993 1009 1000 1000 1003 997 995 985 1021 993 1024 1010 1007 1014 1013 991 1011 1005 1011 993 987 1008 1026 1045 1009 1030 1026 1021 999 1022 1031 1014 1010 1051 1031 1031 1028 1037 999 1016 1053 1017 1000 1020 1011 1007 1012 1020 1037 1040 1015 1058 1031 1057 1045 1012 1051 998 1026 1036 1048 1006 1037 1029 1024 1040 1014 1034

Tree=0
num_leaves=10
num_cat=0
split_feature=2 2 2 2 2 2 2 52 2
split_gain=4.34931e+08 6.13807e+07 4.32039e+07 8.83928e+06 8.80695e+06 6.08867e+06 4.35855e+06 1.71762e+06 1.50078e+06
threshold=374.50000000000006 590.50000000000011 234.50000000000003 465.50000000000006 717.50000000000011 169.50000000000003 304.50000000000006 736.50000000000011 532.50000000000011
decision_type=2 2 2 2 2 2 2 2 2
left_child=2 3 5 -2 -3 -1 -4 -6 -5
right_child=1 4 6 8 7 -7 -8 -9 -10
leaf_value=323.58088765600098 345.84472720774147 362.43609359541205 333.83576326003163 351.5614669180278 370.36651234114561 328.40278338777767 339.68297423000388 378.0857912483325 355.82830385390986
leaf_weight=3958 1725 1240 1601 1164 530 2507 1401 248 826
leaf_count=3958 1725 1240 1601 1164 530 2507 1401 248 826
internal_value=339.053 355.694 328.975 349.856 366.442 325.451 336.565 372.827 353.333
internal_weight=0 5733 9467 3715 2018 6465 3002 778 1990
internal_count=15200 5733 9467 3715 2018 6465 3002 778 1990
is_linear=0
shrinkage=1


Tree=1
num_leaves=10
num_cat=0
split_feature=5 5 5 52 5 5 5 1 1
split_gain=3.61799e+08 5.03796e+07 3.05693e+07 8.83339e+06 7.90992e+06 3.6235e+06 3.60649e+06 3.07645e+06 2.28228e+06
threshold=356.50000000000006 580.50000000000011 225.50000000000003 606.50000000000011 465.50000000000006 292.50000000000006 169.50000000000003 30.500000000000004 30.500000000000004
decision_type=2 2 2 2 2 2 2 2 2
left_child=2 4 6 -3 8 -4 -1 -6 -2
right_child=1 3 5 -5 7 -7 -8 -9 -10
leaf_value=-13.728699718974905 8.3487722051374842 19.916921063896513 -5.311778436409516 29.942932926528929 16.214359370229424 0.18553457403972473 -9.9008000499841398 9.8894283439560429 3.1283409589818874
leaf_weight=4201 1234 1185 1589 911 952 1260 2197 856 815
leaf_count=4201 1234 1185 1589 911 952 1260 2197 856 815
internal_value=0 14.7208 -9.47691 24.2746 9.52901 -2.88053 -12.4142 13.2198 6.27232
internal_weight=0 5953 9247 2096 3857 2849 6398 1808 2049
internal_count=15200 5953 9247 2096 3857 2849 6398 1808 2049
is_linear=0
shrinkage=0.0765574


Tree=2
num_leaves=10
num_cat=0
split_feature=4 4 4 4 4 4 4 50 4
split_gain=3.13084e+08 4.63123e+07 2.60512e+07 7.373e+06 6.91214e+06 3.51587e+06 2.90652e+06 1.6919e+06 1.63351e+06
threshold=356.50000000000006 583.50000000000011 217.50000000000003 465.50000000000006 728.50000000000011 286.50000000000006 157.50000000000003 532.50000000000011 1.0000000180025095e-35
decision_type=2 2 2 2 2 2 2 2 2
left_child=2 3 6 -2 7 -4 8 -3 -1
right_child=1 4 5 -5 -6 -7 -8 -9 -10
leaf_value=-8.5989265419345333 5.5713289362401346 17.218252201779464 -5.5077920280517283 12.210141820961571 29.181526533256729 -0.33581617259123786 -9.8182857727025077 22.579599693733382 -13.794502955340818
leaf_weight=400 2060 724 1704 1871 684 1406 2562 659 3130
leaf_count=400 2060 724 1704 1871 684 1406 2562 659 3130
internal_value=0 13.6092 -8.87071 8.73114 22.8864 -3.16959 -11.7812 19.7729 -13.2058
internal_weight=0 5998 9202 3931 2067 3110 6092 1383 3530
internal_count=15200 5998 9202 3931 2067 3110 6092 1383 3530
is_linear=0
shrinkage=0.0765574


Tree=3
num_leaves=10
num_cat=0
split_feature=5 5 5 51 5 5 5 1 69
split_gain=2.63727e+08 3.41404e+07 2.56313e+07 6.62998e+06 5.01855e+06 3.10798e+06 2.7627e+06 2.71114e+06 2.13031e+06
threshold=368.50000000000006 583.50000000000011 232.50000000000003 625.50000000000011 465.50000000000006 169.50000000000003 295.50000000000006 30.500000000000004 1.0000000180025095e-35
decision_type=2 2 2 2 2 2 2 2 2
left_child=2 4 5 -3 -2 8 -4 -6 -1
right_child=1 3 6 -5 7 -7 -8 -9 -10
leaf_value=-11.914925365816918 5.708233732056879 17.455782699426052 -4.1558120693260889 26.416402066337511 14.131470564839915 -8.2713804539554605 0.5933374527610068 8.2723789980712059 3.9823871612354331
leaf_weight=4151 1825 1262 1451 785 979 2398 1421 878 50
leaf_count=4151 1825 1262 1451 785 979 2398 1421 878 50
internal_value=0 12.9659 -7.84304 20.8921 8.55931 -10.4705 -1.80604 11.3613 -11.7257
internal_weight=0 5729 9471 2047 3682 6599 2872 1857 4201
internal_count=15200 5729 9471 2047 3682 6599 2872 1857 4201
is_linear=0
shrinkage=0.0765574


Tree=4
num_leaves=10
num_cat=0
split_feature=3 3 3 3 3 3 3 1 1
split_gain=2.32055e+08 3.27256e+07 2.34974e+07 5.66712e+06 3.93787e+06 2.93626e+06 2.84078e+06 1.44485e+06 1.43857e+06
threshold=374.50000000000006 582.50000000000011 225.50000000000003 717.50000000000011 465.50000000000006 298.50000000000006 157.50000000000003 48.500000000000007 48.500000000000007
decision_type=2 2 2 2 2 2 2 2 2
left_child=2 4 6 8 -2 -4 -1 -6 -3
right_child=1 3 5 -5 7 -7 -8 -9 -10
leaf_value=-11.527593672900815 5.1368067395848618 17.326903949700608 -4.1814480957352256 25.045579486941357 10.747242461307916 0.43576405576427824 -8.252191823192776 1.7032758620423454 4.8957419970082299
leaf_weight=3444 1715 1275 1728 770 1761 1515 2825 110 57
leaf_count=3444 1715 1275 1728 770 1761 1515 2825 110 57
internal_value=0 12.2326 -7.31485 19.8173 7.78664 -2.02447 -10.0516 10.2155 16.7949
internal_weight=0 5688 9512 2102 3586 3243 6269 1871 1332
internal_count=15200 5688 9512 2102 3586 3243 6269 1871 1332
is_linear=0
shrinkage=0.0765574


Tree=5
num_leaves=10
num_cat=0
split_feature=3 3 3 3 3 3 3 69 49
split_gain=1.97939e+08 2.7546e+07 2.06691e+07 4.38914e+06 3.75977e+06 2.80102e+06 2.24095e+06 1.14792e+06 961527
threshold=378.50000000000006 605.50000000000011 232.50000000000003 486.50000000000006 733.50000000000011 169.50000000000003 304.50000000000006 1.0000000180025095e-35 697.50000000000011
decision_type=2 2 2 2 2 2 2 2 2
left_child=2 3 5 -2 -3 7 -4 -1 -6
right_child=1 4 6 -5 8 -7 -8 -9 -10
leaf_value=-10.511156927925382 5.264490752605969 16.516991641489561 -3.4899012037353119 10.474289804876276 21.176012806649766 -7.1110186869633614 0.63987512414242032 4.5202506934129785 27.084357832767477
leaf_weight=4012 2043 1167 1645 1768 369 2431 1448 30 287
leaf_count=4012 2043 1167 1645 1768 369 2431 1448 30 287
internal_value=0 11.3838 -6.70462 7.68142 19.1237 -9.16454 -1.55653 -10.3996 23.7609
internal_weight=0 5634 9566 3811 1823 6473 3093 4042 656
internal_count=15200 5634 9566 3811 1823 6473 3093 4042 656
is_linear=0
shrinkage=0.0765574


Tree=6
num_leaves=10
num_cat=0
split_feature=2 2 2 2 2 2 2 2 2
split_gain=1.72489e+08 2.38554e+07 1.92583e+07 3.68522e+06 3.33115e+06 2.5576e+06 2.44783e+06 991595 941421
threshold=387.50000000000006 609.50000000000011 223.50000000000003 486.50000000000006 784.50000000000011 292.50000000000006 146.50000000000003 1.0000000180025095e-35 662.50000000000011
decision_type=2 2 2 2 2 2 2 2 2
left_child=2 3 6 -2 8 -4 7 -1 -3
right_child=1 4 5 -5 -6 -7 -8 -9 -10
leaf_value=-5.2183426422678458 4.9323314425337816 13.939549684717548 -3.8173052584477793 9.7538647081716316 24.45704877645435 0.30847777447025654 -7.3467376553083756 -10.811850364685636 17.948965576684252
leaf_weight=200 1897 573 1679 1821 374 1852 3340 2608 856
leaf_count=200 1897 573 1679 1821 374 1852 3340 2608 856
internal_value=0 10.7982 -6.15942 7.29382 18.0247 -1.65334 -8.74741 -10.4135 16.3413
internal_weight=0 5521 9679 3718 1803 3531 6148 2808 1429
internal_count=15200 5521 9679 3718 1803 3531 6148 2808 1429
is_linear=0
shrinkage=0.0765574


Tree=7
num_leaves=10
num_cat=0
split_feature=5 5 5 51 51 5 33 139 51
split_gain=1.40158e+08 1.98354e+07 1.19177e+07 5.18093e+06 2.89865e+06 1.72821e+06 1.55205e+06 1.47677e+06 1.34823e+06
threshold=356.50000000000006 552.50000000000011 217.50000000000003 575.50000000000011 406.50000000000006 274.50000000000006 169.50000000000003 1.0000000180025095e-35 736.50000000000011
decision_type=2 2 2 2 2 2 2 2 2
left_child=2 4 -1 7 6 -4 -2 -3 -5
right_child=1 3 5 8 -6 -7 -8 -9 -10
leaf_value=-7.846042289499251 6.8344103614172464 11.981911419868254 -3.9518870053063386 16.697044540007646 8.2502488345413774 -0.32372477867114807 2.3506712366614306 2.8773173874868467 22.788380034088284
leaf_weight=6156 647 1242 1445 834 1325 1646 1505 114 286
leaf_count=6156 647 1242 1445 834 1325 1646 1505 114 286
internal_value=0 9.16237 -5.89851 14.3992 5.43319 -2.01984 3.69871 11.2165 18.2525
internal_weight=0 5953 9247 2476 3477 3091 2152 1356 1120
internal_count=15200 5953 9247 2476 3477 3091 2152 1356 1120
is_linear=0
shrinkage=0.0765574


Tree=8
num_leaves=10
num_cat=0
split_feature=8 52 8 8 52 30 52 30 69
split_gain=1.14449e+08 2.06399e+07 7.26285e+06 3.64136e+06 2.47688e+06 1.90558e+06 1.79979e+06 2.61412e+06 1.68438e+06
threshold=330.50000000000006 532.50000000000011 217.50000000000003 488.50000000000006 685.50000000000011 230.50000000000003 379.50000000000006 142.50000000000003 1.0000000180025095e-35
decision_type=2 2 2 2 2 2 2 2 2
left_child=2 3 8 6 -3 -5 7 -2 -1
right_child=1 4 -4 5 -6 -7 -8 -9 -10
leaf_value=-7.1315374985670452 6.8908117152018411 13.145703847986363 -2.1430964147816365 14.341571158530797 19.493870786113945 6.8833255029841949 6.368937793358036 0.38826980011687678 4.0478836965767009
leaf_weight=6262 491 1188 2536 228 517 1682 833 1383 80
leaf_count=6262 491 1188 2536 228 517 1682 833 1383 80
internal_value=0 7.87231 -5.60585 5.21406 15.0706 7.77363 3.40809 2.09198 -6.99052
internal_weight=0 6322 8878 4617 1705 1910 2707 1874 6342
internal_count=15200 6322 8878 4617 1705 1910 2707 1874 6342
is_linear=0
shrinkage=0.0765574


Tree=9
num_leaves=10
num_cat=0
split_feature=2 2 2 2 2 2 2 2 139
split_gain=1.09073e+08 1.56947e+07 1.26146e+07 2.61357e+06 2.09793e+06 1.99234e+06 1.69119e+06 933604 729926
threshold=387.50000000000006 617.50000000000011 213.50000000000003 510.50000000000006 784.50000000000011 286.50000000000006 136.50000000000003 1.0000000180025095e-35 1.0000000180025095e-35
decision_type=2 2 2 2 2 2 2 2 2
left_child=2 3 6 -2 8 -4 7 -1 -3
right_child=1 4 5 -5 -6 -7 -8 -9 -10
leaf_value=-3.7577815063962099 4.2688792368065291 13.546681502918693 -3.3007583487010312 8.3838476768776466 19.759459254976104 0.17724716943255803 -6.0897563760873705 -9.230245882606857 1.6599252728669376
leaf_weight=200 2342 1300 1873 1474 374 1992 3500 2114 31
leaf_count=200 2342 1300 1873 1474 374 1992 3500 2114 31
internal_value=0 8.58679 -4.89799 5.85836 14.6934 -1.50821 -7.15144 -8.75726 13.2698
internal_weight=0 5521 9679 3816 1705 3865 5814 2314 1331
internal_count=15200 5521 9679 3816 1705 3865 5814 2314 1331
is_linear=0
shrinkage=0.0765574


Tree=10
num_leaves=10
num_cat=0
split_feature=6 52 6 6 1 1 52 67 52
split_gain=8.62736e+07 1.3635e+07 7.12307e+06 2.70231e+06 2.07946e+06 2.06736e+06 1.85342e+06 1.11505e+06 1.14502e+06
threshold=350.50000000000006 532.50000000000011 217.50000000000003 546.50000000000011 30.500000000000004 28.500000000000004 685.50000000000011 1.0000000180025095e-35 158.50000000000003
decision_type=2 2 2 2 2 2 2 2 2
left_child=2 3 7 4 -2 -4 -3 8 -1
right_child=1 6 5 -5 -6 -7 -8 -9 -10
leaf_value=-6.8234374197404728 5.4420780954009205 11.247595125754232 0.25214098380458905 7.9515298600639408 1.4831965342455375 -3.8181117338464947 16.738287742873553 4.0705408500585252 -4.35405186767548
leaf_weight=4722 1722 1189 1625 1180 1418 1330 517 62 1435
leaf_count=4722 1722 1189 1625 1180 1418 1330 517 62 1435
internal_value=0 7.11655 -4.67455 4.82806 3.65428 -1.57982 12.9115 -6.14503 -6.2479
internal_weight=0 6026 9174 4320 3140 2955 1706 6219 6157
internal_count=15200 6026 9174 4320 3140 2955 1706 6219 6157
is_linear=0
shrinkage=0.0765574


Tree=11
num_leaves=10
num_cat=0
split_feature=2 2 2 2 2 2 2 2 2
split_gain=8.04445e+07 1.37338e+07 7.21725e+06 2.76241e+06 1.6906e+06 1.31387e+06 1.00745e+06 789835 683545
threshold=359.50000000000006 569.50000000000011 197.50000000000003 712.50000000000011 454.50000000000006 274.50000000000006 134.50000000000003 1.0000000180025095e-35 846.50000000000011
decision_type=2 2 2 2 2 2 2 2 2
left_child=2 4 6 -3 -2 -4 7 -1 -5
right_child=1 3 5 8 -6 -7 -8 -9 -10
leaf_value=-3.0311120357923058 2.3055953143049175 9.5390192437540193 -3.2849065458330116 14.032435571457983 5.5723840048667386 -0.47329155760484676 -5.4691987028981943 -8.074269784570177 19.779715384097269
leaf_weight=200 1805 1493 2218 672 1912 1737 2991 2024 148
leaf_count=200 1805 1493 2218 672 1912 1737 2991 2024 148
internal_value=0 6.86815 -4.51635 11.4998 3.98601 -2.05007 -6.38675 -7.62075 15.0697
internal_weight=0 6030 9170 2313 3717 3955 5215 2224 820
internal_count=15200 6030 9170 2313 3717 3955 5215 2224 820
is_linear=0
shrinkage=0.0765574


Tree=12
num_leaves=10
num_cat=0
split_feature=4 4 4 1 1 4 1 4 69
split_gain=6.61063e+07 9.6047e+06 6.8795e+06 2.4764e+06 1.98621e+06 1.69079e+06 1.33601e+06 1.24696e+06 892778
threshold=374.50000000000006 613.50000000000011 232.50000000000003 48.500000000000007 30.500000000000004 483.50000000000006 30.500000000000004 148.50000000000003 1.0000000180025095e-35
decision_type=2 2 2 2 2 2 2 2 2
left_child=2 3 7 5 -3 -2 -4 8 -1
right_child=1 4 6 -5 -6 -7 -8 -9 -10
leaf_value=-6.5401571171516437 3.4006447442662653 14.261692557934495 0.42168524246384614 -2.8847760797280309 9.0129645676994379 6.6825465712767711 -2.8833164482621343 -4.2734289884001271 4.9719501260409062
leaf_weight=3054 1901 765 1851 250 944 1783 1170 3442 40
leaf_count=3054 1901 765 1851 250 944 1783 1170 3442 40
internal_value=0 6.57041 -3.87955 4.48867 11.3625 4.98904 -0.858305 -5.276 -6.39133
internal_weight=0 5643 9557 3934 1709 3684 3021 6536 3094
internal_count=15200 5643 9557 3934 1709 3684 3021 6536 3094
is_linear=0
shrinkage=0.0765574


Tree=13
num_leaves=10
num_cat=0
split_feature=2 2 2 2 2 2 2 2 2
split_gain=5.90003e+07 1.06821e+07 4.85438e+06 1.91947e+06 1.59273e+06 794603 785728 729276 460404
threshold=350.50000000000006 582.50000000000011 197.50000000000003 733.50000000000011 454.50000000000006 126.50000000000001 274.50000000000006 1.0000000180025095e-35 846.50000000000011
decision_type=2 2 2 2 2 2 2 2 2
left_child=2 4 5 -3 -2 7 -4 -1 -5
right_child=1 3 6 8 -6 -7 -8 -9 -10
leaf_value=-2.3864938397342739 1.8931198256066206 8.5918708600578224 -2.7987622699966219 12.476415071574912 4.9188727399648409 -4.7764304351065778 -0.55637149768484795 -7.2819210885034753 17.320205757875904
leaf_weight=200 1982 1461 2218 516 2100 3367 1560 1648 148
leaf_count=200 1982 1461 2218 516 2100 3367 1560 1648 148
internal_value=0 5.74122 -3.96261 10.143 3.44973 -5.47654 -1.87284 -6.75211 13.5561
internal_weight=0 6207 8993 2125 4082 5215 3778 1848 664
internal_count=15200 6207 8993 2125 4082 5215 3778 1848 664
is_linear=0
shrinkage=0.0765574


Tree=14
num_leaves=10
num_cat=0
split_feature=4 4 4 139 4 4 52 139 139
split_gain=4.81099e+07 6.70208e+06 5.70732e+06 2.1593e+06 1.53852e+06 1.25774e+06 868189 671269 650118
threshold=387.50000000000006 649.50000000000011 254.50000000000003 1.0000000180025095e-35 510.50000000000006 170.50000000000003 736.50000000000011 1.0000000180025095e-35 1.0000000180025095e-35
decision_type=2 2 2 2 2 2 2 2 2
left_child=2 3 5 4 -2 -1 7 -3 -4
right_child=1 6 8 -5 -6 -7 -8 -9 -10
leaf_value=-5.198352358154926 3.343562390748354 9.9295096615611005 0.050131855926245805 -2.7668839309089179 6.4225689648053743 -3.126735259263751 14.394212537481945 0.37309956584568937 -6.0135687200526693
leaf_weight=4182 2179 1010 2562 242 1688 2915 269 45 108
leaf_count=4182 2179 1010 2562 242 1688 2915 269 45 108
internal_value=0 5.77489 -3.21234 4.24856 4.68759 -4.34746 10.5118 9.52189 -0.195141
internal_weight=0 5433 9767 4109 3867 7097 1324 1055 2670
internal_count=15200 5433 9767 4109 3867 7097 1324 1055 2670
is_linear=0
shrinkage=0.0765574


Tree=15
num_leaves=10
num_cat=0
split_feature=6 53 6 1 6 1 6 1 1
split_gain=3.89634e+07 7.00116e+06 2.4489e+06 1.69755e+06 1.34446e+06 1.21395e+06 1.05532e+06 816797 800252
threshold=330.50000000000006 520.50000000000011 195.50000000000003 48.500000000000007 444.50000000000006 29.500000000000004 686.50000000000011 31.500000000000004 4.5000000000000009
decision_type=2 2 2 2 2 2 2 2 2
left_child=2 3 -1 4 -2 -4 -3 -8 -6
right_child=1 6 5 -5 8 -7 7 -9 -10
leaf_value=-4.3194090253453314 1.878180275104165 6.9472125439972841 -0.37073746574593808 -2.2776484476124539 -0.53289228392061994 -3.2901422502749487 13.429968135368119 8.4732707238245428 4.998251794014223
leaf_weight=5417 1941 1017 1846 337 165 1524 351 438 2164
leaf_count=5417 1941 1017 1846 337 165 1524 351 438 2164
internal_value=0 4.53716 -3.31135 2.95339 3.36624 -1.69097 8.57726 10.6783 4.60639
internal_weight=0 6413 8787 4607 4270 3370 1806 789 2329
internal_count=15200 6413 8787 4607 4270 3370 1806 789 2329
is_linear=0
shrinkage=0.0765574


Tree=16
num_leaves=10
num_cat=0
split_feature=2 2 2 2 2 2 139 2 69
split_gain=3.7471e+07 5.23027e+06 5.21921e+06 1.14257e+06 1.04303e+06 614533 578002 526790 499592
threshold=406.50000000000006 654.50000000000011 242.50000000000003 157.50000000000003 513.50000000000011 833.50000000000011 1.0000000180025095e-35 324.50000000000006 1.0000000180025095e-35
decision_type=2 2 2 2 2 2 2 2 2
left_child=2 4 3 8 -2 -3 -6 -4 -1
right_child=1 5 7 -5 6 -7 -8 -9 -10
leaf_value=-5.0328668919920529 2.6884719551055438 8.819953255479648 -1.1556101750741505 -2.9584640498589003 5.4718715960296596 13.659029632153894 -1.9351614502513879 0.76872910122428895 7.1032148413571177
leaf_weight=3335 2037 1132 1795 3328 1754 178 64 1557 20
leaf_count=3335 2037 1132 1795 3328 1754 178 64 1557 20
internal_value=0 5.2983 -2.72703 -3.96354 3.87814 9.47748 5.21112 -0.261757 -4.96052
internal_weight=0 5165 10035 6683 3855 1310 1818 3352 3355
internal_count=15200 5165 10035 6683 3855 1310 1818 3352 3355
is_linear=0
shrinkage=0.0765574


Tree=17
num_leaves=10
num_cat=0
split_feature=2 2 2 1 2 1 1 4 9
split_gain=3.19532e+07 4.46409e+06 4.46009e+06 1.28274e+06 1.04592e+06 773451 714072 670744 587136
threshold=406.50000000000006 250.50000000000003 654.50000000000011 30.500000000000004 148.50000000000003 24.500000000000004 30.500000000000004 517.50000000000011 580.50000000000011
decision_type=2 2 2 2 2 2 2 2 2
left_child=1 4 3 7 -1 -3 -4 -2 -5
right_child=2 5 6 8 -6 -7 -8 -9 -10
leaf_value=-4.715702565285067 3.8509858152710921 1.0273284167713248 10.464466980656844 0.90764029732041007 -2.8038139372100921 -1.364547034633375 6.8863877047159798 6.7130042430562957 3.7828273066155176
leaf_weight=2915 1376 1620 683 1054 3949 1551 627 737 688
leaf_count=2915 1376 1620 683 1054 3949 1551 627 737 688
internal_value=0 -2.51825 4.89268 3.58124 -3.61575 -0.142586 8.75191 4.84924 2.04319
internal_weight=0 10035 5165 3855 6864 3171 1310 2113 1742
internal_count=15200 10035 5165 3855 6864 3171 1310 2113 1742
is_linear=0
shrinkage=0.0765574


Tree=18
num_leaves=10
num_cat=0
split_feature=5 52 5 31 5 67 5 69 54
split_gain=2.50484e+07 3.67695e+06 3.03106e+06 930182 860213 628137 741017 727022 603901
threshold=387.50000000000006 491.50000000000006 254.50000000000003 169.50000000000003 718.50000000000011 1.0000000180025095e-35 147.50000000000003 1.0000000180025095e-35 1.0000000180025095e-35
decision_type=2 2 2 2 2 2 2 2 2
left_child=2 3 5 -2 -3 6 7 8 -1
right_child=1 4 -4 -5 -6 -7 -8 -9 -10
leaf_value=4.1049520163622253 5.0784576236275196 5.6398701071252404 -0.093939948115856722 1.9199720489478211 8.9704838600064551 4.3684545236953891 -2.5078201064757302 5.0688638629419982 -4.379218275600226
leaf_weight=50 693 1450 2654 2585 662 65 4020 50 2971
leaf_count=50 693 1450 2654 2585 662 65 4020 50 2971
internal_value=0 4.19272 -2.30365 2.58771 6.68384 -3.12318 -3.19185 -4.08726 -4.2388
internal_weight=0 5390 9810 3278 2112 7156 7091 3071 3021
internal_count=15200 5390 9810 3278 2112 7156 7091 3071 3021
is_linear=0
shrinkage=0.0765574


Tree=19
num_leaves=10
num_cat=0
split_feature=5 5 49 139 5 139 47 5 29
split_gain=2.14299e+07 3.27431e+06 2.69299e+06 1.04169e+06 666920 635064 608648 595980 556894
threshold=415.50000000000006 254.50000000000003 532.50000000000011 1.0000000180025095e-35 617.50000000000011 1.0000000180025095e-35 172.50000000000003 825.50000000000011 1.0000000180025095e-35
decision_type=2 2 2 2 2 2 2 2 2
left_child=1 6 3 4 -2 -3 8 -4 -1
right_child=2 5 7 -5 -6 -7 -8 -9 -10
leaf_value=-2.1515320843856034 2.7354593654838522 0.30893015850210631 6.1559322370257847 -1.8778346637365624 5.669591070861121 -4.9475555346886182 -1.6211471380233595 10.661567989865109 -3.8098833853147349
leaf_weight=1746 2418 3020 1463 248 559 141 1704 195 3706
leaf_count=1746 2418 3020 1463 248 559 141 1704 195 3706
internal_value=0 -1.97762 4.17839 2.88928 3.28641 0.0744586 -2.88407 6.68585 -3.2788
internal_weight=0 10317 4883 3225 2977 3161 7156 1658 5452
internal_count=15200 10317 4883 3225 2977 3161 7156 1658 5452
is_linear=0
shrinkage=0.0765574


Tree=20
num_leaves=10
num_cat=0
split_feature=2 2 2 1 1 1 14 2 4
split_gain=2.04852e+07 3.95177e+06 1.82712e+06 1.1231e+06 768171 679577 575858 523142 507527
threshold=350.50000000000006 617.50000000000011 185.50000000000003 30.500000000000004 30.500000000000004 30.500000000000004 549.50000000000011 486.50000000000006 756.50000000000011
decision_type=2 2 2 2 2 2 2 2 2
left_child=2 3 -1 7 8 -4 -5 -2 -3
right_child=1 4 5 6 -6 -7 -8 -9 -10
leaf_value=-3.3797145361549443 2.3413645202167985 7.0443552305007531 -0.40387114578950883 -0.30114504696722599 4.8337236769690159 -2.3654841236271857 2.3652591681490427 4.5723519687526961 11.312592520066268
leaf_weight=4692 1509 669 2566 1137 820 1735 815 1041 216
leaf_count=4692 1509 669 2566 1137 820 1735 815 1041 216
internal_value=0 3.38297 -2.33493 2.19419 6.5219 -1.19518 0.812133 3.25213 8.08609
internal_weight=0 6207 8993 4502 1705 4301 1952 2550 885
internal_count=15200 6207 8993 4502 1705 4301 1952 2550 885
is_linear=0
shrinkage=0.0765574


Tree=21
num_leaves=10
num_cat=0
split_feature=2 2 2 2 139 18 52 2 139
split_gain=1.74972e+07 3.74945e+06 1.30344e+06 877903 619028 416894 369879 363921 330752
threshold=330.50000000000006 554.50000000000011 172.50000000000003 684.50000000000011 1.0000000180025095e-35 81.500000000000014 817.50000000000011 441.50000000000006 1.0000000180025095e-35
decision_type=2 2 2 2 2 2 2 2 2
left_child=2 4 -1 8 7 -4 -5 -2 -3
right_child=1 3 5 6 -6 -7 -8 -9 -10
leaf_value=-3.2620788657163633 1.0370421294489383 4.3078008710799365 0.70440611356278993 6.5952922818442081 -2.4081138138625393 -1.6366842184702939 12.079824904412868 2.5226816803401864 -2.2183077672918219
leaf_weight=4109 1992 1442 502 948 221 3984 78 1877 47
leaf_count=4109 1992 1442 502 948 221 3984 78 1877 47
internal_value=0 2.96303 -2.277 5.28913 1.53268 -1.37471 7.01225 1.75778 4.10181
internal_weight=0 6605 8595 2515 4090 4486 1026 3869 1489
internal_count=15200 6605 8595 2515 4090 4486 1026 3869 1489
is_linear=0
shrinkage=0.0765574


Tree=22
num_leaves=10
num_cat=0
split_feature=4 4 4 1 1 1 4 4 128
split_gain=1.41132e+07 2.17268e+06 1.85017e+06 1.14067e+06 791761 678655 540372 548763 499376
threshold=418.50000000000006 265.50000000000006 657.50000000000011 30.500000000000004 30.500000000000004 28.500000000000004 136.50000000000003 1.0000000180025095e-35 1.0000000180025095e-35
decision_type=2 2 2 2 2 2 2 2 2
left_child=1 6 3 8 -4 -3 7 -1 -2
right_child=2 5 4 -5 -6 -7 -8 -9 -10
leaf_value=-0.62099181933877112 4.1305699452965685 1.1078189396310643 8.1392885719452277 1.0821871155932183 4.244517867986894 -1.2491867995886969 -1.8349798804060458 -3.7150365710811206 -0.8739727696188605
leaf_weight=400 1795 1760 544 1701 699 1207 4870 2099 125
leaf_count=400 1795 1760 544 1701 699 1207 4870 2099 125
internal_value=0 -1.60029 3.40062 2.5258 5.94907 0.14897 -2.3046 -3.21979 3.80475
internal_weight=0 10336 4864 3621 1243 2967 7369 2499 1920
internal_count=15200 10336 4864 3621 1243 2967 7369 2499 1920
is_linear=0
shrinkage=0.0765574


Tree=23
num_leaves=10
num_cat=0
split_feature=2 2 2 1 1 138 2 2 1
split_gain=1.28608e+07 2.0339e+06 1.79537e+06 729183 681663 449995 436610 552794 383042
threshold=418.50000000000006 203.50000000000003 662.50000000000011 24.500000000000004 30.500000000000004 1.0000000180025095e-35 117.50000000000001 1.0000000180025095e-35 30.500000000000004
decision_type=2 2 2 2 2 2 2 2 2
left_child=1 6 4 -3 -2 -6 7 -1 -4
right_child=2 3 8 -5 5 -7 -8 -9 -10
leaf_value=0.030022912193473878 3.3137442798699013 0.58162668001060291 7.017865425077126 -1.3091125251468803 0.61091213617586282 3.7482633947655764 -2.1477739985022763 -4.3090358182322737 4.3114629182069342
leaf_weight=200 2027 2316 650 2471 1355 334 4034 1233 580
leaf_count=200 2027 2316 650 2471 1355 334 4034 1233 580
internal_value=0 -1.54661 3.20641 -0.394353 2.36724 1.23132 -2.55554 -3.70344 5.74168
internal_weight=0 10254 4946 4787 3716 1689 5467 1433 1230
internal_count=15200 10254 4946 4787 3716 1689 5467 1433 1230
is_linear=0
shrinkage=0.0765574


Tree=24
num_leaves=10
num_cat=0
split_feature=6 52 47 32 52 69 52 54 17
split_gain=9.3798e+06 2.31184e+06 584829 521075 488834 454689 385509 381450 376904
threshold=313.50000000000006 480.50000000000006 223.50000000000003 140.50000000000003 795.50000000000011 1.0000000180025095e-35 370.50000000000006 1.0000000180025095e-35 593.50000000000011
decision_type=2 2 2 2 2 2 2 2 2
left_child=2 3 5 -2 -3 7 8 -1 -5
right_child=1 4 -4 6 -6 -7 -8 -9 -10
leaf_value=1.9560451617355974 2.6571673363839619 3.8285792051199246 -0.10473970118581566 -0.41126999208586212 8.7885127704942843 3.7174917257711839 1.6614467050009574 -2.0936554673557048 2.5687707513737679
leaf_weight=139 986 2191 1166 1786 123 82 1362 7076 289
leaf_count=139 986 2191 1166 1786 123 82 1362 7076 289
internal_value=0 2.13153 -1.69681 1.10574 4.09222 -1.95121 0.660674 -2.01564 0.00378147
internal_weight=0 6737 8463 4423 2314 7297 3437 7215 2075
internal_count=15200 6737 8463 4423 2314 7297 3437 7215 2075
is_linear=0
shrinkage=0.0765574


Tree=25
num_leaves=10
num_cat=0
split_feature=4 4 4 4 4 51 30 15 51
split_gain=8.96537e+06 1.52287e+06 1.20149e+06 388586 433610 359621 343955 307856 312602
threshold=430.50000000000006 265.50000000000006 685.50000000000011 128.50000000000003 1.0000000180025095e-35 483.50000000000006 169.50000000000003 144.50000000000003 305.50000000000006
decision_type=2 2 2 2 2 2 2 2 2
left_child=1 3 5 4 -1 6 -2 -3 -9
right_child=2 7 -4 -5 -6 -7 -8 8 -10
leaf_value=-0.43066176787943428 3.3973629211034457 2.3270230209206 5.1690676509593665 -1.4794457937617003 -3.2257325430707091 3.184161153386567 1.1142163468430892 -0.77950059225537438 0.84027452433589289
leaf_weight=400 490 344 995 5227 1742 1303 1835 1657 1207
leaf_count=400 490 344 995 5227 1742 1303 1835 1657 1207
internal_value=0 -1.22922 2.81235 -1.83533 -2.70378 2.166 1.5954 0.163053 -0.0968649
internal_weight=0 10577 4623 7369 2142 3628 2325 3208 2864
internal_count=15200 10577 4623 7369 2142 3628 2325 3208 2864
is_linear=0
shrinkage=0.0765574


Tree=26
num_leaves=10
num_cat=0
split_feature=5 5 5 131 139 139 139 67 5
split_gain=7.24064e+06 1.33137e+06 946608 641962 493789 423768 421653 398620 406779
threshold=438.50000000000006 268.50000000000006 685.50000000000011 1.0000000180025095e-35 1.0000000180025095e-35 1.0000000180025095e-35 1.0000000180025095e-35 1.0000000180025095e-35 132.50000000000003
decision_type=2 2 2 2 2 2 2 2 2
left_child=1 6 3 5 -3 -2 7 8 -1
right_child=2 4 -4 -5 -6 -7 -8 -9 -10
leaf_value=-2.411488310724704 1.8958507408780017 0.42162291319724959 4.6982605125122694 5.2239581088062366 -3.9779386814115583 -1.8356330872597169 -4.3318968856211741 4.0025195046122972 -1.170786806199106
leaf_weight=2288 2916 3138 987 329 157 190 325 76 4794
leaf_count=2288 2916 3138 987 329 157 190 325 76 4794
internal_value=0 -1.07027 2.60864 2.00821 0.211993 1.66759 -1.63489 -1.51244 -1.57162
internal_weight=0 10778 4422 3435 3295 3106 7483 7158 7082
internal_count=15200 10778 4422 3435 3295 3106 7483 7158 7082
is_linear=0
shrinkage=0.0765574


Tree=27
num_leaves=10
num_cat=0
split_feature=5 5 48 1 1 1 1 5 67
split_gain=6.17869e+06 1.01048e+06 891768 535838 498756 408641 363712 362302 486351
threshold=424.50000000000006 271.50000000000006 542.50000000000011 30.500000000000004 48.500000000000007 4.5000000000000009 30.500000000000004 136.50000000000003 1.0000000180025095e-35
decision_type=2 2 2 2 2 2 2 2 2
left_child=1 6 4 -3 5 -2 7 8 -1
right_child=2 3 -4 -5 -6 -7 -8 -9 -10
leaf_value=-2.0620390300391001 -2.3433845049542392 0.9619610167152115 3.8071183011254202 -1.1729217201540949 -1.680280831131673 2.0485910580994244 -2.2101507567883556 -0.53307411091949708 5.5823326652815881
leaf_weight=1999 130 1853 1553 1097 255 2766 2724 2773 50
leaf_count=1999 130 1853 1553 1097 255 2766 2724 2773 50
internal_value=0 -1.03332 2.30564 0.168074 1.56563 1.85144 -1.50299 -1.10351 -1.8755
internal_weight=0 10496 4704 2950 3151 2896 7546 4822 2049
internal_count=15200 10496 4704 2950 3151 2896 7546 4822 2049
is_linear=0
shrinkage=0.0765574


Tree=28
num_leaves=10
num_cat=0
split_feature=2 2 2 3 2 139 139 139 15
split_gain=6.21069e+06 1.52883e+06 560331 454161 353217 347889 347810 337516 259468
threshold=324.50000000000006 554.50000000000011 122.50000000000001 834.50000000000011 1.0000000180025095e-35 1.0000000180025095e-35 1.0000000180025095e-35 1.0000000180025095e-35 175.50000000000003
decision_type=2 2 2 2 2 2 2 2 2
left_child=2 6 4 7 -1 -4 8 -3 -2
right_child=1 3 5 -5 -6 -7 -8 -9 -10
leaf_value=0.38034193345027772 3.0844432157582111 3.0943285545623631 -0.95016753729068015 6.9816261201157177 -3.049697445127137 -3.5592470132594007 -2.0695010409120944 -2.8699057629037106 0.82716131792469705
leaf_weight=200 325 2282 6500 176 1464 314 227 57 3655
leaf_count=200 325 2282 6500 176 1464 314 227 57 3655
internal_value=0 1.73793 -1.37796 3.23119 -2.63743 -1.0704 0.845244 2.94898 1.01149
internal_weight=0 6722 8478 2515 1664 6814 4207 2339 3980
internal_count=15200 6722 8478 2515 1664 6814 4207 2339 3980
is_linear=0
shrinkage=0.0765574


Tree=29
num_leaves=10
num_cat=0
split_feature=5 5 1 1 16 1 20 69 5
split_gain=4.55296e+06 845386 795801 701307 601575 581747 476779 354758 252906
threshold=438.50000000000006 195.50000000000003 30.500000000000004 30.500000000000004 682.50000000000011 5.5000000000000009 415.50000000000006 1.0000000180025095e-35 847.50000000000011
decision_type=2 2 2 2 2 2 2 2 2
left_child=1 7 5 -3 -4 -2 -7 -1 -8
right_child=2 3 4 -5 -6 6 8 -9 -10
leaf_value=-1.5924750087862574 -1.3235844110035533 0.54388085207715531 0.16262614834544639 -1.2276185046576624 2.794752178339305 2.2671457623979832 4.369104316765811 4.8865272958458581 10.177936072022543
leaf_weight=5298 160 3224 1486 2206 774 980 976 50 46
leaf_count=5298 160 3224 1486 2206 774 980 976 50 46
internal_value=0 -0.848697 2.06858 -0.175811 1.06407 3.11862 3.47364 -1.5319 4.63056
internal_weight=0 10778 4422 5430 2260 2162 2002 5348 1022
internal_count=15200 10778 4422 5430 2260 2162 2002 5348 1022
is_linear=0
shrinkage=0.0765574


Tree=30
num_leaves=10
num_cat=0
split_feature=3 3 139 3 67 139 36 19 76
split_gain=4.45627e+06 1.11307e+06 491527 406082 410164 302094 277567 353864 303115
threshold=324.50000000000006 658.50000000000011 1.0000000180025095e-35 130.50000000000003 1.0000000180025095e-35 1.0000000180025095e-35 393.50000000000006 169.50000000000003 1.0000000180025095e-35
decision_type=2 2 2 2 2 2 2 2 2
left_child=3 2 6 4 -1 -5 7 -2 -8
right_child=1 -3 -4 5 -6 -7 8 -9 -10
leaf_value=-2.1994756550297465 2.622078540684301 3.5405676108332353 -2.064849135871432 -0.73829988655633594 6.81572110465485 -3.2508198826724355 1.9483473943717953 0.29532259580260101 -3.5211810998632029
leaf_weight=2107 457 1251 289 6098 30 294 2244 2369 61
leaf_count=2107 457 1251 289 6098 30 294 2244 2369 61
internal_value=0 1.48219 1.0071 -1.15931 -2.07292 -0.853863 1.18012 0.671589 1.8036
internal_weight=0 6671 5420 8529 2137 6392 5131 2826 2305
internal_count=15200 6671 5420 8529 2137 6392 5131 2826 2305
is_linear=0
shrinkage=0.0765574


Tree=31
num_leaves=10
num_cat=0
split_feature=5 5 5 43 18 135 88 53 76
split_gain=3.37437e+06 615438 517897 279422 350600 261937 235266 225885 223612
threshold=438.50000000000006 195.50000000000003 735.50000000000011 395.50000000000006 97.500000000000014 1.0000000180025095e-35 1.0000000180025095e-35 801.50000000000011 1.0000000180025095e-35
decision_type=2 2 2 2 2 2 2 2 2
left_child=1 -1 5 4 -3 6 8 -4 -2
right_child=2 3 7 -5 -6 -7 -8 -9 -10
leaf_value=-1.3135659000879065 1.6477793117193866 1.3667672212808604 3.1896958797931876 1.0905641086415911 -0.65433118238687837 -0.53114523003984671 6.4822516964963688 7.1882748648168118 -3.1070850889432298
leaf_weight=5348 3316 576 534 882 3972 357 58 98 59
leaf_count=5348 3316 576 534 882 3972 357 58 98 59
internal_value=0 -0.730638 1.78083 -0.156513 -0.398361 1.4425 1.64774 3.80973 1.56466
internal_weight=0 10778 4422 5430 4548 3790 3433 632 3375
internal_count=15200 10778 4422 5430 4548 3790 3433 632 3375
is_linear=0
shrinkage=0.0765574


Tree=32
num_leaves=10
num_cat=0
split_feature=6 50 1 128 1 29 1 9 52
split_gain=2.70724e+06 797538 474355 497859 378545 511070 344119 275894 253501
threshold=292.50000000000006 491.50000000000006 48.500000000000007 1.0000000180025095e-35 30.500000000000004 375.50000000000006 30.500000000000004 535.50000000000011 817.50000000000011
decision_type=2 2 2 2 2 2 2 2 2
left_child=6 2 3 4 7 -6 -1 -2 -3
right_child=1 8 -4 -5 5 -7 -8 -9 -10
leaf_value=-0.59043399279754627 1.437435689758771 2.1488040227613179 -2.0088609207471846 -2.082787394554261 -0.85853640594239711 1.4999802905368429 -1.6353435386445698 4.4456129037121501 6.5404119063703803
leaf_weight=5161 1923 2081 391 333 1119 1038 2877 197 80
leaf_count=5161 1923 2081 391 333 1119 1038 2877 197 80
internal_value=0 1.0824 0.551334 0.768478 0.990473 0.276438 -0.964433 1.71697 2.31138
internal_weight=0 7162 5001 4610 4277 2157 8038 2120 2161
internal_count=15200 7162 5001 4610 4277 2157 8038 2120 2161
is_linear=0
shrinkage=0.0765574


Tree=33
num_leaves=10
num_cat=0
split_feature=3 3 3 15 4 123 128 37 3
split_gain=2.84548e+06 616003 479156 283254 195497 177448 166630 306961 165087
threshold=438.50000000000006 191.50000000000003 662.50000000000011 95.500000000000014 825.50000000000011 1.0000000180025095e-35 1.0000000180025095e-35 321.50000000000006 1.0000000180025095e-35
decision_type=2 2 2 2 2 2 2 2 2
left_child=1 8 -2 -3 -4 6 7 -5 -1
right_child=2 3 4 5 -6 -7 -8 -9 -10
leaf_value=0.44397057553476166 1.1354263970961465 1.5160562293626305 2.4763289489895546 -0.49404097115057027 5.0645582467368238 -4.0580790228359174 -1.8631850313178331 0.93140540438049824 -1.4081745722918162
leaf_weight=300 3283 551 1008 3529 206 73 352 1182 4716
leaf_count=300 3283 551 1008 3529 206 73 352 1182 4716
internal_value=0 -0.678973 1.61598 -0.133512 2.91552 -0.310481 -0.256447 -0.136393 -1.2974
internal_weight=0 10703 4497 5687 1214 5136 5063 4711 5016
internal_count=15200 10703 4497 5687 1214 5136 5063 4711 5016
is_linear=0
shrinkage=0.0765574


Tree=34
num_leaves=10
num_cat=0
split_feature=3 3 3 65 3 84 3 16 16
split_gain=2.44377e+06 680520 322428 296308 243096 213819 162850 141030 139508
threshold=324.50000000000006 546.50000000000011 122.50000000000001 1.0000000180025095e-35 834.50000000000011 1.0000000180025095e-35 1.0000000180025095e-35 1.0000000180025095e-35 177.50000000000003
decision_type=2 2 2 2 2 2 2 2 2
left_child=2 5 3 6 -3 8 -1 -4 -2
right_child=1 4 7 -5 -6 -7 -8 -9 -10
leaf_value=-0.18469880236227937 2.0000056657205256 1.8616534442106434 0.48700290601934965 5.7621029243597768 4.8076466999070577 4.0461710599196481 -2.2312536666071265 -0.72888334940563004 0.26123930596671563
leaf_weight=270 292 2442 615 30 176 96 1461 6153 3665
leaf_count=270 292 2442 615 30 176 96 1461 6153 3665
internal_value=0 1.09761 -0.858504 -1.7813 2.0597 0.47616 -1.91203 -0.618397 0.389549
internal_weight=0 6671 8529 1761 2618 4053 1731 6768 3957
internal_count=15200 6671 8529 1761 2618 4053 1731 6768 3957
is_linear=0
shrinkage=0.0765574


Tree=35
num_leaves=10
num_cat=0
split_feature=2 1 4 17 2 70 1 67 65
split_gain=2.22221e+06 634412 647833 472685 351938 295619 295234 288508 217917
threshold=321.50000000000006 30.500000000000004 552.50000000000011 542.50000000000011 116.50000000000001 1.0000000180025095e-35 30.500000000000004 1.0000000180025095e-35 1.0000000180025095e-35
decision_type=2 2 2 2 2 2 2 2 2
left_child=4 2 -2 -3 5 7 -6 8 -1
right_child=1 3 -4 -5 6 -7 -8 -9 -10
leaf_value=-2.3304641981757444 1.0310805919010511 -0.87715217011184521 3.2110361745976497 1.060625441164291 -0.19453829460224201 7.2986387604972753 -1.2023916976651248 7.0512544442282339 5.7205656118717823
leaf_weight=1333 2644 1330 1145 1657 4133 20 2898 20 20
leaf_count=1333 2644 1330 1145 1657 4133 20 2898 20 20
internal_value=0 1.03212 1.68984 0.197805 -0.830206 -1.94192 -0.60995 -2.07653 -2.21145
internal_weight=0 6776 3789 2987 8424 1393 7031 1373 1353
internal_count=15200 6776 3789 2987 8424 1393 7031 1373 1353
is_linear=0
shrinkage=0.0765574


Tree=36
num_leaves=10
num_cat=0
split_feature=2 1 2 18 2 69 70 67 1
split_gain=1.89498e+06 540992 470206 398105 300114 293311 260128 254196 251760
threshold=321.50000000000006 30.500000000000004 586.50000000000011 606.50000000000011 116.50000000000001 1.0000000180025095e-35 1.0000000180025095e-35 1.0000000180025095e-35 30.500000000000004
decision_type=2 2 2 2 2 2 2 2 2
left_child=4 2 -2 -3 5 6 7 -1 -6
right_child=1 3 -4 -5 8 -7 -8 -9 -10
leaf_value=-2.1839860188652289 1.0216355470856653 -0.52357694869589377 2.9103066715148649 1.2887381908062963 -0.17964494463703953 7.4111605851652831 6.7398735737398425 6.5114285193835864 -1.1103396801668508
leaf_weight=1333 2708 1823 1081 1164 4133 20 20 20 2898
leaf_count=1333 2708 1823 1081 1164 4133 20 20 20 2898
internal_value=0 0.953105 1.56047 0.182662 -0.766648 -1.79325 -1.92733 -2.05545 -0.563254
internal_weight=0 6776 3789 2987 8424 1393 1373 1353 7031
internal_count=15200 6776 3789 2987 8424 1393 1373 1353 7031
is_linear=0
shrinkage=0.0765574


Tree=37
num_leaves=10
num_cat=0
split_feature=5 1 1 32 17 1 1 29 1
split_gain=1.38734e+06 458671 412162 393514 243088 233685 226209 213341 194373
threshold=500.50000000000006 48.500000000000007 30.500000000000004 291.50000000000006 682.50000000000011 8.5000000000000018 6.5000000000000009 1.0000000180025095e-35 1.5000000000000002
decision_type=2 2 2 2 2 2 2 2 2
left_child=1 3 6 7 -4 8 -2 -1 -5
right_child=2 -3 4 5 -6 -7 -8 -9 -10
leaf_value=0.05468926698251611 -1.5275609372115644 -2.3821869325336014 -0.18917460862926425 2.4493395730636358 1.6286435968505948 1.0211475990095018 2.5613562160237877 -0.77089744811073757 -1.0138142357873885
leaf_weight=2639 84 636 988 110 765 1847 1417 6018 696
leaf_count=2639 84 636 988 110 765 1847 1417 6018 696
internal_value=0 -0.381729 1.40139 -0.269236 0.604112 0.546503 2.33253 -0.519226 -0.541175
internal_weight=0 11946 3254 11310 1753 2653 1501 8657 806
internal_count=15200 11946 3254 11310 1753 2653 1501 8657 806
is_linear=0
shrinkage=0.0765574


Tree=38
num_leaves=10
num_cat=0
split_feature=42 1 7 1 1 13 1 32 18
split_gain=1.06826e+06 413152 326555 250741 228511 253022 186387 247055 184291
threshold=389.50000000000006 48.500000000000007 286.50000000000006 8.5000000000000018 31.500000000000004 687.50000000000011 43.500000000000007 115.50000000000001 644.50000000000011
decision_type=2 2 2 2 2 2 2 2 2
left_child=1 2 -1 -2 5 -5 7 -4 -6
right_child=3 -3 6 4 8 -7 -8 -9 -10
leaf_value=-0.54083197927337157 -0.32263210791673314 -2.2818329216548761 1.0564221960558764 1.6695131677863164 -0.74530871361546158 5.2816185983441173 1.7249604739883748 -0.41473519296820843 1.2582475810753815
leaf_weight=7438 595 625 1061 1874 419 121 504 1811 752
leaf_count=7438 595 625 1061 1874 419 121 504 1811 752
internal_value=0 -0.368013 -0.257402 1.1193 1.39029 1.88859 0.367049 0.128753 0.541347
internal_weight=0 11439 10814 3761 3166 1995 3376 2872 1171
internal_count=15200 11439 10814 3761 3166 1995 3376 2872 1171
is_linear=0
shrinkage=0.0765574


Tree=39
num_leaves=10
num_cat=0
split_feature=2 1 3 1 1 2 1 70 5
split_gain=1.23273e+06 398915 358828 279090 379737 248271 221376 214248 200212
threshold=310.50000000000006 48.500000000000007 654.50000000000011 19.500000000000004 43.500000000000007 114.50000000000001 8.5000000000000018 1.0000000180025095e-35 219.50000000000003
decision_type=2 2 2 2 2 2 2 2 2
left_child=5 2 3 6 -5 7 8 -1 -2
right_child=1 -3 -4 4 -6 -7 -8 -9 -10
leaf_value=-1.723697435124558 4.7638128897955907 -1.81208492952536 2.0391622879651443 -0.21208674992927856 1.8876128065541806 -0.45330932895593629 1.878392449952625 6.2611042422057483 -0.17581078101171563
leaf_weight=1293 52 340 1261 2737 619 6883 1355 20 640
leaf_count=1293 52 340 1261 2737 619 6883 1355 20 640
internal_value=0 0.745809 0.876314 0.604918 0.175194 -0.637341 1.30944 -1.60207 0.195375
internal_weight=0 7004 6664 5403 3356 8196 2047 1313 692
internal_count=15200 7004 6664 5403 3356 8196 2047 1313 692
is_linear=0
shrinkage=0.0765574


Tree=40
num_leaves=10
num_cat=0
split_feature=4 4 4 139 65 139 138 19 141
split_gain=1.03123e+06 263200 252304 213664 205164 204391 150305 129385 118191
threshold=444.50000000000006 179.50000000000003 799.50000000000011 1.0000000180025095e-35 1.0000000180025095e-35 1.0000000180025095e-35 1.0000000180025095e-35 86.500000000000014 1.0000000180025095e-35
decision_type=2 2 2 2 2 2 2 2 2
left_child=1 4 3 6 -1 7 8 -3 -2
right_child=2 5 -4 -5 -6 -7 -8 -9 -10
leaf_value=-0.88838437840589746 0.47335494698534664 0.99242999351334449 3.1431395915136444 -1.4815436420125794 4.55158592650419 -2.0908015649723457 2.5108904615030228 -0.11169006783694371 1.3921333830036691
leaf_weight=4543 2161 705 299 220 41 282 339 5287 1323
leaf_count=4543 2161 705 299 220 41 282 339 5287 1323
internal_value=0 -0.398763 0.997182 0.838478 -0.839728 -0.0765777 0.971986 0.0182172 0.822248
internal_weight=0 10858 4342 4043 4584 6274 3823 5992 3484
internal_count=15200 10858 4342 4043 4584 6274 3823 5992 3484
is_linear=0
shrinkage=0.0765574


Tree=41
num_leaves=10
num_cat=0
split_feature=2 4 5 3 67 54 4 128 142
split_gain=915359 340405 213174 195616 202131 185920 158571 149814 192112
threshold=262.50000000000006 546.50000000000011 175.50000000000003 116.50000000000001 1.0000000180025095e-35 1.0000000180025095e-35 825.50000000000011 1.0000000180025095e-35 1.0000000180025095e-35
decision_type=2 2 2 2 2 2 2 2 2
left_child=3 2 -2 4 5 -1 -3 -4 -9
right_child=1 6 7 -5 -6 -7 -8 8 -10
leaf_value=5.2940764271421852 3.7742138168360833 1.1077224056136439 0.25604448390744894 -0.42645294536420819 5.7004827927789776 -1.6448464123406847 3.321604582012657 0.50922306119596983 -3.2174033248966265
leaf_weight=23 97 2385 5014 5714 23 1413 206 155 170
leaf_count=23 97 2385 5014 5714 23 1413 206 155 170
internal_value=0 0.56161 0.217417 -0.628474 -1.41967 -1.53371 1.28374 0.152796 -1.44009
internal_weight=0 8027 5436 7173 1459 1436 2591 5339 325
internal_count=15200 8027 5436 7173 1459 1436 2591 5339 325
is_linear=0
shrinkage=0.0765574


Tree=42
num_leaves=10
num_cat=0
split_feature=33 139 142 139 43 31 33 7 68
split_gain=622813 297096 266174 215702 172495 166599 219385 188681 139237
threshold=400.50000000000006 1.0000000180025095e-35 1.0000000180025095e-35 1.0000000180025095e-35 712.50000000000011 1.0000000180025095e-35 146.50000000000003 535.50000000000011 1.0000000180025095e-35
decision_type=2 2 2 2 2 2 2 2 2
left_child=3 2 -2 5 -4 7 -7 8 -1
right_child=1 -3 4 -5 -6 6 -8 -9 -10
leaf_value=0.27826465122269256 1.6904167640913526 -1.5459429786291006 0.034434083069353506 -2.0010242129458127 1.9802983424476963 -1.0083723813590781 -0.13482348797454036 2.5202220602553891 -1.4386259762049629
leaf_weight=2589 1775 285 1518 415 324 2467 5316 201 310
leaf_count=2589 1775 285 1518 415 324 2467 5316 201 310
internal_value=0 0.833876 1.02139 -0.287996 0.376703 -0.222674 -0.411715 0.251941 0.0946717
internal_weight=0 3902 3617 11298 1842 10883 7783 3100 2899
internal_count=15200 3902 3617 11298 1842 10883 7783 3100 2899
is_linear=0
shrinkage=0.0765574


Tree=43
num_leaves=10
num_cat=0
split_feature=2 1 138 2 1 138 69 3 76
split_gain=697231 300533 257188 228309 229987 240753 222379 186118 176501
threshold=436.50000000000006 30.500000000000004 1.0000000180025095e-35 157.50000000000003 29.500000000000004 1.0000000180025095e-35 1.0000000180025095e-35 654.50000000000011 1.0000000180025095e-35
decision_type=2 2 2 2 2 2 2 2 2
left_child=3 7 -3 6 8 -6 -1 -2 -5
right_child=1 2 -4 4 5 -7 -8 -9 -10
leaf_value=-0.91128596600578038 0.97775144843002237 -0.28311996508160076 1.8940253741131234 0.35404058746902783 -0.9172140232457946 0.79932822028381822 7.1855953622601421 2.5103156219673917 -2.9342139377046008
leaf_weight=3335 1851 1723 390 4030 2543 590 20 620 98
leaf_count=3335 1851 1723 390 4030 2543 590 20 620 98
internal_value=0 0.789064 0.118719 -0.340719 -0.0993859 -0.593958 -0.863018 1.36229 0.275976
internal_weight=0 4584 2113 10616 7261 3133 3355 2471 4128
internal_count=15200 4584 2113 10616 7261 3133 3355 2471 4128
is_linear=0
shrinkage=0.0765574


Tree=44
num_leaves=10
num_cat=0
split_feature=4 2 1 1 138 1 0 138 69
split_gain=613593 259862 300756 244636 197213 190439 285257 188526 185359
threshold=529.50000000000011 175.50000000000003 19.500000000000004 30.500000000000004 1.0000000180025095e-35 8.5000000000000018 2018.5000000000002 1.0000000180025095e-35 1.0000000180025095e-35
decision_type=2 2 2 2 2 2 2 2 2
left_child=1 8 5 -2 -5 6 -3 -4 -1
right_child=3 2 7 4 -6 -7 -8 -9 -10
leaf_value=-0.75209569746290528 1.7747260296368905 0.76347274149597322 -0.52944899485404928 -0.0047461387588701043 2.5034586577513842 1.096169153268032 -1.6731258254075823 0.85117887980962581 6.6354847913165349
leaf_weight=4237 1325 764 4342 1299 214 1884 446 669 20
leaf_count=4237 1325 764 4342 1299 214 1884 446 669 20
internal_value=0 -0.23306 0.0213242 1.01518 0.350016 0.614823 -0.134645 -0.345126 -0.717388
internal_weight=0 12362 8105 2838 1513 3094 1210 5011 4257
internal_count=15200 12362 8105 2838 1513 3094 1210 5011 4257
is_linear=0
shrinkage=0.0765574


Tree=45
num_leaves=10
num_cat=0
split_feature=4 131 130 4 131 5 75 3 67
split_gain=523239 237013 179240 139038 125593 108117 108033 129993 167871
threshold=529.50000000000011 1.0000000180025095e-35 1.0000000180025095e-35 825.50000000000011 1.0000000180025095e-35 105.50000000000001 1.0000000180025095e-35 116.50000000000001 1.0000000180025095e-35
decision_type=2 2 2 2 2 2 2 2 2
left_child=1 2 6 4 -2 -4 7 8 -1
right_child=3 -3 5 -5 -6 -7 -8 -9 -10
leaf_value=-1.3941945584000726 0.62822912866233238 0.81719137983339096 -1.1792211656954241 2.8528546561441632 2.542983344590688 0.8409944037219742 1.329074439217294 -0.36993389220005424 5.6858769560956279
leaf_weight=1055 2413 1179 182 206 219 1057 200 8669 20
leaf_count=1055 2413 1179 182 206 219 1057 200 8669 20
internal_value=0 -0.215217 -0.324062 0.937462 0.787549 0.54424 -0.432251 -0.468403 -1.26247
internal_weight=0 12362 11183 2838 2632 1239 9944 9744 1075
internal_count=15200 12362 11183 2838 2632 1239 9944 9744 1075
is_linear=0
shrinkage=0.0765574


Tree=46
num_leaves=10
num_cat=0
split_feature=4 131 4 3 67 74 131 0 130
split_gain=454009 156735 178750 151429 196423 152578 137386 123637 117387
threshold=438.50000000000006 1.0000000180025095e-35 799.50000000000011 116.50000000000001 1.0000000180025095e-35 1.0000000180025095e-35 1.0000000180025095e-35 2018.5000000000002 1.0000000180025095e-35
decision_type=2 2 2 2 2 2 2 2 2
left_child=3 2 7 4 5 -1 8 -2 -5
right_child=1 -3 -4 6 -6 -7 -8 -9 -10
leaf_value=-1.2251645060998886 0.67690845722537563 2.1344252633355163 2.3224653284419881 -0.35256746343436834 5.1462499959809245 4.2915491783934119 0.73148870691884305 -0.25331904607899575 0.57276632827241059
leaf_weight=1430 2529 381 296 7427 30 30 924 1252 901
leaf_count=1430 2529 381 296 7427 30 30 924 1252 901
internal_value=0 0.649487 0.510718 -0.269541 -0.985806 -1.11181 -0.154189 0.368883 -0.252456
internal_weight=0 4458 4077 10742 1490 1460 9252 3781 8328
internal_count=15200 4458 4077 10742 1490 1460 9252 3781 8328
is_linear=0
shrinkage=0.0765574


Tree=47
num_leaves=10
num_cat=0
split_feature=2 139 2 6 126 2 65 119 2
split_gain=418581 239190 156444 151767 118381 109027 156471 94589.3 84141.1
threshold=250.50000000000003 1.0000000180025095e-35 696.50000000000011 169.50000000000003 1.0000000180025095e-35 110.50000000000001 1.0000000180025095e-35 1.0000000180025095e-35 894.50000000000011
decision_type=2 2 2 2 2 2 2 2 2
left_child=5 2 3 -2 -3 6 -1 -5 -4
right_child=1 4 8 7 -6 -7 -8 -9 -10
leaf_value=-1.2312556041798566 2.7970531917068073 -2.1226974427640828 1.1974257424564456 0.23355122847751078 1.8236987126128243 -0.30421407644104487 5.5987905439908934 2.1169693353318664 4.2328027795915011
leaf_weight=1153 143 311 878 6735 52 5691 20 160 57
leaf_count=1153 143 311 878 6735 52 5691 20 160 57
internal_value=0 0.364557 0.45206 0.328454 -1.55737 -0.442737 -1.1148 0.277256 1.38247
internal_weight=0 8336 7973 7038 363 6864 1173 6895 935
internal_count=15200 8336 7973 7038 363 6864 1173 6895 935
is_linear=0
shrinkage=0.0765574


Tree=48
num_leaves=10
num_cat=0
split_feature=5 1 1 1 1 1 142 54 19
split_gain=314665 208582 189615 178616 261361 172046 144707 138821 123885
threshold=500.50000000000006 47.500000000000007 30.500000000000004 43.500000000000007 30.500000000000004 8.5000000000000018 1.0000000180025095e-35 1.0000000180025095e-35 362.50000000000006
decision_type=2 2 2 2 2 2 2 2 2
left_child=1 3 -2 4 5 6 7 -1 -7
right_child=2 -3 -4 -5 -6 8 -8 -9 -10
leaf_value=2.0699007001470782 1.2989704097553167 -1.3218069490745314 0.12663814023230568 0.92282595185745098 -0.83965949907943294 0.16839167206347413 -1.3911837500955808 -0.32946979968688689 1.4394719215971394
leaf_weight=157 1501 872 1753 931 2644 4694 735 1416 497
leaf_count=157 1501 872 1753 931 2644 4694 735 1416 497
internal_value=0 -0.181797 0.66741 -0.0920296 -0.185181 0.0455758 -0.504365 -0.0899904 0.290088
internal_weight=0 11946 3254 11074 10143 7499 2308 1573 5191
internal_count=15200 11946 3254 11074 10143 7499 2308 1573 5191
is_linear=0
shrinkage=0.0765574


Tree=49
num_leaves=10
num_cat=0
split_feature=2 88 123 2 5 120 124 89 2
split_gain=321761 220155 175214 138282 147487 136635 105124 98035.4 96077.5
threshold=262.50000000000006 1.0000000180025095e-35 1.0000000180025095e-35 700.50000000000011 175.50000000000003 1.0000000180025095e-35 1.0000000180025095e-35 1.0000000180025095e-35 102.50000000000001
decision_type=2 2 2 2 2 2 2 2 2
left_child=8 2 3 4 -2 6 7 -6 -1
right_child=1 -3 -4 -5 5 -7 -8 -9 -10
leaf_value=-1.1228499455386878 3.1691168644603458 3.2684549497386302 -2.7147125871970914 1.2157283107475747 0.10326293105778107 2.4631714590211882 -2.3522196885231592 2.0769333899908711 -0.26797347151295625
leaf_weight=878 97 147 113 897 6374 148 100 151 6295
leaf_count=878 97 147 113 897 6374 148 100 151 6295
internal_value=0 0.332971 0.27821 0.321753 0.205029 0.162578 0.111184 0.148937 -0.372613
internal_weight=0 8027 7880 7767 6870 6773 6625 6525 7173
internal_count=15200 8027 7880 7767 6870 6773 6625 6525 7173
is_linear=0
shrinkage=0.0765574


Tree=50
num_leaves=10
num_cat=0
split_feature=4 1 1 1 128 0 4 1 138
split_gain=277786 169785 180007 233307 197286 262914 203521 165031 153241
threshold=535.50000000000011 47.500000000000007 43.500000000000007 30.500000000000004 1.0000000180025095e-35 2018.5000000000002 102.50000000000001 30.500000000000004 1.0000000180025095e-35
decision_type=2 2 2 2 2 2 2 2 2
left_child=1 2 3 4 6 -6 -1 -2 -9
right_child=7 -3 -4 -5 5 -7 -8 8 -10
leaf_value=-1.3264522078330327 1.3346900706363403 -1.1603497187289853 0.91178552402096669 -0.76140336737275971 -0.096440493472346969 -2.4868024163294029 0.34294428553262574 -0.17056067541877631 2.0908187009679668
leaf_weight=461 1275 910 992 2831 895 386 5983 1263 204
leaf_count=461 1275 910 992 2831 895 386 5983 1263 204
internal_value=0 -0.153543 -0.0742051 -0.166864 0.0510189 -0.816721 0.223517 0.697607 0.143905
internal_weight=0 12458 11548 10556 7725 1281 6444 2742 1467
internal_count=15200 12458 11548 10556 7725 1281 6444 2742 1467
is_linear=0
shrinkage=0.0765574


Tree=51
num_leaves=10
num_cat=0
split_feature=2 1 1 1 4 84 5 141 1
split_gain=250212 183499 242181 287382 163781 107959 110648 103435 157805
threshold=250.50000000000003 47.500000000000007 43.500000000000007 30.500000000000004 676.50000000000011 1.0000000180025095e-35 173.50000000000003 1.0000000180025095e-35 4.5000000000000009
decision_type=2 2 2 2 2 2 2 2 2
left_child=-1 2 3 4 5 6 -2 8 -8
right_child=1 -3 -4 -5 -6 -7 7 -9 -10
leaf_value=-0.34230225326246422 2.7779290134754779 -1.0231988816146791 1.768498311777428 -0.44938151485769778 1.9463463895609148 2.5553211781856802 -2.1043326252403647 0.83158171561446659 0.18676951784966561
leaf_weight=6864 109 587 673 2322 470 137 190 1422 2426
leaf_count=6864 109 587 673 2322 470 137 190 1422 2426
internal_value=0 0.281857 0.380718 0.248725 0.589702 0.440864 0.371011 0.30604 0.0203668
internal_weight=0 8336 7749 7076 4754 4284 4147 4038 2616
internal_count=15200 8336 7749 7076 4754 4284 4147 4038 2616
is_linear=0
shrinkage=0.0765574


Tree=52
num_leaves=10
num_cat=0
split_feature=4 1 4 0 57 1 25 1 1
split_gain=221325 157745 110001 108135 105274 99097.9 91941.6 100423 174013
threshold=430.50000000000006 30.500000000000004 877.50000000000011 2018.5000000000002 1.0000000180025095e-35 47.500000000000007 451.50000000000006 47.500000000000007 43.500000000000007
decision_type=2 2 2 2 2 2 2 2 2
left_child=5 2 3 -2 -5 -1 -3 8 -8
right_child=1 6 -4 4 -6 -7 7 -9 -10
leaf_value=-0.12844360775915947 1.2489824255047919 -0.78329416756739767 5.9371788946724458 0.45040727235723138 -2.3109517506352231 -1.041983212996624 0.041062257088171815 -0.8567431789451071 1.9955270860829042
leaf_weight=9828 1409 645 25 802 90 749 927 350 375
leaf_count=9828 1409 645 25 802 90 749 927 350 375
internal_value=0 0.441875 0.88628 0.831403 0.171795 -0.193135 -0.00813996 0.294508 0.603984
internal_weight=0 4623 2326 2301 892 10577 2297 1652 1302
internal_count=15200 4623 2326 2301 892 10577 2297 1652 1302
is_linear=0
shrinkage=0.0765574


Tree=53
num_leaves=10
num_cat=0
split_feature=3 67 5 89 130 75 28 3 5
split_gain=188351 136057 111442 85025.6 84797.5 96583.8 79615.3 74007.6 68441.7
threshold=195.50000000000003 1.0000000180025095e-35 847.50000000000011 1.0000000180025095e-35 1.0000000180025095e-35 1.0000000180025095e-35 80.500000000000014 697.50000000000011 103.50000000000001
decision_type=2 2 2 2 2 2 2 2 2
left_child=1 8 3 4 5 6 7 -2 -1
right_child=2 -3 -4 -5 -6 -7 -8 -9 -10
leaf_value=-0.94484421591242773 0.53499820692969657 4.7672512664592022 2.3314856176713845 1.8124781683983913 0.92016785268916668 3.2958577466429841 -0.042011808436927062 4.4503450964304943 -0.26015973242767543
leaf_weight=1082 1164 30 141 180 741 54 7688 29 4091
leaf_count=1082 1164 30 141 180 741 54 7688 29 4091
internal_value=0 -0.373557 0.19442 0.163847 0.133178 0.0679113 0.0482841 0.630174 -0.40337
internal_weight=0 5203 9997 9856 9676 8935 8881 1193 5173
internal_count=15200 5203 9997 9856 9676 8935 8881 1193 5173
is_linear=0
shrinkage=0.0765574


Tree=54
num_leaves=10
num_cat=0
split_feature=34 106 6 58 69 38 76 42 141
split_gain=150555 100935 100890 88224.7 76051.8 114889 70213.5 63689.3 129595
threshold=542.50000000000011 1.0000000180025095e-35 847.50000000000011 1.0000000180025095e-35 1.0000000180025095e-35 243.50000000000003 1.0000000180025095e-35 389.50000000000006 1.0000000180025095e-35
decision_type=2 2 2 2 2 2 2 2 2
left_child=1 3 6 4 7 -6 -2 -1 -9
right_child=2 -3 -4 -5 5 -7 -8 8 -10
leaf_value=-0.10981527599006262 0.63892140882775927 -1.4851443196110397 3.6999360507729468 -0.61844801652173687 1.8208990012437618 -0.067635478949746211 -2.3620279192797398 -0.31623693816082948 1.1322970969391022
leaf_weight=9477 1647 296 62 1452 333 436 47 698 752
leaf_count=9477 1647 296 62 1452 333 436 47 698 752
internal_value=0 -0.0870786 0.666677 -0.055604 0.0142703 0.750156 0.55566 -0.0375186 0.435003
internal_weight=0 13444 1756 13148 11696 769 1694 10927 1450
internal_count=15200 13444 1756 13148 11696 769 1694 10927 1450
is_linear=0
shrinkage=0.0765574


Tree=55
num_leaves=10
num_cat=0
split_feature=88 7 138 89 106 142 42 54 30
split_gain=194196 137219 109824 102196 76957.4 72484.1 113731 62213.1 60149.7
threshold=1.0000000180025095e-35 692.50000000000011 1.0000000180025095e-35 1.0000000180025095e-35 1.0000000180025095e-35 1.0000000180025095e-35 386.50000000000006 1.0000000180025095e-35 1.0000000180025095e-35
decision_type=2 2 2 2 2 2 2 2 2
left_child=1 2 3 4 5 6 8 -8 -1
right_child=-2 -3 -4 -5 -6 -7 7 -9 -10
leaf_value=0.12021364697989163 1.9284952640397846 0.86161714134263412 0.6196224289151685 1.233467541785084 -1.5023025533166581 -0.45211406699662587 1.7990136244788995 0.38030138177613654 -0.33153127850142899
leaf_weight=2780 300 930 1145 300 259 3697 221 1005 4563
leaf_count=2780 300 930 1145 300 259 3697 221 1005 4563
internal_value=0 -0.0388288 -0.0987725 -0.16291 -0.196356 -0.168781 -0.0465397 0.63604 -0.160504
internal_weight=0 14900 13970 12825 12525 12266 8569 1226 7343
internal_count=15200 14900 13970 12825 12525 12266 8569 1226 7343
is_linear=0
shrinkage=0.0765574


Tree=56
num_leaves=10
num_cat=0
split_feature=123 124 34 1 1 1 1 1 1
split_gain=166407 137323 144524 110744 87167.1 73397 71065.6 124810 121914
threshold=1.0000000180025095e-35 1.0000000180025095e-35 465.50000000000006 8.5000000000000018 1.5000000000000002 4.5000000000000009 30.500000000000004 43.500000000000007 8.5000000000000018
decision_type=2 2 2 2 2 2 2 2 2
left_child=1 2 6 4 -4 -6 8 -8 -1
right_child=-2 -3 3 -5 5 -7 7 -9 -10
leaf_value=-0.44021691077985248 -2.1937256526999707 -1.9633946655404311 2.0244491938849141 0.82125849661306938 -1.8607318009587261 0.024024519658950593 -0.51747743881840336 0.32748547817490531 0.28654422616014696
leaf_weight=1821 200 200 77 2110 204 298 3595 1433 5262
leaf_count=1821 200 200 77 2110 204 298 3595 1433 5262
internal_value=0 0.0292497 0.0561773 0.563893 -0.374002 -0.741892 -0.0565506 -0.27666 0.099698
internal_weight=0 15000 14800 2689 579 502 12111 5028 7083
internal_count=15200 15000 14800 2689 579 502 12111 5028 7083
is_linear=0
shrinkage=0.0765574


Tree=57
num_leaves=10
num_cat=0
split_feature=88 139 20 0 137 44 118 138 135
split_gain=159870 124476 118332 136780 81650 77442.3 71164.4 64183.7 57661
threshold=1.0000000180025095e-35 1.0000000180025095e-35 409.50000000000006 2018.5000000000002 1.0000000180025095e-35 678.50000000000011 1.0000000180025095e-35 1.0000000180025095e-35 1.0000000180025095e-35
decision_type=2 2 2 2 2 2 2 2 2
left_child=1 2 8 4 -4 7 -6 -5 -1
right_child=-2 -3 3 5 6 -7 -8 -9 -10
leaf_value=-0.07135547909133505 1.7497750913149681 -1.0318552586290226 0.99661424307185009 -0.64591351179751499 -0.59665292295236683 0.79141998647548295 1.8318557580236241 0.88169422670262976 -0.75460415107081069
leaf_weight=9449 300 700 1786 1131 378 397 87 188 784
leaf_count=9449 300 700 1786 1131 378 397 87 188 784
internal_value=0 -0.0352304 0.013899 0.368846 0.761346 -0.146023 -0.142287 -0.42818 -0.123702
internal_weight=0 14900 14200 3967 2251 1716 465 1319 10233
internal_count=15200 14900 14200 3967 2251 1716 465 1319 10233
is_linear=0
shrinkage=0.0765574


Tree=58
num_leaves=10
num_cat=0
split_feature=88 62 128 0 54 69 5 139 126
split_gain=136329 112481 114691 150433 116959 104761 103011 100296 115156
threshold=1.0000000180025095e-35 1.0000000180025095e-35 1.0000000180025095e-35 2018.5000000000002 1.0000000180025095e-35 1.0000000180025095e-35 103.50000000000001 1.0000000180025095e-35 1.0000000180025095e-35
decision_type=2 2 2 2 2 2 2 2 2
left_child=1 2 6 4 -4 -3 -1 -8 -9
right_child=-2 5 3 -5 -6 -7 7 8 -10
leaf_value=-1.0185769100646132 1.615816810153774 0.38452439593207249 2.5117554404132694 -2.1289514202201092 -0.55473088306389506 2.5243189680539784 0.069590206305231508 -1.3689480822434219 1.6095703672828441
leaf_weight=592 300 1341 81 360 729 149 11035 524 89
leaf_count=592 300 1341 81 360 729 149 11035 524 89
internal_value=0 -0.0325332 -0.102648 -0.826811 -0.248082 0.598504 -0.033427 0.0166424 -0.936504
internal_weight=0 14900 13410 1170 810 1490 12240 11648 613
internal_count=15200 14900 13410 1170 810 1490 12240 11648 613
is_linear=0
shrinkage=0.0765574


Tree=59
num_leaves=10
num_cat=0
split_feature=62 128 142 65 32 6 9 6 114
split_gain=101132 106258 128281 87725.7 85642.2 57359.5 55961.3 47867.5 42778
threshold=1.0000000180025095e-35 1.0000000180025095e-35 1.0000000180025095e-35 1.0000000180025095e-35 409.50000000000006 99.500000000000014 686.50000000000011 99.500000000000014 1.0000000180025095e-35
decision_type=2 2 2 2 2 2 2 2 2
left_child=1 4 3 -3 5 -1 7 -2 -7
right_child=6 2 -4 -5 -6 8 -8 -9 -10
leaf_value=-0.82490198446337382 2.4916753325437 -0.49466453020734807 -1.9659643734285763 2.1610836315265911 0.35874743914389079 -0.035797068135409685 1.6150274575147787 0.27589478581638399 -1.1026700796830982
leaf_weight=619 60 729 360 81 2966 8699 260 1200 226
leaf_count=619 60 729 360 81 2966 8699 260 1200 226
internal_value=0 -0.0658247 -0.763513 -0.22909 -0.000573266 -0.11224 0.592422 0.381408 -0.0628126
internal_weight=0 13680 1170 810 12510 9544 1520 1260 8925
internal_count=15200 13680 1170 810 12510 9544 1520 1260 8925
is_linear=0
shrinkage=0.0765574


Tree=60
num_leaves=10
num_cat=0
split_feature=1 1 1 1 19 1 70 1 17
split_gain=130033 166586 169258 139864 149726 122530 96555.7 85740.9 71277.2
threshold=47.500000000000007 43.500000000000007 30.500000000000004 8.5000000000000018 427.50000000000006 1.5000000000000002 1.0000000180025095e-35 50.500000000000007 276.50000000000006
decision_type=2 2 2 2 2 2 2 2 2
left_child=1 2 3 5 -5 6 -1 -2 -3
right_child=7 8 -4 4 -6 -7 -8 -9 -10
leaf_value=0.65381478127499448 -1.3126244417459962 0.19510967807359544 -0.43898165994473226 0.18517834512914136 1.1693726599379091 -0.54239909727633107 5.2320108813929416 0.092448143436606803 1.4020776957682715
leaf_weight=270 700 474 3900 5516 1084 2100 30 400 726
leaf_count=270 700 474 3900 5516 1084 2100 30 400 726
internal_value=0 0.0625431 -0.0177157 0.164833 0.346825 -0.335645 1.11163 -0.801689 0.925325
internal_weight=0 14100 12900 9000 6600 2400 300 1100 1200
internal_count=15200 14100 12900 9000 6600 2400 300 1100 1200
is_linear=0
shrinkage=0.0765574


Tree=61
num_leaves=10
num_cat=0
split_feature=4 67 74 138 4 19 141 4 39
split_gain=98185.1 114280 85128.1 75725.9 83837.4 80773.5 72367.7 69628.5 61836.4
threshold=179.50000000000003 1.0000000180025095e-35 1.0000000180025095e-35 1.0000000180025095e-35 768.50000000000011 86.500000000000014 1.0000000180025095e-35 106.50000000000001 431.50000000000006
decision_type=2 2 2 2 2 2 2 2 2
left_child=1 2 7 4 5 -2 -7 -1 -8
right_child=3 -3 -4 -5 -6 6 8 -9 -10
leaf_value=-0.88604310937815556 0.73391005055215142 3.7780704554302571 2.661660885430535 0.82360289165415224 1.1117004734351907 -0.23369500870701218 -0.0097344606717981019 -0.19294082718815092 0.68199911386910073
leaf_weight=1138 844 40 55 844 431 5100 2257 3351 1140
leaf_count=1138 844 40 55 844 431 5100 2257 3351 1140
internal_value=0 -0.296105 -0.33197 0.127859 0.0677678 0.0196 -0.0513518 -0.368648 0.222405
internal_weight=0 4584 4544 10616 9772 9341 8497 4489 3397
internal_count=15200 4584 4544 10616 9772 9341 8497 4489 3397
is_linear=0
shrinkage=0.0765574


Tree=62
num_leaves=10
num_cat=0
split_feature=139 58 106 4 142 57 36 5 122
split_gain=90054.6 87600.9 80648.1 92458.2 97111.3 151337 68441.1 54661 53708
threshold=1.0000000180025095e-35 1.0000000180025095e-35 1.0000000180025095e-35 327.50000000000006 1.0000000180025095e-35 1.0000000180025095e-35 673.50000000000011 860.50000000000011 1.0000000180025095e-35
decision_type=2 2 2 2 2 2 2 2 2
left_child=1 2 3 -1 8 6 -6 -8 -5
right_child=-2 -3 -4 4 5 -7 7 -9 -10
leaf_value=-0.050091890261849945 -0.84811259730537591 -0.52357601669353437 -1.2057033541632789 0.65242128151694356 -0.061179741279217652 -1.9377840924643013 0.85053168017048508 4.4917816372834993 -1.3663634640047406
leaf_weight=7195 700 1450 270 3464 1451 223 342 26 79
leaf_count=7195 700 1450 270 3464 1451 223 342 26 79
internal_value=0 0.0409434 0.103668 0.131331 0.365052 -0.0554503 0.175314 1.10779 0.607407
internal_weight=0 14500 13050 12780 5585 2042 1819 368 3543
internal_count=15200 14500 13050 12780 5585 2042 1819 368 3543
is_linear=0
shrinkage=0.0765574


Tree=63
num_leaves=10
num_cat=0
split_feature=2 6 142 8 124 42 58 2 3
split_gain=82557.2 106067 68496.4 73260.7 62015.9 56980.8 56899.6 48603.8 48468.1
threshold=197.50000000000003 130.50000000000003 1.0000000180025095e-35 672.50000000000011 1.0000000180025095e-35 379.50000000000006 1.0000000180025095e-35 894.50000000000011 102.50000000000001
decision_type=2 2 2 2 2 2 2 2 2
left_child=8 -2 3 4 5 -3 7 -4 -1
right_child=1 2 6 -5 -6 -7 -8 -9 -10
leaf_value=-0.74819232269529656 1.9301785086779568 0.059990297459856907 -0.13172306934147296 1.0780752006554202 -1.5758222812638365 0.62182514405588618 -1.3228673203447692 2.5540448473751494 -0.1382222704271954
leaf_weight=929 188 4331 3109 560 118 1400 239 40 4286
leaf_count=929 188 4331 3109 560 118 1400 239 40 4286
internal_value=0 0.128943 0.0943776 0.241558 0.161468 0.197238 -0.184041 -0.0976072 -0.246882
internal_weight=0 9985 9797 6409 5849 5731 3388 3149 5215
internal_count=15200 9985 9797 6409 5849 5731 3388 3149 5215
is_linear=0
shrinkage=0.0765574


Tree=64
num_leaves=10
num_cat=0
split_feature=84 1 1 1 4 77 1 54 9
split_gain=102575 88249.5 143669 118477 99879.1 71940.6 71426.2 62505.4 58481.8
threshold=1.0000000180025095e-35 47.500000000000007 43.500000000000007 30.500000000000004 559.50000000000011 1.0000000180025095e-35 50.500000000000007 1.0000000180025095e-35 834.50000000000011
decision_type=2 2 2 2 2 2 2 2 2
left_child=1 2 3 4 5 -1 -3 -8 -6
right_child=-2 6 -4 -5 8 -7 7 -9 -10
leaf_value=0.05520371007647349 1.4015851262137831 -1.1544815073530401 0.82481488544642201 -0.40247618499058124 0.71443596550137645 -1.15438601849436 2.9989760155044394 -0.19105481258910365 4.7942843301944595
leaf_weight=7318 300 700 1200 3900 1061 300 40 360 21
leaf_count=7318 300 700 1200 3900 1061 300 40 360 21
internal_value=0 -0.0282198 0.0243828 -0.0518489 0.105329 0.00756956 -0.688143 0.127948 0.79362
internal_weight=0 14900 13800 12600 8700 7618 1100 400 1082
internal_count=15200 14900 13800 12600 8700 7618 1100 400 1082
is_linear=0
shrinkage=0.0765574


Tree=65
num_leaves=10
num_cat=0
split_feature=123 84 6 106 124 120 89 39 76
split_gain=90840.5 84596.8 64028.8 66380.6 60732.2 58560.6 57252.2 36453.1 35682.5
threshold=1.0000000180025095e-35 1.0000000180025095e-35 847.50000000000011 1.0000000180025095e-35 1.0000000180025095e-35 1.0000000180025095e-35 1.0000000180025095e-35 561.50000000000011 1.0000000180025095e-35
decision_type=2 2 2 2 2 2 2 2 2
left_child=1 2 3 4 5 6 8 -4 -1
right_child=-2 -3 7 -5 -6 -7 -8 -9 -10
leaf_value=-0.0054552646639444468 -1.6208238706733962 1.2942833762511397 -0.44455521000942594 -1.1647480098726706 -1.3214369797507883 1.0802465899363016 1.0450532050268466 2.35343933289291 -0.84985109699621186
leaf_weight=13168 200 300 37 291 200 300 300 104 300
leaf_count=13168 200 300 37 291 200 300 300 104 300
internal_value=0 0.021611 -0.00436192 -0.0200858 0.0032599 0.0220927 -0.000964141 1.61921 -0.0242642
internal_weight=0 15000 14700 14559 14268 14068 13768 141 13468
internal_count=15200 15000 14700 14559 14268 14068 13768 141 13468
is_linear=0
shrinkage=0.0765574


Tree=66
num_leaves=10
num_cat=0
split_feature=123 70 5 141 69 5 5 74 77
split_gain=77463.9 72811.3 68856.8 75625.6 63101.8 90140 75578.1 137178 51913.9
threshold=1.0000000180025095e-35 1.0000000180025095e-35 193.50000000000003 1.0000000180025095e-35 1.0000000180025095e-35 250.50000000000003 109.50000000000001 1.0000000180025095e-35 1.0000000180025095e-35
decision_type=2 2 2 2 2 2 2 2 2
left_child=1 4 -3 -4 6 -6 7 -1 -8
right_child=-2 2 3 -5 5 -7 8 -9 -10
leaf_value=-0.79968948992994748 -1.496737763471031 3.3192469730358942 0.022402352222449132 1.1802643169433735 3.5952515672371765 0.32054422747838995 -0.0084485927560029178 3.2891024093362828 -1.5193013919907683
leaf_weight=1260 200 50 940 510 51 1449 10555 50 135
leaf_count=1260 200 50 940 510 51 1449 10555 50 135
internal_value=0 0.0199565 0.52597 0.42965 -0.0362672 0.431884 -0.0947862 -0.643629 -0.0275286
internal_weight=0 15000 1500 1450 13500 1500 12000 1310 10690
internal_count=15200 15000 1500 1450 13500 1500 12000 1310 10690
is_linear=0
shrinkage=0.0765574


Tree=67
num_leaves=10
num_cat=0
split_feature=131 75 4 72 142 128 3 67 68
split_gain=87421.3 63572.5 66341.1 60884.2 54112.4 116878 58213 72763.3 46558.2
threshold=1.0000000180025095e-35 1.0000000180025095e-35 768.50000000000011 1.0000000180025095e-35 1.0000000180025095e-35 1.0000000180025095e-35 193.50000000000003 1.0000000180025095e-35 1.0000000180025095e-35
decision_type=2 2 2 2 2 2 2 2 2
left_child=1 2 4 8 6 -6 7 -1 -3
right_child=-2 3 -4 -5 5 -7 -8 -9 -10
leaf_value=-0.29923474521477572 0.57643429563176907 1.7627712531066795 0.85268030434735309 -2.2281082210082981 -0.21061686787923056 -1.5908524028509097 0.13313395145901616 4.3327570446137855 -1.4361300631965803
leaf_weight=3233 1400 240 430 30 3559 400 5858 20 30
leaf_count=3233 1400 240 430 30 3559 400 5858 20 30
internal_value=0 -0.0584788 -0.0829738 1.04379 -0.113757 -0.35007 -0.0110715 -0.270756 1.40734
internal_weight=0 13800 13500 300 13070 3959 9111 3253 270
internal_count=15200 13800 13500 300 13070 3959 9111 3253 270
is_linear=0
shrinkage=0.0765574


Tree=68
num_leaves=10
num_cat=0
split_feature=62 2 76 2 69 30 106 139 2
split_gain=65606.9 73224.2 82493.2 65910.9 64537.4 57929.2 52574 42277.2 40828
threshold=1.0000000180025095e-35 100.50000000000001 1.0000000180025095e-35 1.0000000180025095e-35 1.0000000180025095e-35 562.50000000000011 1.0000000180025095e-35 1.0000000180025095e-35 83.500000000000014
decision_type=2 2 2 2 2 2 2 2 2
left_child=1 3 6 -1 -2 -6 7 -3 -5
right_child=4 2 -4 8 5 -7 -8 -9 -10
leaf_value=0.51954811612230811 0.31087336148807254 0.066311593773554958 -1.7704091112543967 -2.0477726026870084 4.0462986434324693 0.89596607617991808 -1.044749562549071 -0.60088477026976339 -0.71237078070432647
leaf_weight=180 1368 11881 154 199 52 100 270 584 412
leaf_count=180 1368 11881 154 199 52 100 270 584 412
internal_value=0 -0.0530175 -0.00913911 -0.767996 0.477157 1.97371 0.0121593 0.0350527 -1.14731
internal_weight=0 13680 12889 791 1520 152 12735 12465 611
internal_count=15200 13680 12889 791 1520 152 12735 12465 611
is_linear=0
shrinkage=0.0765574


Tree=69
num_leaves=10
num_cat=0
split_feature=84 123 58 128 1 1 3 1 1
split_gain=76639.3 60169.7 61250.1 70985.1 58472.8 56845.5 73690.1 65626.3 90193.7
threshold=1.0000000180025095e-35 1.0000000180025095e-35 1.0000000180025095e-35 1.0000000180025095e-35 1.5000000000000002 4.5000000000000009 1.0000000180025095e-35 30.500000000000004 42.500000000000007
decision_type=2 2 2 2 2 2 2 2 2
left_child=1 2 4 -4 -1 6 -6 -7 -9
right_child=-2 -3 3 -5 5 7 -8 8 -10
leaf_value=1.1607198213644567 1.2115009231698826 -1.3433376656172953 -0.30956130595049602 -2.1832853262513736 0.76753342782250744 0.22295237382972136 -0.98888443038655593 -0.3905816144468196 0.24808297643094193
leaf_weight=270 300 200 1340 130 180 6750 630 3240 2160
leaf_count=270 300 200 1340 130 180 6750 630 3240 2160
internal_value=0 -0.0243926 -0.00644781 -0.475265 0.045643 0.0224122 -0.598569 0.063811 -0.135116
internal_weight=0 14900 14700 1470 13230 12960 810 12150 5400
internal_count=15200 14900 14700 1470 13230 12960 810 12150 5400
is_linear=0
shrinkage=0.0765574


Tree=70
num_leaves=10
num_cat=0
split_feature=1 1 1 1 18 1 54 1 54
split_gain=59720.1 104299 101363 75760.8 89799 74690.2 74628 52936 73728.3
threshold=47.500000000000007 43.500000000000007 30.500000000000004 8.5000000000000018 517.50000000000011 1.5000000000000002 1.0000000180025095e-35 51.500000000000007 1.0000000180025095e-35
decision_type=2 2 2 2 2 2 2 2 2
left_child=1 2 3 5 -5 6 -1 -2 -9
right_child=7 -3 -4 4 -6 -7 -8 8 -10
leaf_value=4.5041805587995984 -0.79365671401391336 0.72507114998981259 -0.34712364667303047 0.17491674326788054 1.2612982731805147 -0.40962015400220342 0.47927013687429038 4.9930250763544342 0.093340720832736951
leaf_weight=30 900 1200 3900 6119 481 2100 270 20 180
leaf_count=30 900 1200 3900 6119 481 2100 270 20 180
internal_value=0 0.0423851 -0.0211206 0.120147 0.254091 -0.248197 0.881761 -0.543299 0.583309
internal_weight=0 14100 12900 9000 6600 2400 300 1100 200
internal_count=15200 14100 12900 9000 6600 2400 300 1100 200
is_linear=0
shrinkage=0.0765574


Tree=71
num_leaves=10
num_cat=0
split_feature=88 4 120 0 128 8 4 19 134
split_gain=95570.4 48943.3 49572.2 45529.7 86006.9 54421.1 43448.8 37746.6 30995
threshold=1.0000000180025095e-35 799.50000000000011 1.0000000180025095e-35 2018.5000000000002 1.0000000180025095e-35 421.50000000000006 339.50000000000006 255.50000000000003 1.0000000180025095e-35
decision_type=2 2 2 2 2 2 2 2 2
left_child=1 2 3 5 -5 -1 -2 -7 -3
right_child=6 8 -4 4 -6 7 -8 -9 -10
leaf_value=-0.087351268204859514 0.59012588463914306 0.38982053052464688 0.92685705603252322 -0.16527148179846782 -1.3424482671158828 1.9851638102186417 2.4657543362115621 0.265752589558301 2.0419420839314695
leaf_weight=7149 178 199 300 4016 400 77 122 2659 100
leaf_count=7149 178 199 300 4016 400 77 122 2659 100
internal_value=0 -0.0272392 -0.0470949 -0.0675261 -0.2719 0.0237754 1.35288 0.314142 0.94237
internal_weight=0 14900 14601 14301 4416 9885 300 2736 299
internal_count=15200 14900 14601 14301 4416 9885 300 2736 299
is_linear=0
shrinkage=0.0765574


Tree=72
num_leaves=10
num_cat=0
split_feature=131 91 138 58 75 101 35 85 142
split_gain=59490.2 49248.5 47528.6 46106.3 52484.1 43716.8 42605 42436.1 40759.5
threshold=1.0000000180025095e-35 1.0000000180025095e-35 1.0000000180025095e-35 1.0000000180025095e-35 1.0000000180025095e-35 1.0000000180025095e-35 201.50000000000003 1.0000000180025095e-35 1.0000000180025095e-35
decision_type=2 2 2 2 2 2 2 2 2
left_child=2 6 3 4 5 7 -2 -1 -5
right_child=1 -3 -4 8 -6 -7 -8 -9 -10
leaf_value=-0.11734806922249623 0.23618863947171165 -0.39395751587080319 0.4121431031044468 -0.23989577253751038 1.0113265262748761 0.89321298278958638 1.189097793551021 0.85466234606763003 -1.181774392354628
leaf_weight=10530 550 300 1200 870 270 270 550 270 390
leaf_count=10530 550 300 1200 870 270 270 550 270 390
internal_value=0 0.475514 -0.0482406 -0.0920867 -0.0432708 -0.0689927 0.712643 -0.0930478 -0.53143
internal_weight=0 1400 13800 12600 11340 11070 1100 10800 1260
internal_count=15200 1400 13800 12600 11340 11070 1100 10800 1260
is_linear=0
shrinkage=0.0765574


Tree=73
num_leaves=10
num_cat=0
split_feature=88 84 8 45 6 89 75 72 68
split_gain=74808 67621.2 46706 49442.9 47923.4 44565.9 39007.1 50082.8 38012.5
threshold=1.0000000180025095e-35 1.0000000180025095e-35 672.50000000000011 503.50000000000006 847.50000000000011 1.0000000180025095e-35 1.0000000180025095e-35 1.0000000180025095e-35 1.0000000180025095e-35
decision_type=2 2 2 2 2 2 2 2 2
left_child=1 2 5 -4 -5 6 -1 8 -8
right_child=-2 -3 3 4 -6 -7 7 -9 -10
leaf_value=-0.127178748066446 1.1969387612021691 1.1136622469238486 1.1163665265110982 -0.27839469272043743 1.3227669772774828 0.83648973464331433 1.4067528775005702 -2.2116419911045755 -1.4837034336469237
leaf_weight=12919 300 300 397 547 137 300 240 30 30
leaf_count=12919 300 300 397 547 137 300 240 30 30
internal_value=0 -0.0240994 -0.0474781 0.436757 0.0423058 -0.0861983 -0.107138 0.755868 1.08559
internal_weight=0 14900 14600 1081 684 13519 13219 300 270
internal_count=15200 14900 14600 1081 684 13519 13219 300 270
is_linear=0
shrinkage=0.0765574


Tree=74
num_leaves=10
num_cat=0
split_feature=1 1 1 2 69 70 1 10 142
split_gain=49654.6 79942 80766 64061.9 152576 111666 46089 45800 48692.4
threshold=47.500000000000007 43.500000000000007 30.500000000000004 110.50000000000001 1.0000000180025095e-35 1.0000000180025095e-35 50.500000000000007 798.50000000000011 1.0000000180025095e-35
decision_type=2 2 2 2 2 2 2 2 2
left_child=1 2 3 4 5 -1 -2 8 -5
right_child=6 -3 -4 7 -6 -7 -8 -9 -10
leaf_value=-0.7630511405668684 -0.8700054345561189 0.63632972148286815 -0.30795170534803001 0.30281684587744684 6.1232638304403428 5.0211446901814742 0.16015104470259434 2.8301819262512966 -0.09385493763639037
leaf_weight=893 700 1200 3900 5261 20 20 400 38 2768
leaf_count=893 700 1200 3900 5261 20 20 400 38 2768
internal_value=0 0.0386485 -0.0169498 0.109151 -0.491443 -0.636344 -0.495403 0.178614 0.166064
internal_weight=0 14100 12900 9000 933 913 1100 8067 8029
internal_count=15200 14100 12900 9000 933 913 1100 8067 8029
is_linear=0
shrinkage=0.0765574


Tree=75
num_leaves=10
num_cat=0
split_feature=131 1 123 16 0 52 1 1 1
split_gain=42635.7 50012.8 38521.6 43990.9 56028.7 50410.3 40516.7 44638.9 55113.9
threshold=1.0000000180025095e-35 15.500000000000002 1.0000000180025095e-35 441.50000000000006 2018.5000000000002 529.50000000000011 47.500000000000007 43.500000000000007 39.500000000000007
decision_type=2 2 2 2 2 2 2 2 2
left_child=2 -2 3 5 6 -1 7 8 -5
right_child=1 -3 -4 4 -6 -7 -8 -9 -10
leaf_value=-0.084499175782945843 0.93092171169131266 0.0062841888324293238 -1.0956012277879217 0.61837185886070556 -0.16594714097312405 -1.2539882464546777 -0.40621671172263185 1.3697489408538066 -0.48486317897561498
leaf_weight=9594 600 800 200 1323 1506 221 292 332 332
leaf_count=9594 600 800 200 1323 1506 221 292 332 332
internal_value=0 0.402557 -0.0408392 -0.025328 0.196395 -0.110832 0.435837 0.559581 0.397058
internal_weight=0 1400 13800 13600 3785 9815 2279 1987 1655
internal_count=15200 1400 13800 13600 3785 9815 2279 1987 1655
is_linear=0
shrinkage=0.0765574


Tree=76
num_leaves=10
num_cat=0
split_feature=88 62 5 13 128 0 68 73 72
split_gain=54956.8 43885.8 38347.7 35617.2 34375.9 55311 76340.3 92372.4 111242
threshold=1.0000000180025095e-35 1.0000000180025095e-35 99.500000000000014 270.50000000000006 1.0000000180025095e-35 2018.5000000000002 1.0000000180025095e-35 1.0000000180025095e-35 1.0000000180025095e-35
decision_type=2 2 2 2 2 2 2 2 2
left_child=1 4 -3 -2 -1 6 7 8 -6
right_child=3 2 -4 -5 5 -7 -8 -9 -10
leaf_value=-0.026555167961278218 0.38205581374390829 2.4578078736326376 0.30113708691755814 2.1066624245791221 0.8215644294745319 -1.2504816289146752 -2.3396717960575426 -2.2997197170326431 -2.2114587369062271
leaf_weight=12240 188 50 1440 112 567 360 81 81 81
leaf_count=12240 188 50 1440 112 567 360 81 81 81
internal_value=0 -0.0206559 0.373509 1.02591 -0.0644519 -0.46091 -0.10999 0.137753 0.442437
internal_weight=0 14900 1490 300 13410 1170 810 729 648
internal_count=15200 14900 1490 300 13410 1170 810 729 648
is_linear=0
shrinkage=0.0765574


Tree=77
num_leaves=10
num_cat=0
split_feature=88 5 77 11 35 65 31 75 65
split_gain=46864.2 34642.6 32570.9 30386.4 29045.9 28108.3 26438.8 25640 25235.3
threshold=1.0000000180025095e-35 860.50000000000011 1.0000000180025095e-35 299.50000000000006 635.50000000000011 1.0000000180025095e-35 228.50000000000003 1.0000000180025095e-35 1.0000000180025095e-35
decision_type=2 2 2 2 2 2 2 2 2
left_child=1 2 7 -2 -3 6 -4 -1 -9
right_child=3 4 5 -5 -6 -7 -8 8 -10
leaf_value=-0.027693668127426199 0.42286104232551219 0.52545756804522414 -0.42798629822433754 2.0791987934627003 3.2298424044190002 1.4043284025101948 -1.9656187603836031 0.45345816341370238 2.7939660969823517
leaf_weight=14188 205 79 158 95 33 30 112 270 30
leaf_count=14188 205 79 158 95 33 30 112 270 30
internal_value=0 -0.0190745 -0.0292336 0.947368 1.32229 -0.818804 -1.06582 -0.0128841 0.687509
internal_weight=0 14900 14788 300 112 300 270 14488 300
internal_count=15200 14900 14788 300 112 300 270 14488 300
is_linear=0
shrinkage=0.0765574


Tree=78
num_leaves=10
num_cat=0
split_feature=56 4 65 54 77 54 54 4 4
split_gain=45257.2 48456.9 113138 71559.3 45304.6 34612.5 139418 73165.7 32500.9
threshold=1.0000000180025095e-35 110.50000000000001 1.0000000180025095e-35 1.0000000180025095e-35 1.0000000180025095e-35 0.25000000000000006 0.40000000000000008 71.500000000000014 90.500000000000014
decision_type=2 2 2 2 2 2 2 2 2
left_child=1 2 3 -1 -3 7 -7 -5 -2
right_child=8 4 -4 5 -6 6 -8 -9 -10
leaf_value=2.7589274199602523 2.5496536245118611 0.018797938826561698 3.7460979066863702 -2.5720150676825124 -1.3471062508918263 2.8845126388442672 -0.72055287056188666 -0.64900412392578144 0.33810740555564761
leaf_weight=36 40 12224 36 149 144 72 496 523 1480
leaf_count=36 40 12224 36 149 144 72 496 523 1480
internal_value=0 -0.044034 -0.486424 -0.605836 0.00289479 -0.703523 -0.263573 -1.07539 0.396306
internal_weight=0 13680 1312 1276 12368 1240 568 672 1520
internal_count=15200 13680 1312 1276 12368 1240 568 672 1520
is_linear=0
shrinkage=0.0765574


Tree=79
num_leaves=10
num_cat=0
split_feature=70 3 141 3 65 69 76 114 36
split_gain=42294 53561.8 49650.8 39746.1 132745 120849 69180.1 38402.8 32355.9
threshold=1.0000000180025095e-35 193.50000000000003 1.0000000180025095e-35 100.50000000000001 1.0000000180025095e-35 1.0000000180025095e-35 1.0000000180025095e-35 1.0000000180025095e-35 479.50000000000006
decision_type=2 2 2 2 2 2 2 2 2
left_child=3 -2 -3 4 5 -1 7 -5 -4
right_child=1 2 8 6 -6 -7 -8 -9 -10
leaf_value=-0.89150477383613369 3.585881941323168 -0.0049464846671155834 0.4231892280707657 0.030910213960998734 4.4647535368220783 4.0555972840220731 -1.6159098058231249 -0.89879416796316292 1.6530203039008988
leaf_weight=820 30 970 309 12379 30 30 155 266 211
leaf_count=820 30 970 309 12379 30 30 155 266 211
internal_value=0 0.383113 0.318627 -0.0425681 -0.540254 -0.716901 -0.00835217 0.011353 0.922217
internal_weight=0 1520 1490 13680 880 850 12800 12645 520
internal_count=15200 1520 1490 13680 880 850 12800 12645 520
is_linear=0
shrinkage=0.0765574


Tree=80
num_leaves=10
num_cat=0
split_feature=106 4 58 70 3 0 4 69 76
split_gain=38601.4 40802.7 36248.6 35541.1 47466.6 28798.2 26622.7 82830.5 40166.3
threshold=1.0000000180025095e-35 847.50000000000011 1.0000000180025095e-35 1.0000000180025095e-35 193.50000000000003 2018.5000000000002 112.50000000000001 1.0000000180025095e-35 1.0000000180025095e-35
decision_type=2 2 2 2 2 2 2 2 2
left_child=1 2 3 6 -5 -4 7 -1 -8
right_child=-2 -3 5 4 -6 -7 8 -9 -10
leaf_value=-0.46777587343413379 -0.85980415088644913 1.4059187507873492 -0.12384237616777692 3.6010773965607838 0.35754316745160558 -0.8481347086016473 0.058311165285590605 3.2643439875251792 -1.2377813661585249
leaf_weight=1095 300 123 1020 27 1284 470 10703 36 142
leaf_count=1095 300 123 1020 27 1284 470 10703 36 142
internal_value=0 0.0173115 0.00575308 0.0459062 0.424344 -0.35231 0.00447906 -0.348982 0.0413407
internal_weight=0 14900 14777 13287 1311 1490 11976 1131 10845
internal_count=15200 14900 14777 13287 1311 1490 11976 1131 10845
is_linear=0
shrinkage=0.0765574


Tree=81
num_leaves=10
num_cat=0
split_feature=114 106 8 49 131 18 130 15 65
split_gain=36872.5 34349 33604.3 39931.7 29060.8 32533.2 27393.9 36158.1 24995.3
threshold=1.0000000180025095e-35 1.0000000180025095e-35 672.50000000000011 403.50000000000006 1.0000000180025095e-35 144.50000000000003 1.0000000180025095e-35 507.50000000000006 1.0000000180025095e-35
decision_type=2 2 2 2 2 2 2 2 2
left_child=1 2 4 -4 6 -6 8 -8 -1
right_child=-2 -3 3 -5 5 -7 7 -9 -10
leaf_value=-0.11381375815487238 -0.84032925686136251 -0.79397975969162415 1.7477534951412612 0.27989711876119461 -0.043569760869632462 0.69624875779405271 0.160726365606849 1.497487178155164 0.27372329698828735
leaf_weight=9823 300 300 124 876 684 710 1168 132 1083
leaf_count=9823 300 300 124 876 684 710 1168 132 1083
internal_value=0 0.0169194 0.0335817 0.461911 0.00208687 0.333239 -0.0357327 0.296459 -0.0753301
internal_weight=0 14900 14600 1000 13600 1394 12206 1300 10906
internal_count=15200 14900 14600 1000 13600 1394 12206 1300 10906
is_linear=0
shrinkage=0.0765574


Tree=82
num_leaves=10
num_cat=0
split_feature=124 62 2 2 2 4 0 57 10
split_gain=37803 37335.2 42472.3 41310.6 35041.1 28177.8 27558.1 69184.6 76431
threshold=1.0000000180025095e-35 1.0000000180025095e-35 93.500000000000014 100.50000000000001 1.0000000180025095e-35 657.50000000000011 2018.5000000000002 1.0000000180025095e-35 480.50000000000006
decision_type=2 2 2 2 2 2 2 2 2
left_child=1 2 4 -3 -1 -5 -4 -8 -9
right_child=-2 3 6 5 -6 -7 7 8 -10
leaf_value=0.22259829437271603 -1.0455850849402482 3.8324019446084536 0.080327081512325857 0.1562309477520166 -1.0621609543316621 0.97329834020242711 -0.047345602459320853 -0.3700927906820331 -2.4572813508402556
leaf_weight=180 200 20 8704 1166 403 314 3736 327 150
leaf_count=180 200 20 8704 1166 403 314 3736 327 150
internal_value=0 0.0139411 -0.0263194 0.376286 -0.665494 0.329582 0.00252932 -0.1582 -1.02644
internal_weight=0 15000 13500 1500 583 1480 12917 4213 477
internal_count=15200 15000 13500 1500 583 1480 12917 4213 477
is_linear=0
shrinkage=0.0765574


Tree=83
num_leaves=10
num_cat=0
split_feature=84 56 124 4 65 69 85 138 101
split_gain=54641.7 35583.5 29980.7 28694.3 81171.2 45842.9 32498.2 31098.5 27890.6
threshold=1.0000000180025095e-35 1.0000000180025095e-35 1.0000000180025095e-35 110.50000000000001 1.0000000180025095e-35 1.0000000180025095e-35 1.0000000180025095e-35 1.0000000180025095e-35 1.0000000180025095e-35
decision_type=2 2 2 2 2 2 2 2 2
left_child=1 2 3 4 5 -1 7 8 -5
right_child=-2 -3 -4 6 -6 -7 -8 -9 -10
leaf_value=-0.58389348734314395 1.0229632753944669 0.33433111454643194 -1.0414132605266537 -0.085368558977247419 3.1870160407816059 2.1894485132164285 0.91594626224846443 0.37830926515038632 0.70411517915019206
leaf_weight=1179 300 1490 180 10480 36 36 218 1012 269
leaf_count=1179 300 1490 180 10480 36 36 218 1012 269
internal_value=0 -0.0205966 -0.060033 -0.0466809 -0.39557 -0.50172 -0.0102455 -0.0274132 -0.0656113
internal_weight=0 14900 13410 13230 1251 1215 11979 11761 10749
internal_count=15200 14900 13410 13230 1251 1215 11979 11761 10749
is_linear=0
shrinkage=0.0765574


Tree=84
num_leaves=10
num_cat=0
split_feature=84 123 114 70 2 2 67 65 74
split_gain=46595.5 34765.4 30804.9 31573.8 41694.9 33288.1 103536 92861 95659.2
threshold=1.0000000180025095e-35 1.0000000180025095e-35 1.0000000180025095e-35 1.0000000180025095e-35 193.50000000000003 93.500000000000014 1.0000000180025095e-35 1.0000000180025095e-35 1.0000000180025095e-35
decision_type=2 2 2 2 2 2 2 2 2
left_child=1 2 3 5 -5 6 7 8 -1
right_child=-2 -3 -4 4 -6 -7 -8 -9 -10
leaf_value=-1.2060736359231998 0.94464783456491563 -1.0215818927271578 -0.77319865024675927 3.8218818216219126 0.30181435896439868 -0.0010477882524061231 4.8059506467519677 4.3164018175223164 4.1929992939015275
leaf_weight=502 300 200 300 20 1420 12398 20 20 20
leaf_count=502 300 200 300 20 1420 12398 20 20 20
internal_value=0 -0.0190198 -0.00537945 0.0106168 0.350704 -0.0271707 -0.603455 -0.803064 -0.999213
internal_weight=0 14900 14700 14400 1440 12960 562 542 522
internal_count=15200 14900 14700 14400 1440 12960 562 542 522
is_linear=0
shrinkage=0.0765574


Tree=85
num_leaves=10
num_cat=0
split_feature=88 120 85 6 106 42 119 58 54
split_gain=37533.8 29136.5 28224.3 26110.6 27717.3 27915 25629.6 25235.9 26058.8
threshold=1.0000000180025095e-35 1.0000000180025095e-35 1.0000000180025095e-35 847.50000000000011 1.0000000180025095e-35 459.50000000000006 1.0000000180025095e-35 1.0000000180025095e-35 1.0000000180025095e-35
decision_type=2 2 2 2 2 2 2 2 2
left_child=1 2 3 4 6 -6 7 8 -1
right_child=-2 -3 -4 -5 5 -7 -8 -9 -10
leaf_value=0.31547307830614951 0.84783117706191913 0.72977141530018741 0.70248662298399978 0.9888216171228138 -0.50262461676468473 -2.7036229529151461 0.65727931570087605 -0.36966350747859128 -0.060105107991280909
leaf_weight=1201 300 300 300 141 252 39 300 1370 10997
leaf_count=1201 300 300 300 141 252 39 300 1370 10997
internal_value=0 -0.0170704 -0.0324165 -0.047834 -0.0581574 -0.797604 -0.0426412 -0.058117 -0.0231261
internal_weight=0 14900 14600 14300 14159 291 13868 13568 12198
internal_count=15200 14900 14600 14300 14159 291 13868 13568 12198
is_linear=0
shrinkage=0.0765574


Tree=86
num_leaves=10
num_cat=0
split_feature=56 77 4 4 76 54 85 10 120
split_gain=28842 28071.4 25890.8 25511.8 44684.3 32128 21888.6 21109.5 21273.9
threshold=1.0000000180025095e-35 1.0000000180025095e-35 90.500000000000014 106.50000000000001 1.0000000180025095e-35 1.0000000180025095e-35 1.0000000180025095e-35 1.0000000180025095e-35 1.0000000180025095e-35
decision_type=2 2 2 2 2 2 2 2 2
left_child=1 3 -2 5 6 -1 7 -5 -9
right_child=2 -3 -4 4 -6 -7 -8 8 -10
leaf_value=2.2241536179112251 2.2383096417306874 -0.80802701466977156 0.2644290413442541 0.56265310337241436 -1.2721964170439517 -0.45144382766974911 0.78261984196138923 -0.020517152520342054 0.69205580002675926
leaf_weight=27 40 270 1480 397 157 1020 221 11337 251
leaf_count=27 40 270 1480 397 157 1020 221 11337 251
internal_value=0 -0.0351526 0.316373 -0.0195914 0.0111381 -0.382446 0.027645 0.0137235 -0.00508258
internal_weight=0 13680 1520 13410 12363 1047 12206 11985 11588
internal_count=15200 13680 1520 13410 12363 1047 12206 11985 11588
is_linear=0
shrinkage=0.0765574


Tree=87
num_leaves=10
num_cat=0
split_feature=1 58 128 48 82 120 3 0 57
split_gain=35080.6 33986.9 47641.8 41015.9 33042.5 30848.2 25294.7 32421 48448.6
threshold=28.500000000000004 1.0000000180025095e-35 1.0000000180025095e-35 288.50000000000006 1.0000000180025095e-35 1.0000000180025095e-35 421.50000000000006 2018.5000000000002 1.0000000180025095e-35
decision_type=2 2 2 2 2 2 2 2 2
left_child=1 4 -3 -4 6 -2 -1 -8 -9
right_child=5 2 3 -5 -6 -7 7 8 -10
leaf_value=0.095670960697386245 -0.16429692017643655 -0.11062910935080668 -1.0576858008406342 -4.5625943673560281 -0.6756829337001542 0.62973819155796706 0.65455765194735371 0.23891851091681252 -1.6687010192628486
leaf_weight=5177 6500 710 106 24 270 300 1269 757 87
leaf_count=5177 6500 710 106 24 270 300 1269 757 87
internal_value=0 0.104644 -0.357338 -1.70475 0.155975 -0.129266 0.186777 0.409994 0.04228
internal_weight=0 8400 840 130 7560 6800 7290 2113 844
internal_count=15200 8400 840 130 7560 6800 7290 2113 844
is_linear=0
shrinkage=0.0765574


Tree=88
num_leaves=10
num_cat=0
split_feature=84 88 101 89 138 17 142 128 5
split_gain=38694.8 32541.3 25721 26780.6 27221.6 27502.7 27169.3 33140 26771
threshold=1.0000000180025095e-35 1.0000000180025095e-35 1.0000000180025095e-35 1.0000000180025095e-35 1.0000000180025095e-35 791.50000000000011 1.0000000180025095e-35 1.0000000180025095e-35 735.50000000000011
decision_type=2 2 2 2 2 2 2 2 2
left_child=1 2 3 4 6 -6 8 -8 -1
right_child=-2 -3 -4 -5 5 -7 7 -9 -10
leaf_value=-0.045254541275894324 0.86084355688912573 0.77194086949449625 0.66800578816387279 0.6674343916757568 0.17394094333895985 1.4940394378500566 -0.18827477287125291 -0.92280991371244647 0.71684811287922445
leaf_weight=8521 300 300 300 300 1099 101 3600 400 279
leaf_count=8521 300 300 300 300 1099 101 3600 400 279
internal_value=0 -0.0173324 -0.0335504 -0.0482683 -0.0636048 0.285049 -0.0962911 -0.261728 -0.0210924
internal_weight=0 14900 14600 14300 14000 1200 12800 4000 8800
internal_count=15200 14900 14600 14300 14000 1200 12800 4000 8800
is_linear=0
shrinkage=0.0765574


Tree=89
num_leaves=10
num_cat=0
split_feature=1 58 1 5 1 1 1 67 40
split_gain=30044.2 28920.9 39576.6 28974.9 25354.1 66354.5 38885.6 44394.3 30232.6
threshold=28.500000000000004 1.0000000180025095e-35 4.5000000000000009 262.50000000000006 42.500000000000007 47.500000000000007 51.500000000000007 1.0000000180025095e-35 451.50000000000006
decision_type=2 2 2 2 2 2 2 2 2
left_child=1 -1 3 -3 -2 8 -7 -8 -6
right_child=4 2 -4 -5 5 6 7 -9 -10
leaf_value=0.14419256353012225 -0.23593783728805146 -0.92968340146513018 -0.11478918142114139 -3.6769888406364721 0.28362048959777914 -0.5979489006721258 0.96241586374959809 -2.8396051555917952 1.4192613710742989
leaf_weight=7560 4200 90 720 30 1347 900 180 20 153
leaf_count=7560 4200 90 720 30 1347 900 180 20 153
internal_value=0 0.0968412 -0.329321 -1.61651 -0.119627 0.0682587 -0.383374 0.582214 0.399456
internal_weight=0 8400 840 120 6800 2600 1100 200 1500
internal_count=15200 8400 840 120 6800 2600 1100 200 1500
is_linear=0
shrinkage=0.0765574


Tree=90
num_leaves=10
num_cat=0
split_feature=123 2 124 142 34 70 69 2 2
split_gain=26658.1 24568.3 24236.5 24979.5 49408.4 39075.4 30727.4 61693.8 28521.2
threshold=1.0000000180025095e-35 935.50000000000011 1.0000000180025095e-35 1.0000000180025095e-35 459.50000000000006 1.0000000180025095e-35 1.0000000180025095e-35 245.50000000000003 93.500000000000014
decision_type=2 2 2 2 2 2 2 2 2
left_child=1 2 3 4 6 -6 8 -8 -1
right_child=-2 -3 -4 -5 5 -7 7 -9 -10
leaf_value=-0.5896188548370993 -0.87803273252072522 2.2773441624749298 -0.8296487709862822 -0.12511060780514457 0.32770934933555113 1.4099629315669961 4.7425528764486922 0.41434724174537685 0.021036621843675239
leaf_weight=476 200 28 200 4781 1001 243 20 553 7698
leaf_count=476 200 28 200 4781 1001 243 20 553 7698
internal_value=0 0.0117071 0.00747 0.0188039 0.0876714 0.539114 0.0234671 0.565419 -0.0145239
internal_weight=0 15000 14972 14772 9991 1244 8747 573 8174
internal_count=15200 15000 14972 14772 9991 1244 8747 573 8174
is_linear=0
shrinkage=0.0765574


Tree=91
num_leaves=10
num_cat=0
split_feature=114 106 4 82 77 4 10 131 91
split_gain=23770.9 22963.3 27505.6 22395 22143.6 22986.1 37484.5 22403.8 36506.5
threshold=1.0000000180025095e-35 1.0000000180025095e-35 877.50000000000011 1.0000000180025095e-35 1.0000000180025095e-35 185.50000000000003 95.500000000000014 1.0000000180025095e-35 1.0000000180025095e-35
decision_type=2 2 2 2 2 2 2 2 2
left_child=1 2 3 4 5 -1 -7 -8 -9
right_child=-2 -3 -4 -5 -6 6 7 8 -10
leaf_value=-0.097241307829978363 -0.6747151075292912 -0.64943545128131119 1.5198584769702608 -0.63478205017444 -0.61714990080040033 1.0301043013691817 0.049863453443320056 0.69592583003762065 -0.49607139200084938
leaf_weight=4394 300 300 72 300 300 255 8363 726 190
leaf_count=4394 300 300 72 300 300 255 8363 726 190
internal_value=0 0.0135849 0.0272086 0.0198111 0.0336133 0.0476303 0.114398 0.0892334 0.448677
internal_weight=0 14900 14600 14528 14228 13928 9534 9279 916
internal_count=15200 14900 14600 14528 14228 13928 9534 9279 916
is_linear=0
shrinkage=0.0765574


Tree=92
num_leaves=10
num_cat=0
split_feature=84 124 107 5 5 82 115 70 126
split_gain=31203.3 19525.6 19617.4 24226.3 19061.9 17987.6 18599.9 20763.9 57417.4
threshold=1.0000000180025095e-35 1.0000000180025095e-35 1.0000000180025095e-35 877.50000000000011 412.50000000000006 1.0000000180025095e-35 1.0000000180025095e-35 1.0000000180025095e-35 1.0000000180025095e-35
decision_type=2 2 2 2 2 2 2 2 2
left_child=1 2 3 5 -2 6 7 -1 -9
right_child=4 -3 -4 -5 -6 -7 -8 8 -10
leaf_value=-0.0052745637615741938 0.48067995538024505 -0.76690968035072993 -0.61807349220716978 1.4082226451492441 2.0468612967078585 -0.58618477065019603 -0.58340342974398429 0.24905184023034052 4.3815140688527956
leaf_weight=12367 244 200 300 72 56 300 300 1341 20
leaf_count=12367 244 200 300 72 56 300 300 1341 20
internal_value=0 -0.0155644 -0.00534205 0.00742318 0.773034 0.00038399 0.0129282 0.02596 0.309779
internal_weight=0 14900 14700 14400 300 14328 14028 13728 1361
internal_count=15200 14900 14700 14400 300 14328 14028 13728 1361
is_linear=0
shrinkage=0.0765574


Tree=93
num_leaves=10
num_cat=0
split_feature=88 9 1 1 1 26 1 70 9
split_gain=23386 21011.3 20644.3 43915.2 36031 31457.7 28493.6 47841.2 28452.4
threshold=1.0000000180025095e-35 213.50000000000003 47.500000000000007 43.500000000000007 30.500000000000004 231.50000000000003 51.500000000000007 1.0000000180025095e-35 834.50000000000011
decision_type=2 2 2 2 2 2 2 2 2
left_child=2 -2 3 4 8 -5 -4 -8 -1
right_child=1 -3 6 5 -6 -7 7 -9 -10
leaf_value=0.049689705321762194 0.0068088205073285491 1.2889158758164414 -0.51633413482285984 -0.059730607495865527 -0.2235392481036492 0.75328948313686261 0.099211325030269221 4.0460766558968695 2.8710725380148108
leaf_weight=8679 145 155 900 441 3900 759 180 20 21
leaf_count=8679 145 155 900 441 3900 759 180 20 21
internal_value=0 0.669231 -0.0134744 0.0119675 -0.0301789 0.454505 -0.332656 0.493898 0.0564999
internal_weight=0 300 14900 13800 12600 1200 1100 200 8700
internal_count=15200 300 14900 13800 12600 1200 1100 200 8700
is_linear=0
shrinkage=0.0765574


Tree=94
num_leaves=10
num_cat=0
split_feature=56 97 53 24 40 77 9 40 76
split_gain=21363.2 22544 19452.7 23196 21092.8 19717 20774.4 21687 28536.7
threshold=1.0000000180025095e-35 1.0000000180025095e-35 542.50000000000011 468.50000000000006 453.50000000000006 1.0000000180025095e-35 538.50000000000011 134.50000000000003 1.0000000180025095e-35
decision_type=2 2 2 2 2 2 2 2 2
left_child=1 2 5 -4 -5 6 7 -1 -9
right_child=-2 -3 3 4 -6 -7 -8 8 -10
leaf_value=-0.15295465520055637 0.27228253197274416 0.66236173920355768 -0.81624584997871508 -1.0301679829788428 0.044000683486018086 -0.66128296459916158 0.31852742200916767 0.089486065172684814 -1.1031453809983205
leaf_weight=4806 1520 270 395 125 750 270 1092 5852 120
